{"version": "0.5.4", "metadata": {"date": {"year": 2025, "month": 6, "day": 5, "hour": 17, "minute": 40, "second": 57}, "loudness": -16.764638900756836, "gain": 0.7895256563074251, "name": null, "modeled_by": null, "gear_type": null, "gear_make": null, "gear_model": null, "tone_type": null, "input_level_dbu": null, "output_level_dbu": null, "training": {"settings": {"ignore_checks": false}, "data": {"latency": {"manual": null, "calibration": {"algorithm_version": 1, "delays": [1], "safety_factor": 1, "recommended": 0, "warnings": {"matches_lookahead": false, "disagreement_too_high": false}}}, "checks": {"version": 3, "passed": true}}, "validation_esr": null}}, "architecture": "WaveNet", "config": {"layers": [{"input_size": 1, "condition_size": 1, "head_size": 8, "channels": 16, "kernel_size": 3, "dilations": [1, 2, 4, 8, 16, 32, 64, 128, 256, 512], "activation": "Tanh", "gated": false, "head_bias": false}, {"input_size": 16, "condition_size": 1, "head_size": 1, "channels": 8, "kernel_size": 3, "dilations": [1, 2, 4, 8, 16, 32, 64, 128, 256, 512], "activation": "Tanh", "gated": false, "head_bias": true}], "head": null, "head_scale": 0.02}, "weights": [0.11437460035085678, 0.551068127155304, -0.900938868522644, -0.7271115779876709, -0.5191599130630493, 0.3580860495567322, -0.010247164405882359, 0.8233414888381958, -0.1953566074371338, 0.30303823947906494, -0.3229157328605652, -0.09368713945150375, -0.9708262085914612, -0.7943341135978699, -0.48780494928359985, -0.00034419726580381393, -0.04773406684398651, 0.17165522277355194, -0.10591622442007065, -0.12481250613927841, 0.19309256970882416, 0.23998183012008667, 0.02370169572532177, -0.03894590586423874, -0.1456642597913742, 0.06922562420368195, -0.01601843722164631, -0.2573222517967224, -0.02864258363842964, -0.1782277375459671, -0.16889333724975586, 0.0499458983540535, 0.03734099492430687, 0.04954460635781288, 0.0008573441300541162, -0.1718442291021347, 0.003422134555876255, 0.06991146504878998, 0.21149131655693054, 0.19274352490901947, 0.0918576568365097, -0.19946327805519104, -0.05235331505537033, -0.200821653008461, 0.032653309404850006, 0.02884029410779476, 0.15228036046028137, -0.055275291204452515, -0.1696639209985733, 0.08166562020778656, -0.005721377208828926, 0.03952207788825035, 0.10946404188871384, -0.12967605888843536, -0.02637479268014431, -0.02825726382434368, -0.11961208283901215, -0.23146311938762665, -0.041838258504867554, -0.21614113450050354, -0.04967464506626129, 0.048390381038188934, -0.019174519926309586, -0.01233724132180214, 0.019584929570555687, -0.022199681028723717, 0.05436059832572937, 0.004253440070897341, 0.10640613734722137, 0.19762469828128815, -0.07595375180244446, -0.06480725854635239, 0.0012916839914396405, 0.15435917675495148, 0.11259250342845917, 0.07119672000408173, 0.062262725085020065, -0.13871996104717255, -0.044176261872053146, -0.11063961684703827, -0.11510232836008072, 0.18766483664512634, 0.08707519620656967, -0.2021041065454483, -0.07475879788398743, -0.05976537615060806, -0.012100540101528168, -0.010928659699857235, 0.08021702617406845, -0.10935349762439728, -0.017730575054883957, 0.042267363518476486, 0.11927320063114166, 0.11417583376169205, -0.11454623192548752, -0.11144964396953583, 0.010282565839588642, 0.023394012823700905, -0.15601575374603271, -0.15947790443897247, 0.17201505601406097, 0.08606286346912384, -0.11771798133850098, -0.0008336210157722235, -0.1487663835287094, -0.05758650600910187, -0.07649396359920502, -0.12675639986991882, -0.06716671586036682, -0.009182509034872055, -0.033710215240716934, 0.1789410263299942, -0.1686738282442093, 0.24729123711585999, 0.042858853936195374, -0.19658254086971283, 0.10828829556703568, 0.03137829154729843, 0.09033415466547012, -0.11474485695362091, 0.028294874355196953, 0.07882776111364365, -0.21820469200611115, 0.04057891294360161, -0.06218390911817551, -0.23001337051391602, -0.05548006296157837, -0.15613918006420135, 0.08525922149419785, -0.09844496846199036, 0.004714626353234053, -0.057742077857255936, -0.026251910254359245, -0.07715373486280441, 0.25250738859176636, 0.013522960245609283, 0.10321752727031708, -0.1386493742465973, 0.043760448694229126, 0.011026283726096153, 0.27499064803123474, 0.10191395878791809, 0.21283170580863953, -0.15118712186813354, -0.14187833666801453, 0.028774946928024292, -0.0024978434666991234, -0.00532937329262495, -0.003531212918460369, -0.2610073685646057, -0.16368943452835083, -0.04999203979969025, -0.1776726245880127, 0.05363086983561516, 0.1520920991897583, -0.28296390175819397, 0.0681440532207489, -0.1212725043296814, 0.04959573596715927, -0.14844204485416412, 0.13989584147930145, -0.06295303255319595, -0.10199924558401108, -0.015446282923221588, -0.12079639732837677, -0.10273541510105133, -0.16703692078590393, 0.15846329927444458, -0.024990761652588844, -0.11301203817129135, 0.22958001494407654, 0.04591178521513939, 0.0191113892942667, 0.1503777951002121, -0.03422192856669426, 0.20946429669857025, -0.10683069378137589, -0.16607536375522614, -0.012507039122283459, -0.10768324136734009, -0.06489131599664688, 0.07215070724487305, -0.0012246164260432124, -0.06534933298826218, -0.06775957345962524, 0.13285250961780548, 0.029643075540661812, 0.08545796573162079, -0.21255996823310852, -0.009713273495435715, 0.003987803123891354, 0.19504599273204803, -0.012482719495892525, -0.12415243685245514, -0.049057647585868835, -0.0021003985311836004, -0.185443714261055, 0.1549399197101593, 0.01977129466831684, -0.10878148674964905, 0.1091802790760994, 0.19610536098480225, -0.21509473025798798, 0.00018298269424121827, 0.013994244858622551, 0.10143667459487915, -0.14615467190742493, 0.12337763607501984, -0.06031142547726631, 0.057521406561136246, -0.11926466226577759, -0.09415482729673386, 0.13941384851932526, -0.03914438188076019, 0.06542279571294785, -0.10064765810966492, -0.10433828830718994, -0.012672347947955132, -0.004185022320598364, -0.11095571517944336, 0.06278930604457855, 0.027814434841275215, 0.06774924695491791, -0.07908172160387039, -0.010865652933716774, 0.05982334166765213, -0.05533311143517494, -0.09579531103372574, 0.04928985610604286, -0.0848769024014473, 0.12383273988962173, 0.11331623792648315, 0.10732892900705338, 0.031802088022232056, 0.13069990277290344, -0.16448254883289337, 0.17659451067447662, -0.12244097888469696, 0.010199773125350475, -0.06997422128915787, 0.0681966096162796, 0.194854736328125, -0.13302022218704224, 0.018939297646284103, 0.13587872684001923, -0.26279526948928833, 0.10990258306264877, -0.05288982391357422, -0.11890141665935516, -0.015802498906850815, -0.005589439999312162, -0.09489280730485916, 0.13287606835365295, -0.033196479082107544, -0.009573867544531822, -0.1316140741109848, -0.17299693822860718, 0.11338093131780624, -0.043098334223032, -0.13200335204601288, -0.023534493520855904, 0.16447637975215912, 0.10643235594034195, 0.04599357023835182, -0.031535033136606216, -0.016890157014131546, -0.10361679643392563, -0.04024346172809601, 0.1548020839691162, -0.02078675851225853, -0.14600583910942078, -0.11400669813156128, -0.08510493487119675, 0.10781650245189667, -0.013794554397463799, -0.10598142445087433, 0.19844979047775269, -0.12473678588867188, 0.04782654345035553, 0.1249324381351471, 0.061835628002882004, -0.13812614977359772, -0.16718712449073792, 0.07403257489204407, 0.07782313972711563, 0.1890595257282257, -0.011105421930551529, -0.013981581665575504, -0.10315819829702377, 0.05659564957022667, -0.10848910361528397, -0.002207186073064804, 0.07515225559473038, -0.06855297833681107, -0.11656753718852997, -0.056728556752204895, 0.03597851097583771, -0.19004805386066437, 0.09378784149885178, -0.1081465408205986, -0.1468673050403595, 0.05262301117181778, -0.025706492364406586, 0.008212361484766006, -0.20710374414920807, -0.020992988720536232, 0.03692208230495453, -0.2663751542568207, 0.13787303864955902, -0.01254986971616745, 0.2100479155778885, -0.10238217562437057, 0.04502374678850174, 0.2722187042236328, -0.02525543048977852, 0.09077547490596771, 0.2573434114456177, -0.07905338704586029, 0.055319175124168396, -0.3339958190917969, 0.08723006397485733, 0.01811240427196026, 0.011680479161441326, -0.04077957198023796, 0.11348870396614075, -0.19976714253425598, 0.16321945190429688, 0.022457074373960495, 0.406799852848053, -0.14176173508167267, -0.11299186199903488, -0.45551013946533203, 0.21657809615135193, 0.087987020611763, 0.22638320922851562, -0.01741383597254753, 0.1101955696940422, 0.43466469645500183, 0.048823677003383636, 0.10151577740907669, 0.29328981041908264, -0.12987354397773743, 0.11449127644300461, 0.4107244312763214, -0.1672368198633194, 0.12514449656009674, 0.3995388150215149, 0.0016950219869613647, -0.09244712442159653, -0.05098395794630051, 0.036383166909217834, 0.12903621792793274, -0.0014200650621205568, 0.1446065902709961, 0.07552869617938995, 0.09079787880182266, 0.03558077663183212, 0.1361803412437439, -0.1356915533542633, -0.05786511301994324, -0.17025357484817505, -0.17520691454410553, -0.20439769327640533, 0.04376916587352753, 0.047384489327669144, 0.04797084629535675, 0.04686014726758003, -0.10421409457921982, -0.019206535071134567, 0.03959951922297478, -0.1577569991350174, -0.026691047474741936, -0.2097073495388031, -0.03491760790348053, -0.04785292595624924, -0.008228086866438389, 0.10475461184978485, 0.04244260862469673, 0.049071624875068665, 0.1397814154624939, 0.21449428796768188, 0.029311494901776314, 0.03315363824367523, 0.041507571935653687, -0.018465135246515274, 0.1542365849018097, 0.0405208058655262, 0.07416969537734985, -0.08718079328536987, -0.023887788876891136, -0.057974301278591156, -0.06903497874736786, -0.17274761199951172, -0.15389060974121094, -0.14290118217468262, 0.009177979081869125, 0.03280263766646385, 0.007328382693231106, -0.03553583472967148, 0.1277458220720291, 0.02898460626602173, 0.05821581184864044, -0.1303563416004181, 0.11437317728996277, 0.17189709842205048, -0.0771535336971283, 0.15456528961658478, -0.005154840182512999, -0.08723963797092438, 0.09786870330572128, -0.1957145631313324, -0.056155722588300705, 0.14460822939872742, -0.10404583811759949, -0.12966524064540863, -0.07712225615978241, 0.06619945913553238, -0.0013762387679889798, -0.002789198886603117, 0.05087839066982269, 0.031560976058244705, -0.1054915189743042, 0.12248899042606354, 0.1040429025888443, 0.11694736778736115, -0.21911919116973877, -0.023160584270954132, -0.13379791378974915, 0.04242917522788048, 0.07185346633195877, -0.08074469864368439, -0.05371934548020363, 0.09985695779323578, 0.050151750445365906, -0.17312410473823547, -0.05668051913380623, 0.046457283198833466, -0.22618088126182556, 0.03643873706459999, -0.11312898993492126, -0.2529500126838684, -0.17308446764945984, -0.007299609482288361, -0.011615750379860401, -0.16443930566310883, 0.14561827480793, 0.020819609984755516, 0.006418465171009302, 0.2708686292171478, -0.22334140539169312, 0.2557913064956665, 0.28106048703193665, -0.0887848436832428, 0.09629317373037338, -0.30509278178215027, 0.3477039337158203, -0.02164684794843197, -0.1359279602766037, 0.11300797015428543, -0.06729456782341003, -0.3564249873161316, 0.17210614681243896, -0.0028592757880687714, 0.10397328436374664, -0.18087534606456757, 0.10729455947875977, 0.06255023181438446, 0.16641518473625183, -0.015677781775593758, 0.16468532383441925, -0.1640721708536148, 0.17146646976470947, -0.1395016759634018, 0.20597213506698608, 0.00046113465214148164, 0.06954696774482727, -0.3461732566356659, 0.1041264459490776, -0.2903327941894531, 0.2904048562049866, -0.1361275613307953, -0.22292639315128326, 0.10798017680644989, 0.08611227571964264, -0.22145898640155792, 0.3389822840690613, 0.061064425855875015, -0.1305413842201233, 0.23380959033966064, -0.07507012039422989, -0.24211743474006653, 0.24415796995162964, 0.04009780287742615, -0.025645654648542404, -0.0073912255465984344, -0.011088520288467407, -0.1355959177017212, -0.26718276739120483, 0.4310178756713867, 0.05005797743797302, -0.40500396490097046, 0.31723031401634216, 0.15083128213882446, 0.35329076647758484, -0.08982793241739273, 0.003012910718098283, 0.3147367238998413, -0.15212705731391907, 0.032449085265398026, 0.3144247233867645, -0.2630227506160736, 0.021254491060972214, -0.3005906939506531, 0.16608551144599915, 0.18954193592071533, 0.3230883777141571, -0.1875433474779129, -0.06861431896686554, -0.18733982741832733, 0.19561807811260223, 0.09645549952983856, 0.2112635374069214, -0.2067406326532364, -0.175370454788208, -0.3448927402496338, 0.1541518121957779, 0.20841877162456512, 0.2246342897415161, -0.22246913611888885, -0.016848426312208176, 0.3685828745365143, -0.07593274861574173, -0.025482429191470146, 0.15565802156925201, -0.3190150260925293, 0.07928229123353958, 0.23387369513511658, -0.30924636125564575, 0.020731842145323753, 0.2888736128807068, -0.29151418805122375, 0.003397603752091527, -0.15043401718139648, 0.1702975332736969, 0.12910130620002747, 0.054225001484155655, -0.15643541514873505, 0.06620721518993378, -0.17738750576972961, -0.03969912603497505, -0.18787714838981628, -0.007640490308403969, 0.32421648502349854, -0.1444915235042572, 0.15692929923534393, 0.1694164276123047, -0.09076771885156631, 0.09250927716493607, 0.26580527424812317, 0.07479464262723923, -0.25577351450920105, -0.2621244192123413, -0.1614455282688141, 0.09191695600748062, -0.10944970697164536, 0.18806275725364685, -0.16306844353675842, -0.2087039053440094, 0.026460623368620872, 0.17975790798664093, 0.26603516936302185, 0.14881959557533264, -0.16359999775886536, -0.2614484429359436, -0.06984559446573257, 0.24299964308738708, 0.11937344074249268, -0.21481013298034668, 0.13942378759384155, 0.2913341820240021, -0.0920492634177208, 0.012701187282800674, 0.052191831171512604, -0.01891012117266655, 0.11859546601772308, 0.10768485814332962, -0.026549499481916428, 0.18039470911026, 0.28934192657470703, 0.11325515061616898, -0.09408630430698395, -0.1414569914340973, -0.06672142446041107, 0.11099497973918915, 0.1890021413564682, 0.06302766501903534, -0.24506232142448425, 0.17683735489845276, 0.13118283450603485, 0.24747222661972046, -0.17002873122692108, -0.058045778423547745, 0.01596139371395111, 0.08997566252946854, -0.07075516134500504, 0.05062210559844971, 0.022639034315943718, -0.05606015771627426, -0.1915879249572754, 0.03791855275630951, 0.008317621424794197, -0.028268584981560707, 0.07528195530176163, -0.06084562465548515, -0.06820771098136902, 0.1708715856075287, 0.05122939869761467, 0.12337112426757812, 0.052916090935468674, 0.025348784402012825, -0.1815825253725052, 0.18784856796264648, 0.028721347451210022, -0.027903640642762184, -0.09324172884225845, -0.09098964184522629, 0.22811873257160187, -0.05805128812789917, -0.1340818703174591, 0.10872083157300949, 0.04476836323738098, 0.03303761035203934, 0.1645078808069229, -0.034404318779706955, 0.046904996037483215, 0.08015844970941544, -0.10692547261714935, -0.12342219799757004, -0.17683394253253937, 0.10335506498813629, -0.005750463809818029, 0.012619596906006336, 0.16506965458393097, 0.020286032930016518, -0.18918469548225403, 0.14037062227725983, -0.09239286184310913, 0.2157076895236969, -0.11498662084341049, -0.043703578412532806, 0.1747855395078659, -0.06002223119139671, 0.10686780512332916, -0.007687649689614773, -0.1291331797838211, -0.045207586139440536, -0.06380312889814377, 0.14166490733623505, -0.04356365650892258, 0.1289241909980774, -0.08387035131454468, -0.023148275911808014, 0.008388357236981392, -0.11227897554636002, -0.022251827642321587, 0.20515571534633636, -0.057264652103185654, 0.13047389686107635, -0.1313316375017166, 0.1304025799036026, -0.15461352467536926, 0.06786137819290161, -0.03838920220732689, 0.00862521305680275, 0.11274678260087967, 0.0778331533074379, -0.02845238335430622, 0.0930633693933487, 0.09965495765209198, -0.04880328103899956, 0.22315186262130737, -0.09795652329921722, -0.02940649352967739, 0.08359960466623306, 0.05803855136036873, 0.05363161116838455, -0.10898242890834808, -0.08056244999170303, 0.019224217161536217, 0.05437791720032692, -0.09227411448955536, -0.06594591587781906, 0.19337521493434906, 0.10964497923851013, -0.0132790831848979, -0.23666222393512726, 0.12687599658966064, -0.13197945058345795, -0.06838782131671906, 0.04626346006989479, -0.08698722720146179, -0.045913659036159515, -0.09451553970575333, 0.046919070184230804, -0.00019033958960790187, -0.049887292087078094, -0.01851811632514, 0.030356116592884064, -0.0014611984370276332, 0.11897512525320053, 0.08510037511587143, -0.09254240244626999, -0.12120384722948074, -0.20722299814224243, 0.20679157972335815, -0.020893361419439316, 0.0994853749871254, -0.0009498987346887589, 0.07938489317893982, 0.029144586995244026, 0.15595267713069916, -0.09354262799024582, -0.07610350102186203, -0.02843458019196987, -0.10991138219833374, -0.07036281377077103, 0.15906034409999847, -0.13996008038520813, -0.014463127590715885, -0.047494933009147644, -0.048096347600221634, 0.01888849027454853, -0.0003716530045494437, 0.04352714866399765, -0.05583235248923302, 0.002659076126292348, 0.0052012852393090725, -0.30829039216041565, 0.29400238394737244, -0.1402244120836258, -0.40893566608428955, 0.12928730249404907, 0.15608909726142883, 0.256471186876297, -0.052618782967329025, 0.1650371253490448, 0.39218538999557495, -0.19473594427108765, 0.018859324976801872, 0.248143270611763, -0.24700360000133514, -0.027350202202796936, -0.17858892679214478, 0.24827879667282104, 0.06741644442081451, 0.22668801248073578, -0.15265870094299316, 0.06657951325178146, -0.3590565025806427, 0.018447361886501312, 0.03448836877942085, 0.3637908101081848, -0.2955930233001709, 0.10007505863904953, -0.23544462025165558, 0.035322535783052444, 0.0033404119312763214, 0.41301336884498596, -0.24618764221668243, -0.03597210720181465, 0.2855221629142761, -0.25523102283477783, 0.12275045365095139, 0.3749372363090515, -0.028665008023381233, -0.05199931934475899, 0.4419915974140167, -0.20828790962696075, 0.18074806034564972, 0.1535458266735077, -0.2552517354488373, 0.05688106641173363, -0.10934532433748245, 0.2216740995645523, -0.13371367752552032, -0.11019907891750336, -0.13727439939975739, -0.053625356405973434, 0.010507003404200077, 0.028424695134162903, -0.01741611585021019, 0.007614314556121826, 0.06380143761634827, 0.00909418798983097, 0.0244134571403265, 0.01485518366098404, -0.04149875044822693, -0.05107581615447998, -0.034638430923223495, 0.07236167788505554, 0.5763334035873413, -0.3759782612323761, 0.8341184854507446, -0.8152461051940918, 0.003294791793450713, 0.9899292588233948, 1.000883936882019, -0.5000059008598328, 0.22077180445194244, 0.1436557173728943, -0.266946017742157, -0.5360575914382935, 0.31323546171188354, -0.7037801742553711, 0.14913229644298553, 0.5431585907936096, -0.04248331859707832, 0.19890254735946655, 0.06187045946717262, 0.027394616976380348, 0.3388615548610687, -0.04953865334391594, 0.2909693717956543, -0.16530179977416992, 0.044180721044540405, -0.1836356222629547, -0.08596114814281464, -0.1438188999891281, 0.07627364993095398, -0.052494198083877563, 0.16236165165901184, -0.14196601510047913, -0.010081001557409763, -0.19756504893302917, -0.28206929564476013, 0.16125310957431793, 0.04653041437268257, -0.1209598034620285, -0.9373400211334229, 0.24928614497184753, -0.06407418847084045, 0.5818139314651489, 0.01104231271892786, 0.1813453733921051, 0.10998848080635071, -0.045240405946969986, 0.17568720877170563, 0.17931105196475983, -0.06452134996652603, 0.12322889268398285, -0.08768241852521896, 0.27016767859458923, -0.20044583082199097, -0.19032272696495056, 0.02179499715566635, -0.16284821927547455, -0.07782217860221863, -0.055159371346235275, 0.3333507478237152, -0.1350257843732834, 0.10137452185153961, 0.3257817029953003, -0.04547242075204849, 0.17096306383609772, 0.38306498527526855, -0.07230141013860703, 0.14897213876247406, -0.23631396889686584, -0.002409962937235832, 0.14275997877120972, 0.10593840479850769, -0.05915996804833412, -0.18186204135417938, -0.13639898598194122, 0.0012961511965841055, -0.11048565804958344, 0.05840248614549637, 0.13772742450237274, -0.04830003157258034, -0.10888644307851791, -0.2573714852333069, -0.1293417364358902, -0.3711504638195038, 0.4285137355327606, 0.045344606041908264, -0.1735823005437851, -0.08778464049100876, -0.16236630082130432, -0.1453835368156433, 0.21149791777133942, -0.003349376143887639, 0.4793352782726288, -0.1146213486790657, 0.34024736285209656, -0.22873739898204803, 0.28984764218330383, -0.14688298106193542, -0.09884706139564514, 0.18295741081237793, -0.03172658011317253, 0.2848930358886719, 0.34151214361190796, -0.0414857491850853, 0.19883078336715698, 0.29526081681251526, 0.15473228693008423, -0.29349514842033386, -0.21353675425052643, -0.1494138240814209, -0.25602906942367554, 0.18578606843948364, -0.05102185904979706, 0.04926079511642456, 0.14414739608764648, 0.20173631608486176, 0.22665958106517792, -0.1363799124956131, -0.3830052316188812, -0.08367446064949036, 0.14176660776138306, 0.016785839572548866, -0.4686443507671356, -0.3249489665031433, 0.3347175419330597, -0.017688648775219917, -0.1227351650595665, 0.14893202483654022, -0.24666078388690948, 0.16461150348186493, 0.10043391585350037, 0.2288087159395218, -0.20826824009418488, -0.292964369058609, 0.1579108089208603, 0.13113658130168915, 0.031123559921979904, 0.12310498207807541, -0.12231390923261642, 0.23375771939754486, -0.2388748675584793, 0.05314728245139122, -0.12625493109226227, -0.1629904955625534, 0.060385242104530334, -0.3118353486061096, 0.05977819114923477, -0.4408048987388611, -0.052502669394016266, -0.022836048156023026, -0.30635592341423035, -0.17229601740837097, -0.13104809820652008, -0.33902040123939514, -0.30517369508743286, 0.2988056242465973, 0.3771807551383972, -0.13541948795318604, 0.020612144842743874, -0.06841855496168137, 0.22619085013866425, -0.16029246151447296, 0.06408022344112396, 0.27857720851898193, -0.2739608585834503, -0.11634881049394608, 0.048719968646764755, 0.04809241741895676, -0.23553672432899475, 0.07133536785840988, -0.07710111886262894, -0.05254347249865532, 0.01932934857904911, -0.05800139531493187, 0.11279561370611191, -0.12367340177297592, -0.08737877756357193, 0.09525058418512344, 0.2154756635427475, -0.26992902159690857, 0.12845300137996674, -0.08326787501573563, -0.2151266187429428, 0.14684632420539856, -0.053534168750047684, 0.02930643782019615, -0.18980778753757477, -0.03712063282728195, 0.013477412983775139, -0.08883347362279892, 0.1336836814880371, -0.0024635421577841043, 0.3748844563961029, 0.16966022551059723, -0.14926289021968842, 0.3170367479324341, -0.1119915246963501, 0.06125041842460632, 0.0022525209933519363, -0.06845053285360336, -0.06626542657613754, 0.08459983021020889, -0.0029448994901031256, -0.14651066064834595, -0.3133503794670105, -0.03074752353131771, 0.009914610534906387, -0.07142134010791779, -0.35379594564437866, 0.031245825812220573, -0.003202298190444708, 0.1388310045003891, -0.05125276744365692, 0.2603558599948883, -0.08874403685331345, 0.31717219948768616, 0.23968280851840973, 0.28381088376045227, -0.4035782217979431, -0.18689404428005219, -0.008259831927716732, 0.08583126962184906, -0.22838306427001953, -0.04667516052722931, 0.0862990990281105, -0.16108457744121552, -0.11098937690258026, -0.3184666335582733, 0.26120516657829285, -0.20186473429203033, -0.09152747690677643, 0.12279947847127914, -0.0005018250085413456, -0.14746041595935822, -0.22577333450317383, 0.1485922932624817, 0.2566966712474823, -0.30284395813941956, 0.10721439868211746, -0.35800954699516296, 0.3354407846927643, -0.21233415603637695, 0.26168540120124817, -0.142354354262352, -0.03687729313969612, 0.0923597663640976, -0.04513201862573624, 0.2895597219467163, 0.1502661108970642, -0.3222653269767761, 0.06228194385766983, 0.013549700379371643, -0.03030240908265114, 0.08516034483909607, 0.2730042040348053, -0.2180250883102417, 0.04156634584069252, 0.14638933539390564, 0.14758926630020142, 0.16576892137527466, 0.005641962867230177, -0.25240984559059143, 0.14591367542743683, -0.20591260492801666, 0.04121331498026848, -0.19397036731243134, 0.07501429319381714, -0.012282521463930607, -0.13261274993419647, 0.09043249487876892, 0.24584221839904785, 0.015823783352971077, -0.025823168456554413, 0.13267944753170013, -0.06907840073108673, 0.23190370202064514, -0.2755141258239746, -0.1602783352136612, 0.08867336064577103, 0.15766893327236176, -0.00427529402077198, 0.0829593762755394, -0.20368050038814545, 0.07522846013307571, 0.020278330892324448, -0.024621589109301567, 0.2186630666255951, 0.0027002475690096617, -0.07527274638414383, 0.08365543186664581, 0.20381976664066315, 0.21705354750156403, 0.28139883279800415, -0.33428314328193665, -0.3591015338897705, -0.050415631383657455, -0.055893946439027786, 0.12949220836162567, -0.186205193400383, 0.053637489676475525, -0.13996797800064087, -0.10731632262468338, -0.19081522524356842, 0.12824299931526184, 0.20594310760498047, 0.03938557580113411, 0.055517010390758514, 0.06710763275623322, 0.01211928017437458, 0.5164655447006226, 0.05278221145272255, -0.0914694145321846, -0.3871413767337799, -0.06443314999341965, -0.034017521888017654, -0.039908647537231445, -0.1238286942243576, -0.10521411150693893, -0.39362311363220215, -0.12869448959827423, -0.09426375478506088, 0.10743828862905502, -0.1137988492846489, 0.07288870960474014, 0.023699963465332985, 0.028022443875670433, -0.027606036514043808, 0.3273950517177582, -0.08816636353731155, 0.03679206967353821, 0.06595258414745331, -0.1370760053396225, 0.03382888808846474, 0.10999452322721481, 0.12854434549808502, 0.009983696043491364, -0.22478565573692322, 0.1201135516166687, 0.23847687244415283, 0.06541144102811813, -0.020003557205200195, -0.2763049006462097, 0.16717751324176788, -0.14757707715034485, -0.1526944488286972, 0.15921084582805634, -0.15682516992092133, 0.005769248586148024, -0.20736297965049744, -0.005239880643785, -0.23230695724487305, 0.15462076663970947, 0.007901481352746487, 0.04845177009701729, -0.03370528668165207, 0.12387629598379135, 0.10765416920185089, -0.04637539014220238, 0.23856514692306519, 0.07133812457323074, 0.08632401376962662, -0.1975875198841095, -0.1279582530260086, 0.02513810805976391, 0.12787333130836487, 0.0659598782658577, -0.14046595990657806, -0.057650502771139145, -0.09486666321754456, 0.021233346313238144, -0.06424809247255325, 0.05962628498673439, -0.008299436420202255, -0.2315295934677124, 0.030023738741874695, -0.12263672798871994, -0.03456152230501175, -0.008171061985194683, 0.09795045107603073, -0.15997254848480225, -0.20750217139720917, 0.021620972082018852, -0.01607523486018181, 0.17194637656211853, -0.18530458211898804, -0.09781339019536972, 0.015569482930004597, 0.058778371661901474, 0.5543689727783203, -0.5317574739456177, -0.5931976437568665, 0.05274641513824463, 0.11364466696977615, 0.10049115866422653, 0.15885046124458313, 0.05991493910551071, -0.05393907427787781, 0.1430075764656067, -0.041085634380578995, 0.08031818270683289, -0.049125608056783676, 0.057238612323999405, 0.13178090751171112, 0.09477319568395615, 0.014322469010949135, -0.36901336908340454, -0.13619574904441833, -0.1650097370147705, 0.15729054808616638, 0.013832174241542816, -0.10117081552743912, -0.05458938702940941, -0.09752824902534485, 0.014560948126018047, -0.09152757376432419, -0.0937713012099266, -0.11884041130542755, 0.07810559123754501, 0.13418108224868774, 0.05550951138138771, 0.1161213293671608, -0.08534781634807587, 0.3699319064617157, 0.046481698751449585, 0.04811222106218338, 0.010659798048436642, 0.10284283757209778, -0.0959128886461258, 0.06989723443984985, 0.08376846462488174, -0.09178702533245087, 0.0931413397192955, 0.15117038786411285, -0.1981479376554489, -0.11513624340295792, -0.044457972049713135, 0.11314836144447327, 0.11895053088665009, 0.4660322368144989, 0.13846611976623535, -0.11281058192253113, -0.088386669754982, 0.11885318905115128, 0.14493626356124878, -0.08905702829360962, -0.021676532924175262, -0.15348602831363678, -0.03407027944922447, -0.12256522476673126, 0.09866783022880554, -0.06884147971868515, 0.07995276153087616, -0.06416744738817215, 0.1060006245970726, -0.17568328976631165, 0.14693313837051392, -0.0819978266954422, 0.1421624720096588, -0.16851679980754852, 0.12085249274969101, 0.09682711958885193, -0.11937565356492996, -0.03860437497496605, 0.1986468881368637, -0.06927294284105301, 0.11017915606498718, 0.05674906447529793, 0.08354436606168747, 0.11792700737714767, -0.03995344042778015, -0.082821324467659, -0.16237477958202362, 0.12102514505386353, -0.1708754003047943, -0.07569536566734314, 0.030556360259652138, -0.028147036209702492, 0.12578172981739044, 0.07159967720508575, 0.11259329319000244, 0.0643746480345726, -0.13780727982521057, -0.0708141177892685, 0.0038757887668907642, -0.005060519557446241, -0.029048580676317215, 0.057692307978868484, -0.009588681161403656, 0.10486406832933426, -0.14971858263015747, -0.16956846415996552, -0.016465159133076668, 0.08175542950630188, 0.020430482923984528, -0.029100723564624786, -0.201196551322937, -0.19962549209594727, 0.04492351412773132, 0.02081986330449581, 0.4126589298248291, -0.1923578530550003, 0.030113358050584793, -0.12357649952173233, 0.13114725053310394, 0.1933167725801468, 0.16202807426452637, 0.090281181037426, -0.1462869495153427, -0.19083449244499207, -0.08681989461183548, 0.049857791513204575, 0.1870191991329193, -0.03158963471651077, -0.10817195475101471, -0.1932428926229477, -0.034826040267944336, 0.12282968312501907, 0.08353900164365768, -0.020978767424821854, -0.015325385145843029, 0.07488936930894852, -0.0129013080149889, -0.0849330872297287, 0.048672206699848175, -0.06613557040691376, -0.18249498307704926, -0.0029110917821526527, -0.06850674003362656, -0.028316963464021683, -0.19578436017036438, 0.08850990235805511, -0.02929508686065674, 0.37316229939460754, -0.21531499922275543, 0.13811279833316803, -0.02686483785510063, -0.117181196808815, 0.09838197380304337, -0.07247138768434525, 0.23219840228557587, 0.09439494460821152, -0.039381012320518494, -0.055264849215745926, 0.08394481986761093, 0.12040145695209503, 0.055968303233385086, -0.049477335065603256, -0.03470732644200325, -0.029522957280278206, -0.04539521783590317, 0.1590246707201004, -0.009779278188943863, 0.08763724565505981, 0.15447217226028442, 0.014999579638242722, -0.0015778167871758342, 0.1765228658914566, 0.03465908765792847, -0.04065469279885292, 0.10448072850704193, -0.021674221381545067, 0.1488264948129654, 0.05543171614408493, 0.048016466200351715, 0.01789768785238266, -0.23945070803165436, 0.2993510663509369, 0.07971988618373871, -0.024911217391490936, -0.2010183036327362, 0.1508793830871582, -0.048813093453645706, 0.028611760586500168, -0.1284690946340561, -0.005381842143833637, 0.11220542341470718, 0.03672870248556137, 0.1433008462190628, 0.20701910555362701, -0.13700108230113983, 1.088795781135559, 0.3073056638240814, 0.34837818145751953, -0.2638547420501709, -0.037546221166849136, 0.4022039771080017, 0.23969945311546326, 0.13259680569171906, -0.1252976804971695, -0.2984120845794678, 0.11618828028440475, 0.319527804851532, 0.4600169360637665, 0.11536645144224167, -0.08933258056640625, 0.4258556365966797, 0.2698143720626831, 0.034947507083415985, 0.03457563742995262, -0.1550310254096985, -0.2949966490268707, -0.25075122714042664, -0.10788438469171524, 0.17160744965076447, 0.0983348935842514, -0.15637290477752686, -0.14051908254623413, -0.1784805804491043, -0.03459062799811363, 0.34697043895721436, 0.1766783595085144, 0.1641462743282318, -0.3244691789150238, -0.3325972259044647, 0.16335849463939667, 0.17549511790275574, -0.2246420979499817, 0.12422893941402435, 0.16268667578697205, -0.3986052870750427, 0.009447471238672733, 0.21586446464061737, 0.05864899232983589, -0.09666899591684341, -0.2766828238964081, -0.06631331890821457, 0.1797364503145218, -0.021121665835380554, 0.34982743859291077, -0.28572097420692444, 0.2500022351741791, -0.22128769755363464, -0.1077340692281723, 0.2060832679271698, -0.002756551606580615, -0.007603680249303579, -0.16967253386974335, -0.0860171765089035, -0.2104223370552063, 0.0009978817543014884, 0.2560725510120392, 0.032727133482694626, -0.1280875951051712, -0.060400303453207016, 0.015267272479832172, 0.09190340340137482, 0.14645087718963623, 0.03683461248874664, -0.055243536829948425, -0.08262064307928085, -0.24825550615787506, 0.23768091201782227, 0.18233291804790497, 0.17673350870609283, -0.10261067748069763, -0.014434157870709896, -0.21231794357299805, 0.08918667584657669, 0.03327532112598419, 0.09226296842098236, -0.09774550050497055, -0.2289007306098938, 0.07029560208320618, -0.0727001205086708, -0.2217593491077423, -0.1207222193479538, -0.016771534457802773, -0.04664706066250801, -0.043863750994205475, 0.20740725100040436, 0.025461014360189438, 0.10275576263666153, -0.06217027083039284, 0.04632560536265373, 0.3011415898799896, 0.011747303418815136, -0.24944962561130524, -0.49655085802078247, -0.11936663091182709, 0.30077245831489563, 0.0214622113853693, 0.1575564593076706, 0.09006606042385101, 0.10223551094532013, -0.014984434470534325, 0.25412994623184204, -0.06803905218839645, 0.015950944274663925, -0.259532630443573, 0.20567801594734192, 0.008452528156340122, 0.11380138993263245, -0.06041989102959633, -0.03709619119763374, -0.20591993629932404, 0.05197808891534805, 0.04488551244139671, 0.11052381992340088, -0.2162446677684784, 0.09914041310548782, -0.09132182598114014, 0.13908171653747559, -0.1959334909915924, 0.2298971712589264, -0.14159102737903595, -0.06802614778280258, -0.10246913880109787, 0.15631823241710663, 0.14336355030536652, 0.006908131763339043, 0.14998997747898102, 0.037042051553726196, 0.09146802127361298, -0.15380817651748657, -0.14445865154266357, 0.15924611687660217, -0.1365257203578949, -0.006714006885886192, -0.06062964349985123, 0.06432735174894333, -0.07302837073802948, 0.27761441469192505, 0.013172000646591187, -0.037477340549230576, -0.24241094291210175, 0.37033095955848694, 0.17100846767425537, -0.3164918124675751, 0.20905138552188873, 0.0334717258810997, -0.06719502061605453, -0.005161948036402464, -0.10915709286928177, -0.09886687994003296, 0.15300294756889343, -0.03098316676914692, 0.10323888063430786, -0.3025795519351959, 0.007224691100418568, 0.029552841559052467, 0.09081381559371948, -0.26399049162864685, 0.022082118317484856, -0.2982929050922394, 0.195584237575531, -0.2562505602836609, 0.3416154384613037, 0.03784249350428581, -0.09759896248579025, -0.44104963541030884, 0.10065983235836029, -0.3029681444168091, 0.21298553049564362, 0.12331820279359818, 0.2821396291255951, -0.21509210765361786, -0.002759471070021391, -0.23754368722438812, -0.07143878936767578, -0.3258911073207855, -0.3024718165397644, 0.2823401093482971, 0.0876648873090744, -0.20715592801570892, 0.07474929839372635, 0.11732091754674911, 0.08877541124820709, -0.2524432837963104, -0.09121876955032349, 0.12126976996660233, 0.2546481192111969, -0.10251548886299133, -0.005969609133899212, -0.12582382559776306, 0.16272197663784027, -0.02077457495033741, 0.0004628168244380504, 0.049993786960840225, -0.3776935040950775, -0.42168697714805603, -0.22982065379619598, -0.09433754533529282, -0.10050588846206665, -0.3090277910232544, 0.16017143428325653, 0.26041531562805176, 0.2636058032512665, -0.17744049429893494, 0.03697693347930908, 0.14204978942871094, 0.012102355249226093, 0.22070300579071045, 0.17038211226463318, -0.0017521444242447615, 0.07187416404485703, 0.15163858234882355, -0.20140664279460907, -0.20488448441028595, -0.1024107038974762, 0.030849304050207138, -0.12020519375801086, -0.2126639485359192, 0.023416602984070778, -0.06161358207464218, -0.06109829992055893, -0.12706923484802246, -0.25639277696609497, -0.5732483267784119, 0.10411207377910614, 0.03184158727526665, 0.05426442250609398, 0.0017355342861264944, 0.003511024173349142, -0.07069393992424011, -0.13614003360271454, -0.28780585527420044, -0.02821635641157627, -0.014648383483290672, -0.05742472782731056, -0.04124808683991432, -0.47136732935905457, 0.025468096137046814, -0.2746693789958954, 0.09884823113679886, 0.163543701171875, -0.03740447387099266, 0.06307943910360336, 0.11046745628118515, 0.1211353987455368, 0.16565187275409698, 0.07163496315479279, -0.25528252124786377, -0.25045546889305115, 0.03302999213337898, 0.1315760612487793, -0.12252071499824524, -0.10461892932653427, -0.20560601353645325, 0.028759730979800224, 0.06363857537508011, 0.21197430789470673, 0.2672552466392517, -0.11636887490749359, -0.2835453152656555, -0.22460304200649261, 0.09466592967510223, 0.05932648107409477, 0.15242552757263184, 0.08108390122652054, -0.2207975536584854, -0.1926477998495102, 0.07275360077619553, 0.20223812758922577, 0.4279218912124634, 0.12520265579223633, -0.172275111079216, 0.2684582471847534, 0.020855549722909927, -0.22568799555301666, 0.33097535371780396, 0.07928139716386795, -0.2540116608142853, -0.1806119829416275, 0.030437393113970757, 0.24172738194465637, 0.023051226511597633, 0.0727621391415596, -0.04963042587041855, 0.05185152590274811, -0.08115597814321518, -0.11061714589595795, 0.059309158474206924, 0.03797570988535881, -0.16955718398094177, -0.11288997530937195, -0.11225400120019913, -0.09584250301122665, 0.15179704129695892, -0.031943660229444504, -0.24852821230888367, -0.06996890902519226, -0.12223205715417862, 0.22656753659248352, 0.12736430764198303, 0.1155150830745697, -0.010596743784844875, -0.11823838204145432, -0.07213201373815536, 0.28011658787727356, -0.08507150411605835, 0.08333926647901535, 0.03154909983277321, -0.1006721779704094, 0.013984174467623234, 0.01266582403331995, 0.08237022161483765, 0.11666731536388397, -0.07388509809970856, 0.08681787550449371, -0.17734941840171814, 0.03978339210152626, 0.0690392553806305, -0.049023035913705826, -0.022100601345300674, -0.024758031591773033, -0.03380713239312172, -0.1913304626941681, 0.038824986666440964, -0.10614907741546631, -0.09016170352697372, 0.038684241473674774, 0.10383789241313934, 0.13788162171840668, 0.05846119672060013, 0.15446223318576813, 0.2628941833972931, -0.3856264054775238, 0.07224348187446594, -0.1290721893310547, 0.2930837571620941, 0.05698145925998688, 0.23012368381023407, -0.3910198509693146, -0.34952905774116516, -0.4440608620643616, -0.15485374629497528, -0.11519569903612137, -0.021310556679964066, -0.004496157635003328, 0.1456211656332016, 0.036193396896123886, -0.36114683747291565, 0.11043113470077515, -0.1604752093553543, 0.18680457770824432, -0.0307180006057024, 0.0709727555513382, 0.13698485493659973, 0.04811205714941025, 0.23931969702243805, -0.07589389383792877, -0.5038960576057434, -0.036767326295375824, 0.013230491429567337, 0.018874840810894966, -0.04153675585985184, -0.013998454436659813, 0.06257206201553345, -0.13412275910377502, -0.07301175594329834, -0.12990309298038483, -0.034448254853487015, 0.35319212079048157, 0.38441750407218933, 0.18992534279823303, 0.1115836575627327, 0.04849771037697792, -0.0642779991030693, -0.0855235755443573, -0.1839529573917389, -0.07357694208621979, -0.19625715911388397, -0.1118798702955246, -0.23937048017978668, 0.11582779139280319, 0.30447936058044434, -0.0407191701233387, -0.15797148644924164, 0.2349381446838379, 0.07360830903053284, 0.13376401364803314, 0.11398819833993912, 0.09712722152471542, -0.04234529286623001, 0.24828049540519714, 0.11366645246744156, 0.19543489813804626, -0.26346203684806824, -0.15323537588119507, -0.22645220160484314, 0.17326542735099792, -0.24922914803028107, 0.1627425253391266, -0.29325050115585327, -0.07874976098537445, -0.12202966213226318, -0.03369827941060066, -0.05231383442878723, 0.1604648232460022, -0.2387397587299347, 0.21716193854808807, -0.1052117720246315, 0.25611424446105957, 0.1798287183046341, 0.23925144970417023, 0.03075488843023777, -0.04952479898929596, -0.15516500174999237, 0.23889164626598358, -0.052343931049108505, -0.20118656754493713, 0.08804688602685928, -0.006436763796955347, -0.23315252363681793, 0.12194693088531494, -0.09278097748756409, 0.3647538721561432, -0.09616763144731522, 0.05350632593035698, -0.058204349130392075, 0.11788118630647659, 0.001466667978093028, 0.008335950784385204, -0.03844769671559334, -0.32519224286079407, 0.0016149745788425207, 0.17533287405967712, 0.028695980086922646, 0.06540273129940033, 0.06956829875707626, 0.017561843618750572, -0.06361431628465652, 0.09322339296340942, -0.046098366379737854, -0.04516777768731117, -0.27890729904174805, -0.0019857436418533325, 0.2128290832042694, 0.21009674668312073, -0.5097169876098633, 0.054931968450546265, -0.3412148952484131, -0.05175105109810829, -0.14696930348873138, 0.05724840983748436, -0.06929982453584671, 0.005869837012141943, -0.014489655382931232, 0.28899553418159485, -0.03393292427062988, 0.20672236382961273, -0.15555042028427124, 0.0872194692492485, -0.01837078668177128, 0.15573954582214355, 0.016627579927444458, 0.2386896163225174, 0.09226451069116592, -0.0009217376355081797, 0.24747097492218018, -0.12443087249994278, 0.035981666296720505, 0.05348335951566696, 0.023934897035360336, 0.11020178347826004, 0.04128023982048035, 0.22959555685520172, 0.26743561029434204, 0.15108121931552887, 0.026554979383945465, 0.08485134690999985, -0.09332170337438583, 0.12689363956451416, 0.1553831696510315, 0.08957841992378235, -0.021645044907927513, 0.030003923922777176, 0.34262287616729736, 0.05032898113131523, 0.12327015399932861, 0.4874057471752167, -0.04234807938337326, -0.048002418130636215, -0.6443824172019958, 0.268909752368927, 0.29048219323158264, -0.6517611145973206, 0.2763606905937195, -0.8777347207069397, -0.5682388544082642, -0.48459798097610474, 0.7842099666595459, -0.8190303444862366, -0.37353527545928955, -0.8067265152931213, 0.42558518052101135, -0.7297043800354004, 0.32299211621284485, -0.6131609678268433, -0.2254887968301773, -0.17054125666618347, -0.021128404885530472, 0.16199128329753876, 0.28142204880714417, -0.12435167282819748, -0.5360068678855896, -0.20028351247310638, 0.07007677853107452, -0.14354461431503296, 0.06735140085220337, 0.29709392786026, 0.20333042740821838, 0.08063133805990219, -0.2191309928894043, -0.018991151824593544, -0.11299894750118256, -0.22281162440776825, 0.19836273789405823, -0.026823746040463448, 0.019316626712679863, -0.07456114143133163, -0.39976921677589417, -0.24425621330738068, 0.17799687385559082, -0.4152592122554779, 0.12509241700172424, 0.5561498403549194, 0.08949528634548187, -0.12054745852947235, -0.18240830302238464, 0.07354197651147842, 0.03579229116439819, -0.13488148152828217, 0.02161569520831108, 0.21141086518764496, -0.04997825622558594, 0.19737344980239868, 0.0836244523525238, 0.1274784952402115, -0.10013246536254883, 0.04818384721875191, -0.23913034796714783, -0.22106148302555084, -0.0734281837940216, 0.06392677873373032, 0.14079807698726654, -0.029466742649674416, -0.016646793112158775, 0.21355707943439484, -0.01457333005964756, -0.5174207091331482, -0.06706280261278152, -0.08655067533254623, -0.22755160927772522, -0.08203072100877762, -0.0735754668712616, 0.1523752063512802, 0.19751934707164764, 0.2615826725959778, 0.3072786331176758, -0.1648339331150055, -0.02978050522506237, 0.1471962183713913, 0.36240774393081665, -0.10493574291467667, -0.15666797757148743, -0.07540808618068695, 0.06132291629910469, -0.07868339866399765, -0.1651766151189804, 0.22528843581676483, 0.1926463097333908, -0.08324752748012543, -0.20395570993423462, 0.4746195673942566, -0.19939100742340088, 0.007043411489576101, -0.24529050290584564, -0.094945527613163, -0.12267178297042847, -0.2568328380584717, -0.22581078112125397, 0.055290184915065765, -0.038625527173280716, -0.1775147169828415, -0.018985899165272713, -0.2586272060871124, 0.11448411643505096, 0.24628834426403046, -0.04865630343556404, 0.010195598937571049, -0.15723294019699097, -0.1275406777858734, -0.054893508553504944, 0.12181072682142258, 0.21976619958877563, -0.2781631052494049, 0.22534789144992828, -0.14922460913658142, -0.10568160563707352, 0.2676377594470978, -0.2001398205757141, -0.3624914586544037, 0.20942170917987823, 0.06763119995594025, -0.3279111981391907, 0.27896249294281006, -0.04267687723040581, 0.05899190902709961, -0.06551865488290787, 0.3303753137588501, 0.15063637495040894, -0.15098783373832703, -0.17364147305488586, 0.20667563378810883, -0.20746876299381256, -0.12145533412694931, 0.28838175535202026, -0.029478151351213455, -0.1803809553384781, 0.41609182953834534, -0.2814112901687622, 0.047945864498615265, -0.22207847237586975, 0.18510383367538452, 0.3384697735309601, 0.19101457297801971, 0.1273242086172104, 0.07044605910778046, -0.21727479994297028, -0.05855543166399002, -0.35205987095832825, 0.017008287832140923, 0.08825428783893585, -0.08289913088083267, 0.0462631992995739, 0.015126284211874008, 0.07143978029489517, -0.03938798978924751, -0.23835842311382294, 0.35774022340774536, 0.15811948478221893, 0.3083765208721161, -0.16841083765029907, -0.00776316924020648, 0.09584832936525345, 0.013903489336371422, 0.1124359741806984, -0.09539339691400528, 0.1266922503709793, -0.11834127455949783, 0.05932910367846489, 0.08321188390254974, 0.11602188646793365, 0.22039033472537994, 0.19763556122779846, 0.12418299913406372, 0.12232106178998947, -0.03066261112689972, -0.006208966486155987, -0.016955122351646423, 0.015595914795994759, -0.03703010827302933, -0.014397755265235901, -0.1413414627313614, 0.03915373608469963, 0.09932757914066315, 0.0959792360663414, 0.27476733922958374, -0.1435319483280182, 0.04796223342418671, 0.09491319954395294, 0.19196783006191254, 0.06826941668987274, 0.0637071505188942, 0.07359331101179123, 0.3220091462135315, -0.20404720306396484, -0.10533881187438965, -0.2523745000362396, -0.03430136665701866, 0.18718528747558594, 0.10227596014738083, -0.20305241644382477, 0.21639756858348846, 0.24415481090545654, -0.2554725706577301, 0.03554242104291916, -0.19835077226161957, 0.13453057408332825, -0.12727226316928864, -0.08920974284410477, -0.09637676924467087, -0.09718018025159836, -0.14544712007045746, 0.05175832659006119, -0.26089954376220703, -0.19624929130077362, 0.0866447165608406, -0.3290059566497803, 0.17777572572231293, -0.07167129963636398, -0.10965365171432495, 0.21154649555683136, 0.06142784282565117, -0.027233419939875603, 0.002965696156024933, 0.24950645864009857, -0.07931610196828842, -0.06789446622133255, 0.30060988664627075, -0.3651825487613678, 0.12086685001850128, 0.10084965080022812, -0.13406574726104736, 0.2079419195652008, 0.24174802005290985, -0.1794123500585556, 0.016972282901406288, -0.03578003868460655, 0.17710553109645844, 0.14101438224315643, 0.015165290795266628, 0.06102093309164047, 0.24484197795391083, -0.06352211534976959, 0.05508234724402428, -0.2297067791223526, -0.08843491971492767, 0.2922797203063965, 0.1470867544412613, -0.10563899576663971, 0.11127045750617981, -0.10657715797424316, -0.09918715804815292, -0.12914761900901794, 0.17241013050079346, 0.17159685492515564, 0.09746918082237244, 0.12017424404621124, -0.05497536063194275, -0.22405992448329926, 0.07225596904754639, -0.17381620407104492, 0.18811814486980438, -0.21591094136238098, 0.13430042564868927, 0.1835240125656128, -0.2736966609954834, 0.2948873043060303, 0.11957788467407227, -0.1430221050977707, 0.056611478328704834, -0.2337256371974945, -0.22167639434337616, -0.13764294981956482, 0.07465752214193344, -0.024769376963377, 0.0033160275779664516, -0.16838715970516205, 0.13505466282367706, 0.17510755360126495, 0.09866374731063843, 0.07293931394815445, 0.047203484922647476, 0.058724794536828995, -0.14348627626895905, 0.04938610643148422, -0.2268175482749939, -0.1853206902742386, -0.09172084182500839, 0.208912655711174, -0.10756483674049377, -0.07914290577173233, 0.2500755786895752, -0.06770738959312439, -0.24158523976802826, 0.1615625023841858, 0.01830211468040943, -0.17787130177021027, 0.030080338940024376, -0.1399286985397339, 0.046590618789196014, 0.24844421446323395, 0.04646163433790207, -0.17299725115299225, 0.13345502316951752, 0.16767928004264832, -0.015862008556723595, 0.09729732573032379, 0.04586215689778328, -0.07953234016895294, 0.07038082182407379, 0.09304209798574448, -0.12914063036441803, 0.027195727452635765, 0.1048983633518219, -0.18449272215366364, -0.05339621379971504, 0.09630925208330154, 0.16700904071331024, 0.093237966299057, 0.0803028792142868, -0.20583194494247437, -0.2365657091140747, -0.04418184980750084, 0.20934781432151794, 0.12366853654384613, -0.12893146276474, 0.17659641802310944, 0.025967076420783997, 0.07970309257507324, -0.3032758831977844, 0.19919393956661224, 0.07180365920066833, -0.2702471911907196, 0.03172219917178154, -0.1861063688993454, 0.1431424915790558, -0.09433169662952423, 0.1014593318104744, 0.09563463926315308, 0.05636345222592354, 0.30189138650894165, -0.05838598683476448, 0.16583195328712463, 0.032282356172800064, 0.01273683737963438, -0.06008131057024002, -0.047224827110767365, -0.026336083188652992, 0.2169162929058075, -0.05165934935212135, -0.09173452109098434, -0.26826760172843933, -0.40623238682746887, -0.4350525438785553, 0.05970277637243271, -0.1927596926689148, -0.058282263576984406, -0.2341286689043045, -0.339451402425766, -0.3611488938331604, 0.15012089908123016, -0.023754654452204704, -0.20863457024097443, 0.1518145650625229, 0.03401065617799759, 0.09038576483726501, 0.22778673470020294, 0.021521497517824173, -0.08905252069234848, -0.13154417276382446, -0.11004964262247086, 0.02192254737019539, 0.14994731545448303, 0.06875063478946686, -0.08595752716064453, 0.08669413626194, -0.03309381753206253, -0.194595605134964, -0.005545087158679962, 0.014753002673387527, -0.040119461715221405, 0.0992281585931778, 0.16942135989665985, 0.16310086846351624, 0.1359967291355133, 0.2204764485359192, -0.18747065961360931, 0.14842431247234344, 0.13907164335250854, -0.3142434358596802, 0.21277189254760742, 0.047670356929302216, -0.0013125936966389418, -0.3180307149887085, -0.07861575484275818, -0.0962090790271759, -0.04024346172809601, -0.14609704911708832, -0.05815747380256653, 0.3722904622554779, 0.40636807680130005, -0.08529013395309448, 0.1007498949766159, 0.14763186872005463, -0.16946054995059967, 0.09783048927783966, 0.16123054921627045, -0.05507643148303032, 0.1962955892086029, 0.05508729815483093, -0.06255913525819778, -0.10396132618188858, 0.10351262241601944, -0.15575584769248962, -0.01661931723356247, 0.10357390344142914, -0.1609945446252823, -0.1037880927324295, -0.018586106598377228, 0.1579701155424118, -0.14405854046344757, -0.03546131029725075, -0.9115239977836609, 0.08493927121162415, 0.04753730446100235, -0.039549410343170166, 0.14826689660549164, -0.19843290746212006, -0.10730855911970139, -0.17385420203208923, -0.06608866900205612, 0.23147378861904144, -0.005176474340260029, -0.30935168266296387, 0.19362670183181763, 0.09247520565986633, -0.10436748713254929, -0.10441754013299942, 0.1541130095720291, 0.17841030657291412, -0.19022846221923828, 0.11875776946544647, 0.09830036759376526, 0.09580479562282562, 0.05783332884311676, -0.11711107939481735, -0.21548180282115936, -0.06445511430501938, -0.12162862718105316, 0.054305341094732285, 0.20342256128787994, -0.08587358146905899, -0.2740740478038788, 0.02682744711637497, -0.02756555564701557, -0.09767298400402069, 0.10016042739152908, 0.06496894359588623, -0.0739826112985611, -0.11309608817100525, -0.16506387293338776, -0.14769966900348663, 0.15843795239925385, 0.09749903529882431, -0.06552395969629288, 0.028859030455350876, 0.06952767074108124, 0.07938752323389053, 0.0342094786465168, 0.19650201499462128, 0.5064924955368042, 0.2335975468158722, 0.0069523826241493225, 0.009180222637951374, 0.1012677252292633, 0.032930634915828705, 0.021750053390860558, -0.12508192658424377, -0.04877569153904915, 0.13456366956233978, 0.08061280101537704, 0.06558041274547577, -0.21212074160575867, -0.1392308920621872, 0.1422862410545349, 0.15183761715888977, -0.058651309460401535, 0.018409615382552147, 0.13696318864822388, 0.11577174067497253, 0.22226694226264954, -0.21250486373901367, -0.16237163543701172, 0.015792591497302055, 0.10479426383972168, -0.08358929306268692, -0.06779441982507706, -0.14186371862888336, -0.2943331301212311, -0.17670679092407227, 0.23145698010921478, -0.10367000102996826, -0.2861314117908478, 0.02118786796927452, -0.10731937736272812, -0.2018629014492035, 0.2816240191459656, 0.13713403046131134, 0.1381167471408844, -0.10120157897472382, -0.21115493774414062, -0.13995443284511566, 0.18340714275836945, 0.10181745141744614, 0.06348292529582977, -0.29948458075523376, -0.11697374284267426, -0.09185273200273514, -0.17579972743988037, -0.1803838461637497, -0.1819157898426056, 0.26090148091316223, -0.12443683296442032, -0.2566079795360565, 0.274798721075058, 0.17769238352775574, 0.042882077395915985, -0.25553175806999207, 0.3115957975387573, -0.10016502439975739, -0.21608038246631622, 0.23661163449287415, -0.01008142065256834, -0.13821054995059967, 0.010985225439071655, -0.027532873675227165, -0.14439989626407623, -0.07695712894201279, -0.19685356318950653, 0.15127038955688477, 0.07252109795808792, 0.0011485101422294974, -0.020457463338971138, 0.16442781686782837, 0.18417805433273315, 0.05721884220838547, 0.06283173710107803, 0.2264297753572464, 0.00507518881931901, 0.023709028959274292, -0.008763058111071587, 0.12989918887615204, 0.145044207572937, 0.039523497223854065, -0.21726401150226593, -0.0715925320982933, 0.005703889764845371, 0.14364692568778992, 0.16169919073581696, 0.11801275610923767, -0.05036080256104469, -0.07078320533037186, 0.06448864936828613, 0.19599543511867523, 0.08565376698970795, -0.047343865036964417, -0.08715697377920151, 0.05605972930788994, 0.11112397909164429, -0.022672798484563828, 0.018716275691986084, -0.01077655702829361, -0.12992991507053375, 0.10251724720001221, -0.14179588854312897, 0.041630618274211884, -0.16766417026519775, -0.15087759494781494, -0.028785154223442078, 0.1307065784931183, -0.033394694328308105, -0.07346028834581375, 0.29656553268432617, -0.03396303951740265, -0.1327088326215744, -0.02009502425789833, 0.19046539068222046, 0.15274105966091156, 0.19519035518169403, 0.07969024777412415, 0.06440035998821259, -0.1487300544977188, -0.2158520668745041, -0.013767282478511333, 0.1080632135272026, 0.07204680144786835, -0.2138543277978897, 0.052876003086566925, -0.10025326162576675, -0.1286785900592804, -0.03161729499697685, -0.018166974186897278, 0.04842725396156311, -0.14084650576114655, -0.021533291786909103, -0.047150615602731705, 0.09522180259227753, 0.17922692000865936, -0.0724482387304306, -0.13959459960460663, -0.08201765269041061, 0.06862112134695053, 0.40611666440963745, -0.20825865864753723, 0.3190382122993469, 0.1189906969666481, -0.06330706179141998, -0.08533281087875366, 0.06704865396022797, 0.20244738459587097, 0.1941181719303131, -0.022166388109326363, -0.14776118099689484, -0.059062764048576355, 0.16467615962028503, 0.15394723415374756, -0.013404548168182373, -0.010015873238444328, 0.01255582645535469, -0.08870294690132141, -0.11106544733047485, 0.13527239859104156, -0.08252552151679993, -0.24026189744472504, -0.12791882455348969, 0.01254362240433693, -0.13523748517036438, 0.07705338299274445, -0.08757126331329346, 0.578437328338623, 0.477823942899704, 0.1968083679676056, 0.1272149384021759, 0.24745707213878632, 0.15396463871002197, 0.22580473124980927, 0.3484541177749634, 0.16453321278095245, -0.05959475785493851, 0.05899278074502945, -0.19207395613193512, -0.14605934917926788, 0.15094196796417236, -0.08337177336215973, 0.009365716017782688, -0.14080595970153809, -0.10275960713624954, 0.031123317778110504, -0.02483201213181019, -0.0723438635468483, -0.3191993832588196, -0.15133416652679443, 0.00945938378572464, -0.10598357766866684, -0.021270083263516426, 0.0018602877389639616, -0.032327599823474884, -0.07403074204921722, -0.13557550311088562, -0.1407279223203659, -0.18599602580070496, -0.054179925471544266, -0.06206762418150902, -0.01777259074151516, -0.07172627747058868, 0.012012755498290062, 0.1271829456090927, 0.11212516576051712, -0.17941275238990784, 0.014893567189574242, -0.03601638227701187, -0.02630000002682209, -0.00023724546190351248, -0.14402078092098236, -0.294454425573349, -0.011278086341917515, 0.0792122408747673, -0.0596199706196785, -0.1298372745513916, 0.08247115463018417, 0.00577897485345602, 0.045582566410303116, 0.15214279294013977, -0.1039486974477768, -0.06461183726787567, 0.23893287777900696, -0.022403983399271965, -0.06878682225942612, 0.17177292704582214, 0.024757536128163338, 0.0034018512815237045, 0.0777144581079483, -0.1804734766483307, -0.07699848711490631, -0.06259897351264954, 0.18460148572921753, 0.009267456829547882, -0.2078828364610672, 0.06533996760845184, -0.1063508614897728, -0.3145137429237366, -0.12811917066574097, -0.055417705327272415, 0.2141321301460266, -0.14932766556739807, -0.08719851821660995, -0.043090347200632095, 0.23482009768486023, 0.17539463937282562, -0.0694413036108017, -0.20947882533073425, -0.07338764518499374, -0.0666077584028244, 0.09532330930233002, 0.10552088171243668, 0.12573955953121185, 0.04165559634566307, 0.009754030965268612, 0.16608259081840515, 0.007436094805598259, 0.036364972591400146, -0.032904308289289474, -0.013089494779706001, -0.04588153585791588, 0.07904419302940369, -0.16580817103385925, 0.0591619573533535, 0.07958060503005981, -0.16581614315509796, -0.09306468069553375, -0.15023116767406464, -0.015515553764998913, -0.20221157371997833, -0.2018740326166153, -0.034207846969366074, -0.19052551686763763, 0.11733078211545944, 0.019632136449217796, -0.03183838352560997, -0.056918997317552567, 0.06776599586009979, 0.03950440511107445, 0.02423390932381153, -0.05373275652527809, 0.17818403244018555, -0.11341287195682526, 0.3402141332626343, 0.11108893156051636, 0.28810301423072815, -0.058021318167448044, -0.1681598722934723, 0.021446160972118378, -0.02606898359954357, 0.046438343822956085, -0.2537112236022949, 0.09786386787891388, 0.0046282620169222355, -0.11459466814994812, -0.09799621254205704, -0.05961659178137779, 0.07093973457813263, 0.1414233148097992, 0.04859035462141037, -0.036478642374277115, 0.17749956250190735, 0.05842360854148865, -0.07657470554113388, -0.0028165027033537626, 0.13174888491630554, 0.2868775427341461, 0.2350235879421234, -0.15416257083415985, -0.11121215671300888, 0.05567270517349243, 0.21736258268356323, -0.030737105756998062, 0.19660988450050354, 0.11785610020160675, -0.30967018008232117, 0.09351445734500885, 0.12740567326545715, -0.10569177567958832, 0.12029879540205002, 0.07997005432844162, -0.19074074923992157, -0.13103999197483063, 0.05507095903158188, 0.18706461787223816, 0.2455824762582779, 0.04864655062556267, -0.0786634236574173, -0.10680971294641495, -0.1123088076710701, 0.24280528724193573, 0.22733174264431, 0.2334330528974533, 0.21289528906345367, 0.2677924335002899, -0.12225434184074402, -0.23982155323028564, 0.08734432607889175, 0.14544013142585754, -0.27209997177124023, -0.12223467975854874, -0.17704565823078156, 0.15498951077461243, -0.11411269754171371, 0.23605191707611084, 0.19232599437236786, -0.2912472188472748, 0.15160223841667175, 0.16277672350406647, 0.012476309202611446, -0.06150008365511894, 0.16101063787937164, -0.15610776841640472, 0.02647130750119686, -0.04643450304865837, -0.042256053537130356, -0.025191184133291245, 0.07255323976278305, -0.24143153429031372, -0.16662687063217163, 0.10839617997407913, -0.10194660723209381, 0.14098429679870605, 0.21041007339954376, 0.2297627031803131, -0.012932767160236835, 0.05734071880578995, -0.1441100388765335, 0.030983220785856247, -0.04731829836964607, -0.09231057018041611, -0.08128347992897034, -0.09593179821968079, -0.15253347158432007, -0.14906778931617737, -0.030456488952040672, 0.19599422812461853, -0.11768144369125366, -0.05070009455084801, -0.14309270679950714, -0.15195909142494202, -0.26830774545669556, -0.12570162117481232, -0.12478756159543991, 0.20209120213985443, -0.04713408648967743, -0.2594672441482544, 0.15034045279026031, -0.028012409806251526, -0.013724717311561108, -0.18317672610282898, -0.06558617949485779, 0.0972600057721138, -0.02867581509053707, 0.18665945529937744, 0.1094234362244606, -0.3337596356868744, 0.03263689577579498, -0.2116166055202484, -0.0033618805464357138, -0.031223643571138382, 0.10626936703920364, 0.013966964557766914, 0.12169119715690613, 0.041209347546100616, -0.12337764352560043, -0.05908866971731186, -0.13263839483261108, -0.05439746007323265, -0.09411629289388657, 0.06525354832410812, -0.25495803356170654, -0.027348974719643593, -0.4336835741996765, 0.0026891836896538734, 0.14999346435070038, -0.17311328649520874, 0.03901935741305351, -0.19248266518115997, -0.062394026666879654, -0.04350550100207329, 0.1649872362613678, 0.07977785915136337, -0.053089480847120285, -0.07886837422847748, -0.04457393288612366, 0.22251926362514496, -0.07391796261072159, -0.043016217648983, -0.17791196703910828, 0.1952551305294037, 0.054728515446186066, 0.033230993896722794, 0.04344165697693825, -0.11533054709434509, -0.08130727708339691, 0.10936248302459717, 0.11636874079704285, -0.011130654253065586, -0.14552482962608337, 0.03443087264895439, -0.08077581226825714, 0.1457696408033371, -0.054592523723840714, -0.12710459530353546, 0.1941310316324234, 0.03564727306365967, -0.1452438235282898, -0.12867145240306854, 0.08975297957658768, 0.3438107669353485, -0.04676384851336479, 0.06924524903297424, 0.03743961080908775, -0.09479201585054398, -0.12635578215122223, -0.25638240575790405, 0.09830787777900696, -0.07536685466766357, -0.14254748821258545, -0.011344718746840954, -0.1140546202659607, -0.26537567377090454, 0.0632864236831665, -0.038053661584854126, -0.1330595314502716, -0.009019523859024048, -0.1243765652179718, 0.06748630106449127, 0.09878860414028168, -0.023330476135015488, -0.18569499254226685, -0.15348726511001587, 0.08811990916728973, 0.14559629559516907, -0.35817915201187134, -0.08944480121135712, 0.1960596889257431, 0.15255096554756165, 0.08983038365840912, -0.15794827044010162, -0.022728873416781425, -0.09069842845201492, -0.11183152347803116, -0.16697180271148682, -0.0013216863153502345, 0.060729335993528366, 0.0417693629860878, 0.4048272669315338, -0.028344254940748215, -0.007004587911069393, 0.27597957849502563, -0.020440328866243362, -0.06932791322469711, -0.10152677446603775, 0.09954269230365753, -0.06078757345676422, -0.07566198706626892, -0.05139293521642685, -0.03885481506586075, 0.0542587973177433, -0.0715746209025383, 0.031446702778339386, -0.2197171002626419, -0.08821997791528702, -0.10489052534103394, 0.09156857430934906, -0.09873839467763901, 0.04242897406220436, -0.17805592715740204, 0.3536301851272583, 0.03656021133065224, -0.14018304646015167, 0.08841748535633087, 0.2357397824525833, 0.028186075389385223, 0.179966539144516, -0.12181532382965088, -0.03469732031226158, 0.06125136464834213, -0.07757328450679779, -0.020791687071323395, -0.18748590350151062, 0.03743431717157364, 0.06915173679590225, -0.09204743802547455, -0.09664122015237808, -0.14949612319469452, 0.1153983622789383, 0.008102389983832836, -0.20887278020381927, 0.22119352221488953, -0.03204093500971794, 0.19481706619262695, -0.3116256594657898, 0.38727453351020813, 0.9599137306213379, -0.40440183877944946, 0.20828987658023834, 0.4736374318599701, -0.13948646187782288, -0.10141599923372269, -0.0875026285648346, 0.23380538821220398, 0.018008891493082047, 0.31854769587516785, 0.05327941104769707, 0.07300744205713272, 0.1445728838443756, 0.09718985855579376, 0.4735913872718811, 0.017312489449977875, -0.3746447265148163, 0.09827902168035507, -0.025292372331023216, 0.06276468187570572, 0.08546973764896393, -0.4487798511981964, 0.5491439700126648, -0.10058978199958801, -0.296072781085968, 0.05629158765077591, -0.05827952176332474, 0.179297536611557, -0.1254124641418457, -0.0649973675608635, -0.28256306052207947, 0.09778369963169098, -0.1609298288822174, 0.021209625527262688, 0.11344952881336212, -0.18177874386310577, 0.28196969628334045, 0.003462458960711956, -0.06835281848907471, -0.08866358548402786, 0.02932848408818245, 0.063578300178051, -0.42395225167274475, 0.3215002417564392, -0.06917112320661545, 0.23298974335193634, -0.11932913213968277, 0.08296987414360046, 0.022857820615172386, 0.25725457072257996, -0.02347717620432377, 0.11357980966567993, -0.04300561919808388, -0.15095283091068268, -0.02829902619123459, 0.2231762409210205, 0.14785616099834442, 0.013217456638813019, 0.062024980783462524, -0.024831773713231087, 0.05876214802265167, -0.1330908089876175, -0.1837615817785263, 0.0008964866283349693, -0.4212789535522461, 0.9758399724960327, 0.3490990996360779, -0.6296265125274658, 0.22798702120780945, -0.2519782781600952, 0.08218665421009064, 0.524969756603241, -0.9073641896247864, 1.1096091270446777, 0.655396580696106, 0.09660855680704117, -0.37168240547180176, 0.2649513781070709, -0.7298877239227295, 0.014802548103034496, -0.04536701738834381, -0.10458973795175552, -0.22627462446689606, -0.0217371117323637, 0.043104298412799835, 0.2167954444885254, -0.2345854938030243, 0.11475753784179688, 0.11421000212430954, 0.18321046233177185, 0.12698325514793396, -0.15877871215343475, -0.10917685180902481, -0.13080710172653198, -0.3496161997318268, 0.20860464870929718, -0.36261728405952454, -0.03224034607410431, 0.1661246120929718, 0.305877685546875, 0.1409495770931244, -0.1495513916015625, -0.10792859643697739, -0.17335264384746552, 0.0614478662610054, -0.12736772000789642, -0.3168163001537323, -0.16468675434589386, 0.15032634139060974, -0.07100608199834824, -0.09409544616937637, -0.23757170140743256, -0.31935256719589233, -0.24258439242839813, -0.05952032655477524, 0.44723689556121826, -0.07182369381189346, -0.07687310129404068, -0.08376577496528625, -0.12258891016244888, 0.04059455171227455, -0.32942771911621094, 0.033074986189603806, 0.09792007505893707, -0.16895891726016998, -0.09735804051160812, 0.06260192394256592, 0.09010657668113708, -0.004305129870772362, 0.0980093702673912, -0.1656472235918045, 0.10016938298940659, -0.04899608716368675, -0.26993247866630554, 0.15172870457172394, 0.32466888427734375, -0.07531200349330902, -0.07246871292591095, 0.3309136927127838, -0.04331592470407486, -0.030006365850567818, 0.10505136102437973, 0.009064184501767159, -0.4674375653266907, -0.12362198531627655, -0.11945518106222153, -0.036851171404123306, 0.3265375792980194, -0.22429099678993225, 0.03468821197748184, -0.08825674653053284, 0.1363273710012436, 0.1254233568906784, -0.33449506759643555, 0.16448867321014404, -0.20426319539546967, -0.10990982502698898, 0.09462662041187286, -0.1107618510723114, -0.12655319273471832, 0.21881183981895447, 0.11261633038520813, -0.018692271783947945, -0.06051911786198616, -0.11558006703853607, 0.2200549840927124, 0.07035941630601883, -0.2525247037410736, 0.031170982867479324, 0.22858266532421112, 0.07492120563983917, 0.1699521392583847, 0.32950523495674133, 0.13772721588611603, 0.23734056949615479, 0.06592773646116257, -0.35933369398117065, -0.05056730657815933, -0.08921847492456436, 0.18957191705703735, -0.0065898592583835125, -0.06569496542215347, 0.3542943000793457, -0.24772953987121582, 0.07010012865066528, 0.22633850574493408, -0.005020629148930311, -0.07653052359819412, -0.06875070184469223, -0.08785359561443329, 0.1060410737991333, 0.38808852434158325, 0.37474024295806885, 0.14089886844158173, 0.0039027382154017687, 0.020827367901802063, -0.23290348052978516, 0.35397711396217346, -0.35007062554359436, -0.09025072306394577, 0.27806857228279114, 0.7736395597457886, 0.20568788051605225, 0.3280078172683716, 0.6232901215553284, 0.04835294187068939, -0.008830261416733265, -0.31669801473617554, 0.1161813735961914, -0.14861060678958893, 0.14890336990356445, 0.3454093933105469, 0.07958287745714188, -0.2621321678161621, -0.05336879566311836, -0.07868564873933792, 0.05265871062874794, -0.21249909698963165, 0.1953146606683731, -0.3309920132160187, -0.14311428368091583, 0.06492986530065536, 0.03757660090923309, 0.049068864434957504, -0.12245699018239975, -0.0917995348572731, 0.16725939512252808, -0.14410412311553955, 0.05781755596399307, -0.15274667739868164, -0.2480945736169815, -0.09475027769804001, 0.00787227414548397, 0.2783351242542267, -0.07572425156831741, 0.19337421655654907, -0.22178682684898376, 0.27517762780189514, -0.13857434689998627, 0.02371061034500599, -0.2722313106060028, -0.2549011707305908, -0.18265721201896667, 0.5788030028343201, -0.20387643575668335, 0.0599212646484375, -0.10624276101589203, 0.2815209925174713, 0.10370596498250961, -0.5335068106651306, 0.03385534882545471, -0.1653066873550415, -0.20128493010997772, 0.004879101645201445, 0.38852617144584656, 0.2214989811182022, 0.26204293966293335, 0.06170808896422386, -0.0785147100687027, -0.17066334187984467, 0.17121411859989166, 0.21949347853660583, 0.09472799301147461, -0.07566356658935547, -0.17835265398025513, -0.0918174758553505, 0.24934813380241394, -0.14619535207748413, -0.2899068295955658, 0.054402463138103485, 0.1251908391714096, -0.6878795027732849, -0.16257025301456451, -0.23445187509059906, -0.2288120985031128, 0.6652585864067078, 0.03224313631653786, -0.20018412172794342, -0.34767934679985046, 0.1791256219148636, -0.02814120054244995, -0.6585170030593872, 0.14035741984844208, -0.1705274134874344, -0.05963415279984474, 0.1710074096918106, 0.04659423977136612, -0.31209033727645874, 0.09480294585227966, -0.25221937894821167, -0.0902041494846344, 0.21059966087341309, -0.07819302380084991, 0.14642344415187836, -0.07329843938350677, -0.024810966104269028, 0.028140565380454063, 0.03154027462005615, -0.21604788303375244, 0.06823920458555222, 0.11834035068750381, -0.07471340149641037, 0.040280796587467194, 0.07795637100934982, 0.12099868804216385, 0.2534785270690918, -0.10378561168909073, -0.052594028413295746, -0.0018784869462251663, 0.0589919351041317, -0.05369935557246208, 0.21274152398109436, 0.19716723263263702, 0.11277464032173157, 0.2502094507217407, 0.15678754448890686, 0.09388680011034012, 0.0773777887225151, 0.03197343274950981, -0.06165185198187828, -0.054924510419368744, -0.20590846240520477, -0.37744030356407166, -0.17604169249534607, -0.23898975551128387, -0.13149119913578033, -0.2845194637775421, 0.1293005645275116, 0.24544121325016022, 0.13589411973953247, 0.272940069437027, -0.3312056064605713, -0.27361032366752625, -0.2101350575685501, 0.17017164826393127, 0.020096950232982635, 0.0961393415927887, -0.05577084794640541, 0.1312606930732727, -0.02502789907157421, 0.25294098258018494, 0.18387910723686218, 0.12622034549713135, -0.22568610310554504, -0.12830880284309387, 0.03794598579406738, 0.08522874861955643, 0.06052536517381668, 0.06284301728010178, 0.02739063650369644, 0.014614843763411045, 0.06398836523294449, -0.19250786304473877, 0.02260899730026722, -0.10226864367723465, 0.05686644837260246, 0.23759296536445618, 0.08709028363227844, -0.07009844481945038, -0.11003250628709793, -0.11996070295572281, 0.016339529305696487, 0.17150448262691498, 0.008483536541461945, -0.18346598744392395, -0.19589105248451233, 0.15696965157985687, 0.0206584632396698, 0.2847023904323578, 0.21284157037734985, 0.052233997732400894, -0.14047633111476898, -0.11847295612096786, -0.036784105002880096, 0.08016861975193024, 0.05424557998776436, -0.0900232270359993, -0.17678996920585632, -0.03779156133532524, 0.06882211565971375, -0.03019845485687256, -0.1002231314778328, -0.07925839722156525, 0.08503860235214233, 0.21166715025901794, -0.14447426795959473, -0.10388214886188507, -0.13263222575187683, 0.017645929008722305, 0.03031163103878498, 0.12241809070110321, 0.0967695340514183, -0.15501068532466888, -0.03626913204789162, 0.09026852250099182, -0.20599429309368134, -0.18801915645599365, -0.22689546644687653, -0.12404636293649673, -0.09397739171981812, -0.42764922976493835, -0.037910543382167816, 0.016341557726264, -0.2234136164188385, 0.09717215597629547, 0.026447825133800507, 0.1355220526456833, 0.07770216464996338, 0.058337967842817307, 0.1292048841714859, 0.03912471979856491, -0.12271379679441452, 0.19005471467971802, 0.09119391441345215, 0.05682627484202385, -0.23451852798461914, 0.36751240491867065, -0.1935739666223526, 0.04413037747144699, 0.0964183360338211, -0.1443679928779602, -0.4035141170024872, -0.026405394077301025, -0.057723939418792725, 0.2842063009738922, 0.006876814644783735, 0.04057985916733742, -0.1530228853225708, 0.13212938606739044, -0.06174251064658165, 0.4520982801914215, 0.09151061624288559, 0.1941707730293274, -0.04518001899123192, -0.2643080949783325, 0.04313293471932411, 0.38408005237579346, -0.24139977991580963, -0.2816188335418701, 0.09415050595998764, -0.08704409748315811, -0.024166975170373917, 0.1883426159620285, -0.1259162425994873, 0.14291609823703766, 0.15110714733600616, -0.10518181324005127, -0.09685330837965012, -0.3002413213253021, 0.6182544231414795, 0.13127945363521576, 0.0959232971072197, 0.06189664825797081, -0.12881220877170563, 0.1692028045654297, -0.21953146159648895, -0.0373803973197937, -0.00816098228096962, 0.09101053327322006, 0.11960136145353317, -0.023639241233468056, -0.2481115460395813, -0.19350452721118927, -0.4501420259475708, -0.11718977242708206, 0.013870452530682087, 0.08310901373624802, -0.1882001906633377, 0.09420151263475418, -0.12410657107830048, 0.13279709219932556, 0.10681424289941788, 0.3611411154270172, -0.1068323478102684, -0.16603122651576996, -0.44838008284568787, 0.12240903824567795, 0.05657843500375748, 0.3370051681995392, -0.5351954698562622, -0.1830521672964096, -0.20516888797283173, -0.053992703557014465, 0.09361584484577179, 0.2862301170825958, -0.4034385681152344, -0.036766063421964645, 0.11920535564422607, -0.2119303047657013, 0.29331550002098083, 0.18443194031715393, -0.09001779556274414, -0.07967272400856018, -0.030079787597060204, 0.1549692451953888, 0.13504156470298767, 0.11328031122684479, 0.15023188292980194, -0.016084106639027596, 0.07232619822025299, 0.13233427703380585, 0.22783471643924713, 0.20308218896389008, 0.05055585876107216, 0.12362345308065414, 0.07626601308584213, 0.11104001849889755, 0.24723248183727264, 0.15427985787391663, -0.029845599085092545, 0.12102534621953964, -0.24165575206279755, -0.21101422607898712, 0.04939490556716919, 0.045184627175331116, 0.004053168930113316, 0.05559273436665535, -0.052525993436574936, -0.15886616706848145, 0.07548288255929947, -0.12853488326072693, -0.14059671759605408, -0.21592894196510315, -0.015819428488612175, 0.0031534309964627028, 0.04339141398668289, 0.292707234621048, 0.10667439550161362, 0.06737981736660004, 0.15184862911701202, 0.15525314211845398, -0.0031844601035118103, 0.20876967906951904, 0.10180681943893433, 0.012480756267905235, 0.10638198256492615, -0.1514531821012497, -0.24262884259223938, -0.01849670335650444, -0.15038377046585083, 0.06906645745038986, 0.039440132677555084, -0.004113147035241127, 0.0735902339220047, -0.06151518598198891, -0.15946827828884125, 0.02178223617374897, -0.04320620000362396, 0.01508665457367897, -0.0566101111471653, 0.11384780704975128, 0.035717904567718506, 0.2626922130584717, 0.033440615981817245, -0.02814626134932041, -0.0684770941734314, -0.08368025720119476, -0.15860673785209656, 0.08574432879686356, 0.05323587357997894, 0.0699358582496643, 0.0713505819439888, 0.03168896958231926, 0.20323991775512695, 0.017372241243720055, -0.12249626964330673, -0.09195126593112946, -0.25460171699523926, 0.10332683473825455, -0.03634069859981537, -0.17131584882736206, -0.12271220237016678, 0.008025318384170532, 0.08356161415576935, 0.005891852546483278, -0.01658678613603115, 0.09767047315835953, 0.007261334452778101, -0.12801441550254822, -0.0725715160369873, 0.06383857131004333, -0.03823640197515488, -0.27920717000961304, -0.2117096185684204, -0.04033534228801727, -0.27848803997039795, -0.24936021864414215, 0.048658013343811035, 0.037432145327329636, -0.05074799805879593, 0.03940681368112564, -0.09809821099042892, 0.0029700943268835545, -0.05646843835711479, -0.08396156132221222, -0.0004124339029658586, 0.0857434943318367, -0.07057276368141174, 0.152316614985466, 0.19437843561172485, 0.05233439430594444, 0.011272087693214417, -0.2887609004974365, 0.0025264841970056295, -0.07707419246435165, -0.08126897364854813, -0.16573652625083923, -0.16868624091148376, -0.056569166481494904, -0.09596602618694305, 0.062410760670900345, 0.04828270897269249, -0.039242327213287354, -0.012069910764694214, 0.06946169584989548, -0.15960310399532318, 0.17511031031608582, 0.009330674074590206, 0.05317562818527222, 0.04862174019217491, -0.01058346126228571, -0.002125209430232644, -0.007976788096129894, -0.04680788144469261, 0.053152646869421005, -0.0823993980884552, -0.03386521711945534, 0.024244574829936028, 0.014735555276274681, -0.2511579096317291, -0.10067036002874374, -0.05365424230694771, -0.04174340143799782, 0.011537957936525345, -0.024003155529499054, 0.09181936085224152, 0.17097684741020203, 0.14449940621852875, -0.048488836735486984, 0.2066849023103714, -0.051639460027217865, 0.03636620566248894, 0.10863006114959717, 0.10537496209144592, -0.08144524693489075, 0.11364471912384033, 0.24724367260932922, -0.11029522866010666, -0.18088224530220032, -0.17276322841644287, 0.010659458115696907, 0.03834901750087738, 0.03954363241791725, -0.11182940751314163, -0.14248234033584595, -0.2984224557876587, 0.013817415572702885, -0.040092647075653076, 0.015021519735455513, -0.15625403821468353, 0.15798863768577576, -0.19989407062530518, -0.10285268723964691, 0.07575768232345581, 0.22534935176372528, -0.22927594184875488, -0.0061716423369944096, 0.04812787473201752, 0.16257359087467194, 0.2170097678899765, 0.16237036883831024, -0.21247881650924683, -0.07688623666763306, -0.21659690141677856, 0.10395161807537079, 0.13937801122665405, -0.07256525754928589, -0.17147594690322876, -0.02979269251227379, 0.14100077748298645, -0.2790060043334961, -0.07844070345163345, 0.19814585149288177, 0.00038714517722837627, -0.07576802372932434, -0.1315205693244934, -0.014493302442133427, 0.06105918809771538, -0.1883586198091507, 0.03455458953976631, 0.10288166254758835, 0.04354012385010719, -0.061295971274375916, 0.03996025770902634, -0.028779909014701843, 0.10236918181180954, -0.317457377910614, 0.07419486343860626, 0.2505298852920532, 0.2884919345378876, 0.09498784691095352, 0.027238134294748306, -0.15724670886993408, -0.10864464193582535, -0.06537459045648575, -0.01924082636833191, -0.10114405304193497, 0.043761245906353, 0.10894806683063507, -0.05061124637722969, -0.15588146448135376, 0.21845173835754395, 0.03422890231013298, -0.0031959121115505695, -0.04317198321223259, 0.027359958738088608, 0.08069795370101929, -0.025688014924526215, 0.0519205741584301, -0.14171625673770905, -0.23187802731990814, -0.014636446721851826, 0.3074820339679718, 0.06253062188625336, 0.024657610803842545, 0.14677934348583221, 0.23352892696857452, -0.06894974410533905, -0.06127740815281868, 0.30756279826164246, -0.264232873916626, -0.1666913777589798, -0.031162932515144348, -0.14203204214572906, 0.03574097156524658, -0.05493815615773201, 0.0807376429438591, 0.04534534364938736, 0.1248985081911087, -0.09565183520317078, 0.2829005718231201, -0.1539638638496399, -0.21591508388519287, 0.18995845317840576, -0.07200413942337036, 3.953097802877892e-06, -0.2456507533788681, -0.31103891134262085, -0.0017800028435885906, 0.08148334920406342, 0.0095074363052845, 0.27810361981391907, 0.04414741322398186, -0.03735194727778435, -0.16313275694847107, 0.0592733770608902, 0.04162175580859184, 0.17351680994033813, -0.02250247821211815, -0.16158433258533478, -0.0872192457318306, 0.12063372880220413, 0.15220756828784943, 0.05762750282883644, -0.23954430222511292, -0.08595988154411316, -0.17291811108589172, 0.14505724608898163, 0.14369575679302216, 0.06524515897035599, -0.3459605872631073, 0.10754360258579254, -0.08891905844211578, -0.11604547500610352, -0.15467287600040436, 0.050658874213695526, 0.17443788051605225, 0.041551847010850906, 0.14399711787700653, 0.004582349676638842, 0.0772944763302803, 0.0018838233081623912, -0.06358745694160461, -0.3109060525894165, 0.2735914885997772, 0.14594067633152008, 0.41990500688552856, -0.13177721202373505, -0.3681661784648895, 0.13939252495765686, 0.05623461678624153, 0.012564105913043022, -0.2615824341773987, -0.0711958259344101, 0.1360570192337036, 0.12070069462060928, 0.09356147050857544, 0.13741496205329895, 0.28790953755378723, 0.1262834370136261, -0.16298606991767883, 0.2111775130033493, -0.1405317485332489, -0.014734867960214615, 0.22917743027210236, 0.04002198204398155, -0.017295433208346367, 0.04246877133846283, -0.014587441459298134, -0.003804418258368969, 0.08650550246238708, 0.13474324345588684, 0.09060867875814438, -0.24580985307693481, 0.10920169949531555, -0.03936271741986275, -0.12870962917804718, 0.033125221729278564, 0.0899905189871788, -0.3627161383628845, -0.03418372943997383, -0.035806819796562195, 0.059788841754198074, 0.09603172540664673, -0.07394484430551529, 0.05771889537572861, -0.1581374853849411, -0.12629449367523193, -0.11654382944107056, -0.015493066050112247, 0.09851467609405518, -0.02798984944820404, 0.15213872492313385, 0.34828880429267883, 0.06528633087873459, -0.19018778204917908, -0.2657517194747925, -0.018477831035852432, 0.031393714249134064, 0.0917757898569107, -0.08730783313512802, -0.061293698847293854, 0.13166660070419312, -0.16329637169837952, -0.12484700977802277, -0.015516245737671852, 0.10336831212043762, 0.08025389909744263, 0.12234087288379669, 0.27415937185287476, 0.22670601308345795, -0.11768736690282822, 0.017196157947182655, -0.0664667934179306, -0.09571816027164459, 0.0642525777220726, 0.17157313227653503, 0.05916030704975128, -0.07697976380586624, 0.1298368126153946, 0.0710824504494667, 0.07110410928726196, 0.0679100900888443, -0.07859400659799576, -0.1218123733997345, 0.034011151641607285, 0.07346615195274353, -0.00829660426825285, -0.023424753919243813, 0.2568915784358978, 0.14903689920902252, 0.03398934006690979, -0.0785960704088211, 0.0743001401424408, -0.1628093123435974, -0.21324093639850616, -0.2193240225315094, -0.005457218270748854, 0.1935645192861557, 0.1611117422580719, 0.11025603115558624, -0.036889977753162384, -0.018072884529829025, 0.467962384223938, -0.08809223771095276, -0.028461173176765442, 0.20511148869991302, 0.02968471683561802, -0.04453436657786369, -0.20547983050346375, 0.07113277167081833, -0.07721605896949768, -0.052083685994148254, -0.011955237947404385, -0.12906792759895325, -0.4169563353061676, -0.19930115342140198, -0.06112339720129967, 0.035868000239133835, -0.15721076726913452, -0.016906678676605225, -0.39724552631378174, 0.054362788796424866, -0.03845745697617531, 0.14590489864349365, -0.08001881092786789, -0.23483414947986603, -0.024037400260567665, 0.1331743597984314, 0.13833007216453552, 0.1294798105955124, 0.055209044367074966, 0.013011699542403221, -0.18190288543701172, 0.03531445190310478, 0.3900671601295471, 0.04601955786347389, -0.10122046619653702, 0.19439223408699036, 0.09199804067611694, 0.012891498394310474, 0.006388637702912092, -0.06846296787261963, 0.00884464755654335, 0.12141795456409454, -0.1700087934732437, 0.09911014139652252, 0.14710497856140137, 0.14361105859279633, 0.18405689299106598, 0.06273914128541946, 0.22047306597232819, -0.27339795231819153, 0.26240068674087524, 0.04530380293726921, -0.3784899413585663, -0.18937431275844574, -0.11174631863832474, 0.04617024585604668, 0.1885288804769516, 0.10227853059768677, -0.24456000328063965, 0.03020554780960083, -0.10366583615541458, 0.12455836683511734, -0.10284736007452011, 0.2184966653585434, -0.2556383013725281, -0.03883983939886093, -0.11605337262153625, 0.6990380883216858, 0.07004931569099426, 0.20089247822761536, -0.4379425644874573, -0.1750345677137375, 0.21907325088977814, 0.27327483892440796, 0.07009457796812057, 0.05030443146824837, -0.6376399397850037, -0.13060317933559418, -0.158145010471344, 0.34268298745155334, -0.018510404974222183, -0.18423700332641602, -0.41312578320503235, 0.23993398249149323, 0.12581650912761688, -0.15043456852436066, 0.014550273306667805, -0.07878521084785461, 0.08437743037939072, 0.026297204196453094, -0.07888226211071014, 0.15479859709739685, 0.06113778427243233, -0.012097001075744629, 0.21503260731697083, 0.012031625024974346, 0.05883030965924263, -0.0015821299748495221, -0.09116967767477036, -0.007245296612381935, 0.15950262546539307, 0.17487578094005585, 0.11970984190702438, 0.01200325507670641, 0.19883963465690613, -0.09203218668699265, 0.2565416097640991, -0.11677943915128708, 0.02665395475924015, -0.05541552975773811, -0.25373342633247375, 0.04182804003357887, 0.16543179750442505, -0.23357054591178894, -0.08250558376312256, -0.3314903974533081, -0.04691851884126663, -0.09200605750083923, 0.17584648728370667, -0.17329661548137665, -0.22102004289627075, -0.005240714177489281, 0.12748324871063232, -0.048324260860681534, 0.20654296875, 0.13036155700683594, 0.031811363995075226, -0.0444871187210083, 0.1869722306728363, 0.05767660588026047, 0.02908404730260372, -0.12115401029586792, -0.12779393792152405, 0.152724951505661, -0.13411405682563782, -0.0800664946436882, 0.02205302007496357, 0.15025478601455688, 0.1849857121706009, 0.12528403103351593, 0.11425869911909103, 0.04113857075572014, -0.10513146966695786, -0.02003372460603714, -0.12612281739711761, 0.07473687082529068, -0.006041326094418764, 0.046534616500139236, 0.13410814106464386, 0.03073153831064701, -0.04129580035805702, 0.05023219808936119, -0.1845242977142334, -0.01565978303551674, -0.10899864882230759, 0.11919254809617996, -0.1519518494606018, 0.15480506420135498, 0.05689997225999832, 0.14568987488746643, 0.1843646913766861, -0.15261627733707428, -0.05363485962152481, -0.012500359676778316, -0.07816851139068604, 0.1128564402461052, 7.590626046294346e-05, 0.10620763897895813, 0.11079530417919159, -0.09737606346607208, 0.0575491227209568, -0.12278398126363754, 0.07125247269868851, 0.19619950652122498, -0.1423962414264679, -0.08538836240768433, -0.17137637734413147, -0.07616274803876877, -0.05518157780170441, -0.08919461816549301, 0.17072302103042603, -0.08644315600395203, -0.1701519638299942, 0.06364009529352188, 0.06134519353508949, -0.11910168081521988, 0.040372952818870544, 0.22122512757778168, -0.7436665296554565, 0.249942809343338, -0.003916584886610508, -0.3292001187801361, 0.11697940528392792, 0.01441265270113945, 0.02371957153081894, -0.02064470760524273, -0.09911707788705826, -0.04205537214875221, 0.07977885007858276, 0.29003962874412537, 0.1525202840566635, 0.09343041479587555, 0.006903826724737883, 0.07871732115745544, -0.16115576028823853, 0.06902190297842026, -0.050794441252946854, -0.11482881009578705, -0.2192373126745224, 0.15635442733764648, 0.008969453163444996, -0.2190183848142624, 0.26452872157096863, -0.008951944299042225, 0.0056029730476439, -0.23150335252285004, 0.025007955729961395, 0.10095523297786713, 0.011304468847811222, 0.1447121798992157, 0.011388826183974743, 0.1812615543603897, -0.026287665590643883, 0.07081183046102524, -0.2519192397594452, 0.0005401396192610264, 0.1439935266971588, 0.00447197537869215, 0.039646320044994354, 0.02710702456533909, 0.6230782270431519, 0.00018481389270164073, -0.11053258180618286, -0.20224864780902863, 0.05001187324523926, 0.2384076565504074, 0.15134577453136444, -0.0022247224114835262, 0.24305228888988495, -0.20422673225402832, 0.10849349200725555, 0.05586631968617439, -0.1497507095336914, -0.30817466974258423, 0.24507613480091095, 0.07141178101301193, 0.0495111308991909, -0.14655159413814545, -0.03091224655508995, 0.050786107778549194, -0.15281902253627777, 0.060339488089084625, 1.110652208328247, 0.3249339759349823, 0.5414376258850098, -1.1687471866607666, -0.6294376254081726, -0.06453631818294525, 0.2934921681880951, -0.31240376830101013, 0.38047659397125244, 0.0640343502163887, -0.723315417766571, 0.22216133773326874, -0.04343366250395775, -0.7869576215744019, 0.11120761185884476, -0.25415998697280884, 0.008158610202372074, -0.2623465955257416, 0.4184460937976837, -0.21398626267910004, 0.14793415367603302, 0.20150013267993927, 0.04281334578990936, -0.19161762297153473, -0.29158589243888855, 0.0055769975297153, -0.2374153435230255, 0.07277674973011017, 0.3018587529659271, -0.13510987162590027, 0.18948282301425934, -0.058741435408592224, -0.21560926735401154, -0.1595970243215561, 0.15846139192581177, 0.06810378283262253, -0.24619711935520172, -0.12081050127744675, 0.07722478359937668, 0.18247294425964355, -0.16069816052913666, 0.21389636397361755, 0.12652459740638733, 0.2790283262729645, -0.019072063267230988, 0.12328341603279114, -0.20612406730651855, -0.2604602873325348, -0.1285533308982849, -0.05514443293213844, -0.3700578808784485, -0.2793641686439514, -0.08360224217176437, -0.15009450912475586, -0.21378536522388458, 0.13505665957927704, 0.25901609659194946, -0.06975000351667404, 0.025599824264645576, -0.14254748821258545, -0.05099629610776901, 0.1623106300830841, 0.016798902302980423, 0.3308793902397156, 0.03605028986930847, -0.21269330382347107, -0.15873311460018158, -0.030050471425056458, 0.306241899728775, 0.22595921158790588, 0.06792224198579788, -0.1474214494228363, -0.07369326800107956, -0.3779696822166443, 0.11415146291255951, -0.2667021155357361, 0.1778409481048584, 0.08162792026996613, 0.08131745457649231, -0.375638484954834, 0.02217043749988079, 0.03148701786994934, -0.08999516069889069, 0.03816075995564461, 0.2834484577178955, 0.2885618805885315, 0.21894697844982147, -0.32177552580833435, 0.24130704998970032, -0.49650976061820984, -0.343458890914917, 0.29219233989715576, -0.11641104519367218, -0.09381356835365295, 0.08068358153104782, -0.18710477650165558, -0.46466124057769775, 0.3031558394432068, 0.33304646611213684, 0.4528467357158661, 0.018578780815005302, 0.19453632831573486, 0.2040187120437622, -0.0739680826663971, -0.016021087765693665, 0.012685754336416721, -0.263269305229187, 0.2752092778682709, -0.015782538801431656, 0.24581031501293182, -0.16736789047718048, 0.22437188029289246, -0.23007044196128845, -0.25509682297706604, -0.035684578120708466, 0.1743621528148651, -0.12647144496440887, -0.19282884895801544, 0.06696767359972, 0.11526231467723846, -0.13283675909042358, 0.4101104736328125, 0.3322228491306305, -0.11908499896526337, 0.23524293303489685, -0.00614019762724638, 0.20685693621635437, -0.3631564676761627, 0.017352284863591194, 0.40365415811538696, -0.07448113709688187, -0.012328261509537697, 0.1464073359966278, -0.2720794975757599, -0.08220847696065903, 0.21834877133369446, 0.1854153275489807, 0.25073525309562683, 0.29997503757476807, 0.048625826835632324, -0.2396833747625351, -0.00041890059947036207, 0.5199500918388367, 0.03115750290453434, -0.3108278512954712, -0.06243477389216423, -0.2718707025051117, -0.08386892080307007, 0.14395204186439514, 0.08940084278583527, -0.206674262881279, -0.14251022040843964, 0.05587472394108772, -0.12848643958568573, -0.0677531287074089, -0.2512679696083069, -0.005086211487650871, 0.20179104804992676, 0.10108593106269836, -0.03463594615459442, 0.03262035548686981, 0.11868026107549667, 0.30498313903808594, 0.13320034742355347, -0.051504410803318024, 0.10221529006958008, -0.03723730891942978, -0.007203827146440744, -0.3018757402896881, -0.19708028435707092, -0.033082135021686554, -0.083256296813488, 0.4058038294315338, -0.12309195101261139, 0.31118088960647583, 0.0072303880006074905, -0.10072331875562668, 0.16524025797843933, -0.42791926860809326, -0.20684267580509186, -0.24463185667991638, 0.12598155438899994, -0.06566913425922394, -0.12687338888645172, 0.29728808999061584, 0.04974491149187088, -0.08857203274965286, 0.027829157188534737, -0.26222294569015503, 0.08215838670730591, -0.02561517246067524, -0.07388699054718018, 0.05034579709172249, 0.15681520104408264, -0.036397140473127365, -0.16877752542495728, 0.055362995713949203, -0.270350843667984, -0.07405437529087067, -0.14434075355529785, -0.0795731171965599, -0.33035579323768616, 0.23401692509651184, 0.27890390157699585, -0.16759726405143738, 0.3320178985595703, 0.20141653716564178, -0.4979274272918701, 0.19593867659568787, 0.2705920338630676, 0.06759036332368851, 0.09199406206607819, -0.04831843078136444, 0.3122992217540741, -0.09738349914550781, -0.04384716972708702, 0.2707289457321167, -0.11429145932197571, -0.498994916677475, -0.0831204503774643, -0.31401464343070984, 0.09254870563745499, -0.06380440294742584, 0.02410086803138256, -0.18438076972961426, 0.10000500082969666, -0.0038923220708966255, 0.23457366228103638, 0.2178647667169571, 0.15210522711277008, -0.05877149850130081, -0.14468783140182495, 0.0052002775482833385, -0.06404682993888855, 0.04637068510055542, -0.09518575668334961, -0.30317655205726624, -0.08519233018159866, 0.26977673172950745, -0.29157984256744385, 0.33063578605651855, 0.0886199101805687, 0.07140829414129257, 0.08746493607759476, -0.33994629979133606, -0.12199960649013519, -0.006160977762192488, 0.34286245703697205, -0.09546937793493271, 0.26294466853141785, -0.1900176703929901, 0.008761772885918617, 0.03894902393221855, 0.09457395225763321, -0.5666460990905762, 0.006982882972806692, 0.27175095677375793, 0.016098162159323692, -0.24578621983528137, -0.4326950013637543, -0.32514509558677673, -0.30017802119255066, 0.09486838430166245, 0.010973664000630379, -0.07469594478607178, -0.005802595987915993, -0.1512693464756012, -0.20740482211112976, 0.09505283832550049, -0.14430758357048035, -0.031286101788282394, 0.03765250742435455, -0.25685030221939087, 0.10977937281131744, 0.09682977944612503, 0.017628174275159836, 0.09880740195512772, 0.018527524545788765, 0.09848346561193466, 0.1468784362077713, -0.2006196528673172, 0.13075537979602814, 0.09945139288902283, 0.16454757750034332, -0.021549465134739876, -0.1140580102801323, -0.05262749642133713, -0.030552444979548454, -0.027815502136945724, -0.02422523684799671, -0.07154820114374161, 0.029847944155335426, -0.0038447296246886253, -0.04375597462058067, 0.0632195770740509, 0.20170477032661438, -0.07835544645786285, -0.004437654744833708, 0.2402648776769638, 0.00032062214449979365, -0.03976196050643921, -0.143890380859375, -0.34073933959007263, 0.12406258285045624, -0.24247117340564728, 0.12096432596445084, 0.17092569172382355, -0.05817456170916557, -0.0017122386489063501, 0.20493760704994202, 0.0515669621527195, -0.2577805817127228, 0.23616893589496613, -0.04740334302186966, 0.07470370084047318, 0.18278710544109344, -0.12607009708881378, -0.018570108339190483, 0.13446441292762756, 0.06493739783763885, -0.190976083278656, -0.03696320205926895, -0.08818681538105011, -0.4586541950702667, -0.07629385590553284, 0.0052328514866530895, 0.11074350029230118, 0.014736204408109188, -0.2650359272956848, -0.289821982383728, 0.13982681930065155, -0.0069434987381100655, 0.23647305369377136, -0.049177542328834534, 0.4335307776927948, 0.3306613862514496, -0.18064577877521515, 0.4492413401603699, 0.1914231926202774, 0.10426170378923416, -0.09604692459106445, -0.0516531839966774, -0.11151768267154694, -0.46568408608436584, 0.04143645241856575, -0.04818528890609741, 0.24103258550167084, 0.04857209697365761, 0.12906818091869354, -0.08517293632030487, 0.10046771168708801, 0.2480492740869522, 0.0539863146841526, -0.03650352731347084, -0.025052685290575027, 0.14138856530189514, 0.08637969195842743, -0.24009522795677185, -0.029830068349838257, 0.06872338801622391, 0.0704040601849556, -0.19536331295967102, 0.037932999432086945, -0.14521874487400055, 0.39210474491119385, 0.11532427370548248, 0.06658192723989487, -0.7619329690933228, 0.1150863841176033, -0.16378135979175568, -0.15748730301856995, -0.1030694842338562, -0.11174899339675903, -0.32156771421432495, 0.06543109565973282, 0.09905700385570526, -0.21942205727100372, -0.03303142637014389, 0.11336290836334229, -0.04999113455414772, -0.08369139581918716, -0.19540324807167053, 0.004951877519488335, 0.027393927797675133, -0.08141747862100601, -0.36970677971839905, 0.10254596918821335, 0.09237109124660492, 0.23012812435626984, -0.11677021533250809, -0.022994691506028175, 0.07533018290996552, 0.018806638196110725, -0.18831148743629456, -0.07159407436847687, 0.16319315135478973, -0.17054802179336548, -0.1679205298423767, 0.009354694746434689, -0.020527908578515053, 0.002318047918379307, 0.19098816812038422, 0.10078436136245728, -0.08334139734506607, -0.288008451461792, 0.13176685571670532, 0.13813337683677673, -0.04703126475214958, 0.02907060831785202, -0.1294412761926651, 0.058042436838150024, 0.14684386551380157, -0.20393794775009155, 0.049246929585933685, 0.06003274768590927, 0.23975031077861786, 0.009084979072213173, -0.13882941007614136, 0.15016859769821167, -0.014743669889867306, -0.11510906368494034, -0.08677646517753601, 0.1947949230670929, 0.08706539124250412, -0.007421575020998716, -0.04038027673959732, 0.13327568769454956, 0.01441678311675787, -0.14185462892055511, -0.00943791400641203, -0.3594547510147095, -0.06391861289739609, 0.16738194227218628, -0.4458593428134918, -0.01363288052380085, -0.06688149273395538, 0.01861180178821087, -0.07008352875709534, 0.00390888936817646, 0.5362567901611328, -0.03679964318871498, 0.07763943821191788, -0.17524829506874084, 0.13528509438037872, 0.13389933109283447, 0.09777695685625076, -0.07210632413625717, -0.3009878098964691, -0.14675825834274292, 0.06792870163917542, -0.02582446299493313, -0.1577455699443817, 0.10639724880456924, 0.06953325122594833, 0.004657167941331863, -0.3246258795261383, -0.08017110079526901, 0.3453559875488281, 0.09641868621110916, 0.09544254839420319, -0.3007184565067291, -0.16325223445892334, -0.022335074841976166, 0.7222829461097717, -0.05027776211500168, -0.1002015694975853, -0.04039132967591286, 0.0895906314253807, 0.10463587939739227, 0.2105175256729126, -0.020938001573085785, -0.11489488929510117, 0.2096589207649231, -0.11567313224077225, 0.07540491223335266, 0.02067040652036667, 0.061303410679101944, 0.22494134306907654, -0.07848205417394638, 0.021069416776299477, -0.18358264863491058, 0.2452538013458252, 0.01916608214378357, 0.056724920868873596, 0.012705394998192787, 0.006851227954030037, 0.19523999094963074, -0.20720383524894714, 0.18322119116783142, -0.147528275847435, 0.20534980297088623, -0.006990648340433836, 0.23785950243473053, 0.022316869348287582, 0.09525240957736969, 0.40189293026924133, 0.20994248986244202, 0.15082959830760956, 0.2596593201160431, -0.0001830441178753972, -0.13710932433605194, -0.24138005077838898, -0.3008687496185303, -0.13354741036891937, 0.26471978425979614, -0.2552192211151123, 0.08037981390953064, 0.020394377410411835, 0.403091162443161, 0.07051542401313782, -0.05849878489971161, -0.3875466287136078, -0.08757779002189636, -0.049049414694309235, -0.10735013335943222, -0.12353145331144333, -0.26594606041908264, 0.04250384122133255, 0.09281802922487259, 0.1313738077878952, -0.12130222469568253, -0.17565986514091492, 0.06968771666288376, 0.0842297226190567, 0.009560181759297848, -0.25440531969070435, 0.02154540829360485, 0.10028016567230225, -0.19111919403076172, 0.05105114355683327, -0.06799916177988052, 0.0987963005900383, -0.04360967129468918, -0.03929831087589264, 0.12748165428638458, -0.24698711931705475, -0.029247088357806206, -0.0773274376988411, 0.11271462589502335, -0.10920089483261108, -0.24688754975795746, -0.21382936835289001, 0.1303282529115677, -0.09609578549861908, -0.03082425706088543, 0.1321418285369873, 0.27718880772590637, -0.0720481276512146, -0.16472138464450836, 0.07273812592029572, -0.1288072168827057, 0.08404769748449326, -0.023305919021368027, -0.4357251524925232, 0.12901464104652405, -0.05076969787478447, 0.17017117142677307, -0.012644092552363873, 0.0004999073571525514, -0.13363045454025269, 0.005010717548429966, -0.19086678326129913, 0.2578097879886627, -0.2177821397781372, -0.16238288581371307, -0.05284639820456505, -0.10074850916862488, -0.09626557677984238, -0.29262086749076843, -0.07032787054777145, 0.02412121370434761, 0.2047552615404129, -0.0730285495519638, 0.027244457975029945, 0.28358954191207886, -0.00956488773226738, -0.0930708795785904, 0.09392791986465454, 0.06815838068723679, 0.09552028775215149, -0.1357991248369217, -0.17322397232055664, -0.061400484293699265, -0.38888436555862427, 0.001499263453297317, -0.20143285393714905, 0.11775711178779602, -0.02077598124742508, 0.1516481339931488, 0.060024943202733994, -0.08365346491336823, 