{"version": "0.5.4", "metadata": {"date": {"year": 2025, "month": 6, "day": 12, "hour": 9, "minute": 43, "second": 2}, "loudness": -16.79442596435547, "gain": 0.788452656287361, "name": null, "modeled_by": null, "gear_type": null, "gear_make": null, "gear_model": null, "tone_type": null, "input_level_dbu": null, "output_level_dbu": null, "training": {"settings": {"ignore_checks": false}, "data": {"latency": {"manual": null, "calibration": {"algorithm_version": 1, "delays": [1], "safety_factor": 1, "recommended": 0, "warnings": {"matches_lookahead": false, "disagreement_too_high": false}}}, "checks": {"version": 3, "passed": true}}, "validation_esr": null}}, "architecture": "WaveNet", "config": {"layers": [{"input_size": 1, "condition_size": 1, "head_size": 8, "channels": 16, "kernel_size": 3, "dilations": [1, 2, 4, 8, 16, 32, 64, 128, 256, 512], "activation": "Tanh", "gated": false, "head_bias": false}, {"input_size": 16, "condition_size": 1, "head_size": 1, "channels": 8, "kernel_size": 3, "dilations": [1, 2, 4, 8, 16, 32, 64, 128, 256, 512], "activation": "Tanh", "gated": false, "head_bias": true}], "head": null, "head_scale": 0.02}, "weights": [0.016964856535196304, 0.5347806811332703, -0.8906336426734924, -0.708024263381958, -0.504477322101593, 0.3350223898887634, -0.01561443880200386, 0.8272804617881775, -0.1670609563589096, 0.3106577396392822, -0.32730424404144287, -0.07553360611200333, -0.9777392745018005, -0.7696579694747925, -0.4513587951660156, 0.006176112685352564, -0.035160280764102936, 0.16317324340343475, -0.17320148646831512, -0.09568878263235092, 0.19154925644397736, 0.18501992523670197, -0.004212286788970232, -0.03633655980229378, -0.09029749780893326, 0.04146156832575798, -0.01330497581511736, -0.20153069496154785, -0.05863109603524208, -0.17718063294887543, -0.11455658823251724, 0.08083934336900711, 0.03730157017707825, -0.0034973719157278538, -0.03660653531551361, -0.2160310000181198, 0.016693659126758575, 0.09776265919208527, 0.20883296430110931, 0.13722164928913116, 0.055424660444259644, -0.2055114060640335, -0.004560049157589674, -0.169148251414299, 0.03399065136909485, -0.022989695891737938, 0.12249042093753815, -0.05579845979809761, -0.118013896048069, 0.047187261283397675, -0.012175188399851322, 0.08507582545280457, 0.08185173571109772, -0.12682731449604034, 0.029463516548275948, -0.05687658116221428, -0.11733201891183853, -0.17592103779315948, -0.07143330574035645, -0.21555615961551666, 0.003686577780172229, 0.02740270271897316, -0.013648208230733871, -0.018626345321536064, 0.02661043405532837, -0.06990775465965271, 0.015775099396705627, 0.007880566641688347, 0.055125366896390915, 0.15033307671546936, -0.07996876537799835, -0.013842652551829815, 0.048410333693027496, 0.1502809077501297, 0.1634235829114914, 0.11793983727693558, 0.05808987468481064, -0.08790324628353119, 0.0030029115732759237, -0.1066013053059578, -0.16613610088825226, 0.13992398977279663, 0.12872649729251862, -0.1356508880853653, -0.024264490231871605, -0.054923515766859055, -0.06238037347793579, -0.057455871254205704, 0.07832600921392441, -0.056337870657444, 0.03136083111166954, 0.04567110165953636, 0.06855695694684982, 0.06750854104757309, -0.11647222191095352, -0.05874362215399742, 0.05907171964645386, 0.03295654058456421, -0.09781081974506378, -0.10802999138832092, 0.1676749736070633, 0.13657277822494507, -0.07122182846069336, -0.0051302495412528515, -0.09816089272499084, -0.010852734558284283, -0.07968538999557495, -0.07507148385047913, -0.019351748749613762, -0.01917845569550991, -0.08199740946292877, 0.12663020193576813, -0.15604645013809204, 0.22897151112556458, 0.030337335541844368, -0.1666247546672821, 0.09529182314872742, 0.023776566609740257, 0.06131605803966522, -0.10067715495824814, 0.03658536821603775, 0.04951073229312897, -0.20441706478595734, 0.048879411071538925, -0.09265581518411636, -0.21723179519176483, -0.048348959535360336, -0.12507149577140808, 0.07349825650453568, -0.1046750470995903, 0.01718042604625225, -0.05684467405080795, -0.002174773020669818, -0.04799415543675423, 0.2385857254266739, 0.005241754464805126, 0.0667220801115036, -0.13273710012435913, 0.04397457838058472, 0.04339190199971199, 0.2648797333240509, 0.09731646627187729, 0.18244558572769165, -0.14043350517749786, -0.1374390721321106, -0.007633998524397612, 0.001118205487728119, -0.006662338972091675, -0.032467592507600784, -0.2469182312488556, -0.155146062374115, -0.07953927665948868, -0.16392292082309723, 0.06187305226922035, 0.12140018492937088, -0.27074944972991943, 0.07448777556419373, -0.14207465946674347, 0.0500316359102726, -0.12306951731443405, 0.11435208469629288, -0.07855255156755447, -0.10128139704465866, -0.05729465186595917, -0.14253777265548706, -0.10925183445215225, -0.1261739581823349, 0.179121732711792, -0.019030507653951645, -0.0718817487359047, 0.2504761815071106, 0.05193192884325981, 0.0616232194006443, 0.17257994413375854, -0.027171796187758446, 0.16638852655887604, -0.12997692823410034, -0.17422150075435638, 0.01323220506310463, -0.052269112318754196, -0.03407811000943184, 0.031122975051403046, -0.022047510370612144, -0.07142741978168488, -0.019905216991901398, 0.16123367846012115, 0.04275776445865631, 0.04151469096541405, -0.23675477504730225, -0.01881701871752739, 0.04610151797533035, 0.21852906048297882, -0.00291670230217278, -0.07555580884218216, -0.018301133066415787, 0.014416800811886787, -0.14467357099056244, 0.17552395164966583, 0.02550768107175827, -0.06731454282999039, 0.13024483621120453, 0.20200665295124054, -0.1728024035692215, 0.022532111033797264, 0.021833255887031555, 0.14547047019004822, -0.13017797470092773, 0.1270471215248108, -0.017532287165522575, 0.10954058170318604, -0.10113460570573807, -0.0497279092669487, 0.18471214175224304, -0.027940070256590843, 0.02133234031498432, -0.14514076709747314, -0.11502312868833542, -0.05667465180158615, -0.04892244189977646, -0.12159015238285065, 0.017867160961031914, -0.017559699714183807, 0.05626176670193672, -0.033520638942718506, 0.035529762506484985, 0.07236852496862411, -0.07971495389938354, -0.12858262658119202, 0.04612240567803383, -0.041276272386312485, 0.1681097149848938, 0.12363706529140472, 0.05710645392537117, -0.020123247057199478, 0.11300140619277954, -0.11841067671775818, 0.22333435714244843, -0.10947921872138977, -0.035273510962724686, -0.11734888702630997, 0.054183539003133774, 0.14301466941833496, -0.18741083145141602, -0.0022381895687431097, 0.09231719374656677, -0.30685967206954956, 0.09983537346124649, -0.09695079922676086, -0.16320690512657166, -0.02610820159316063, -0.051130183041095734, -0.14105717837810516, 0.12060092389583588, -0.07234812527894974, -0.019586430862545967, -0.14881019294261932, -0.19031494855880737, 0.12374374270439148, -0.06918010115623474, -0.12995368242263794, -0.0058498685248196125, 0.14520278573036194, 0.10530727356672287, 0.029342643916606903, -0.011605627834796906, -0.0183232631534338, -0.1206221729516983, -0.02041674591600895, 0.15226128697395325, -0.038779228925704956, -0.1272495836019516, -0.11053470522165298, -0.06600044667720795, 0.09032054245471954, -0.032737404108047485, -0.16977038979530334, 0.16591909527778625, -0.12336093187332153, 0.06471800804138184, 0.10517893731594086, 0.054012175649404526, -0.1623833328485489, -0.1548597514629364, 0.0783858597278595, 0.09804695844650269, 0.17271628975868225, -0.013725753873586655, -0.03354102000594139, -0.08712959289550781, 0.0466371513903141, -0.13592538237571716, 0.006367743946611881, 0.07400158047676086, -0.08525674790143967, -0.09655092656612396, -0.05838712677359581, 0.01892744190990925, -0.17019963264465332, 0.09113477915525436, -0.12662991881370544, -0.12893888354301453, 0.010610015131533146, -0.021093538030982018, 0.016243012621998787, -0.11293740570545197, -0.052099812775850296, -0.010445324704051018, -0.14957548677921295, 0.11850035190582275, -0.042642638087272644, 0.09215652197599411, -0.0836603194475174, 0.0742015391588211, 0.15500304102897644, -0.006229975260794163, 0.12052702158689499, 0.13864122331142426, -0.06058788299560547, 0.08407112210988998, -0.21564596891403198, 0.07022017985582352, -0.009211909025907516, -0.007729114033281803, -0.015081656165421009, 0.15840041637420654, -0.08134648203849792, 0.14541558921337128, -0.0058931210078299046, 0.28666481375694275, -0.1252688318490982, -0.08572888374328613, -0.33654099702835083, 0.20004266500473022, 0.060687027871608734, 0.11020766943693161, -0.0001307505153818056, 0.13857224583625793, 0.3375682234764099, 0.07857976853847504, 0.14248555898666382, 0.17552965879440308, -0.11160513758659363, 0.14344476163387299, 0.2924676239490509, -0.14864817261695862, 0.15424293279647827, 0.2808915674686432, 0.019727123901247978, -0.06387399882078171, -0.067348413169384, -0.033793386071920395, 0.04994211345911026, 0.028275856748223305, 0.17629946768283844, 0.12825974822044373, 0.12260481715202332, 0.06225087121129036, 0.17852090299129486, -0.16638827323913574, -0.08318503201007843, -0.21133340895175934, -0.20642447471618652, -0.23028115928173065, 0.0022162238601595163, 0.0156315416097641, 0.021446863189339638, 0.004783864598721266, -0.07162303477525711, 0.008057156577706337, 0.08234458416700363, -0.13586346805095673, -0.008252166211605072, -0.18674594163894653, -0.004507316276431084, -0.02290988527238369, 0.03231586515903473, 0.06860056519508362, 0.010830485261976719, 0.002265323419123888, 0.17209288477897644, 0.24168267846107483, 0.0720280110836029, 0.001422953442670405, 0.014501295052468777, -0.06182346120476723, 0.10888972878456116, -0.0016456044977530837, 0.014965812675654888, -0.1175239309668541, -0.04875984787940979, -0.09857800602912903, -0.09979334473609924, -0.1980847716331482, -0.19484713673591614, -0.17474566400051117, -0.017393317073583603, -0.009410873986780643, 0.017201589420437813, -0.012198866344988346, 0.16194972395896912, 0.03292398527264595, 0.04953636974096298, -0.13419178128242493, 0.139576718211174, 0.17541594803333282, -0.0716511607170105, 0.130288764834404, -0.007516433950513601, -0.09168899804353714, 0.07309211790561676, -0.19866542518138885, -0.06101978197693825, 0.11916253715753555, -0.10757508128881454, -0.13532516360282898, -0.05068381875753403, 0.07102487236261368, 0.005493033677339554, 0.0239845160394907, 0.06807423382997513, 0.05633752793073654, -0.08101958781480789, 0.12507197260856628, 0.1085784062743187, 0.085749052464962, -0.22937630116939545, -0.035937659442424774, -0.10651854425668716, 0.048339925706386566, 0.079877108335495, -0.10600464791059494, -0.058614443987607956, 0.0921924039721489, 0.017422018572688103, -0.18686147034168243, -0.07284023612737656, 0.022176193073391914, -0.22858723998069763, 0.032123882323503494, -0.1378641575574875, -0.2556512653827667, -0.177721306681633, -0.03325667604804039, -0.01588098146021366, -0.17088641226291656, 0.12647338211536407, 0.01494581438601017, 0.01818237267434597, 0.17654083669185638, -0.16329576075077057, 0.27587011456489563, 0.17262327671051025, -0.01657280884683132, 0.11192885041236877, -0.1949526071548462, 0.2760930061340332, -0.036235012114048004, -0.027253588661551476, 0.0409848652780056, -0.0825861245393753, -0.24543681740760803, 0.10056973248720169, -0.017072780057787895, -0.0077442931942641735, -0.1112765446305275, 0.12005212157964706, -0.02662842348217964, 0.009031722322106361, -0.17064052820205688, 0.054515451192855835, -0.0929977148771286, 0.18565931916236877, -0.028247710317373276, 0.1367793083190918, -0.012205259874463081, -0.04043702408671379, -0.27708280086517334, 0.11728431284427643, -0.18182425200939178, 0.22190004587173462, -0.1501428484916687, -0.13838185369968414, 0.029327573254704475, 0.05897396057844162, -0.11212331056594849, 0.26770344376564026, 0.04632273688912392, -0.020550856366753578, 0.16191376745700836, -0.08993151038885117, -0.13149575889110565, 0.17339254915714264, 0.026252949610352516, -0.026211969554424286, 0.06453379988670349, 0.05317828804254532, -0.12714852392673492, -0.224140927195549, 0.3865755498409271, 0.04233463853597641, -0.3712325394153595, 0.2617800235748291, 0.15790817141532898, 0.31850966811180115, -0.03511013463139534, 0.010536379180848598, 0.28052613139152527, -0.09713500738143921, 0.04004376009106636, 0.28022080659866333, -0.20749448239803314, 0.012652154080569744, -0.26749467849731445, 0.11012416332960129, 0.10317650437355042, 0.2256578654050827, -0.282459020614624, -0.07547970861196518, -0.15238875150680542, 0.14135585725307465, 0.1104627251625061, 0.1841890811920166, -0.14437580108642578, -0.18499907851219177, -0.31314817070961, 0.09723042696714401, 0.2165919542312622, 0.19240440428256989, -0.1663697212934494, -0.0011431110324338078, 0.3453085422515869, -0.01427504513412714, -0.01863648183643818, 0.12065804749727249, -0.26493844389915466, 0.08633051812648773, 0.19893214106559753, -0.25463512539863586, 0.029632916674017906, 0.25592440366744995, -0.23505733907222748, 0.01397068239748478, -0.14350026845932007, 0.12922650575637817, 0.13606922328472137, 0.060082294046878815, -0.10919365286827087, 0.053948529064655304, -0.17910318076610565, -0.003983702044934034, -0.17674139142036438, -0.00715241814032197, 0.2878618538379669, -0.13298268616199493, 0.15777656435966492, 0.13317270576953888, -0.07797824591398239, 0.09447671473026276, 0.23044556379318237, 0.061371441930532455, -0.25869256258010864, -0.22805026173591614, -0.1311936378479004, 0.14754198491573334, -0.10074519366025925, 0.17662815749645233, -0.16381466388702393, -0.17255082726478577, 0.04504220560193062, 0.18838070333003998, 0.2371678352355957, 0.13424280285835266, -0.1679309606552124, -0.2285766452550888, -0.05732758715748787, 0.2463352382183075, 0.0865916833281517, -0.19713912904262543, 0.14893260598182678, 0.264729768037796, -0.08087855577468872, 0.01325477845966816, 0.01572326570749283, -0.0071225231513381, 0.11955661326646805, 0.07130827009677887, -0.013860405422747135, 0.18266914784908295, 0.2549155652523041, 0.14540833234786987, -0.09744499623775482, -0.1391945481300354, -0.05096040293574333, 0.1233813539147377, 0.2046825885772705, 0.058439698070287704, -0.24603785574436188, 0.18532277643680573, 0.13649220764636993, 0.24877673387527466, -0.1783248335123062, -0.05308270454406738, 0.01773209497332573, 0.08204950392246246, -0.06542307138442993, 0.05122137442231178, 0.014150434173643589, -0.0639604702591896, -0.19423332810401917, 0.045283082872629166, -0.02107415162026882, -0.07377196848392487, 0.04575178399682045, -0.0655914843082428, -0.06918634474277496, 0.1797044277191162, 0.05706343427300453, 0.1249498724937439, 0.046042799949645996, 0.020994219928979874, -0.18207615613937378, 0.19636952877044678, 0.03240956366062164, -0.026572104543447495, -0.10203791409730911, -0.09177607297897339, 0.22909560799598694, -0.0664181262254715, -0.12943141162395477, 0.10993311554193497, 0.036165736615657806, 0.037915028631687164, 0.1651785969734192, -0.043217867612838745, 0.05245305597782135, 0.08171069622039795, -0.11477810889482498, -0.1293533742427826, -0.16025768220424652, 0.12198426574468613, -0.022053444758057594, 0.0022977583575993776, 0.14222769439220428, -0.008984417654573917, -0.201080784201622, 0.12109310179948807, -0.06405656784772873, 0.22648191452026367, -0.09673807770013809, -0.014856784604489803, 0.18611113727092743, -0.041399698704481125, 0.1363782286643982, 0.004273718222975731, -0.10966849327087402, -0.07570356875658035, -0.07684256881475449, 0.12115418165922165, -0.08006646484136581, 0.1083109974861145, -0.10431431233882904, -0.05158260092139244, -0.0024354299530386925, -0.13043153285980225, 0.012458991259336472, 0.22310180962085724, -0.03150346502661705, 0.09955127537250519, -0.14515657722949982, 0.1091301366686821, -0.12502484023571014, 0.08130589127540588, -0.016731226816773415, 0.0483713373541832, 0.13793423771858215, 0.11092983931303024, -0.00018642104987520725, 0.10377048701047897, 0.11765759438276291, -0.020135197788476944, 0.2341325879096985, -0.07965707033872604, 0.0004228012403473258, 0.0960547998547554, 0.07804429531097412, 0.09020703285932541, -0.08640892803668976, -0.0781044214963913, 0.030490169301629066, 0.09055795520544052, -0.06098773702979088, -0.043996892869472504, 0.22738133370876312, 0.1347513347864151, -0.03397495672106743, -0.26916924118995667, 0.10300382971763611, -0.15334224700927734, -0.10159475356340408, 0.02195023000240326, -0.10877911001443863, -0.07959426194429398, -0.11944311112165451, 0.06936557590961456, 0.034149251878261566, -0.024651192128658295, 0.020157819613814354, 0.04481001943349838, 0.02481829561293125, 0.13959833979606628, 0.117439866065979, -0.06905409693717957, -0.1487022489309311, -0.247567281126976, 0.17521527409553528, 0.002327317837625742, 0.13473647832870483, 0.02541476860642433, 0.05716202035546303, -0.006130954250693321, 0.12876839935779572, -0.12980298697948456, -0.1265162080526352, -0.07023262232542038, -0.13054360449314117, -0.10271427035331726, 0.13557694852352142, -0.16095516085624695, -0.047169849276542664, -0.07130797952413559, -0.07040271908044815, -0.015455983579158783, -0.026076659560203552, 0.023105641826987267, -0.03919258713722229, 0.03452068939805031, 0.030762337148189545, -0.24434714019298553, 0.18569745123386383, -0.12357891350984573, -0.3365275263786316, 0.029414743185043335, 0.13839846849441528, 0.18290045857429504, 0.046650394797325134, 0.1478273570537567, 0.3190191686153412, -0.09546875208616257, 0.002446781611070037, 0.17561855912208557, -0.1466415971517563, -0.011335077695548534, -0.10683277249336243, 0.1474897861480713, 0.018958494067192078, 0.18913070857524872, -0.16824248433113098, 0.08430472016334534, -0.2853855490684509, -0.08045528829097748, 0.024748453870415688, 0.29880276322364807, -0.18781188130378723, 0.11413190513849258, -0.16609156131744385, -0.06655533611774445, -0.011995038948953152, 0.3441525399684906, -0.1434430629014969, -0.04235081374645233, 0.22695855796337128, -0.14771892130374908, 0.10501094162464142, 0.3013128638267517, 0.06996877491474152, -0.06936949491500854, 0.3684118390083313, -0.10913895815610886, 0.16481122374534607, 0.08186250180006027, -0.15392544865608215, 0.0863889530301094, -0.1074078381061554, 0.11552941054105759, -0.13795241713523865, -0.1375579684972763, -0.08141214400529861, -0.07081393897533417, 0.012492234818637371, 0.03535613790154457, -0.021118460223078728, 0.032462265342473984, 0.0848347395658493, 0.047142427414655685, 0.03284323960542679, -0.013608402572572231, -0.05017063766717911, -0.07679791748523712, -0.04246773570775986, 0.046066589653491974, 0.5188018679618835, -0.422123521566391, 0.8237627744674683, -0.8194236755371094, 0.011807805858552456, 0.9681957364082336, 0.9717340469360352, -0.46099555492401123, 0.22325465083122253, 0.15870410203933716, -0.3195176422595978, -0.49791499972343445, 0.32231926918029785, -0.7199999690055847, 0.1707923710346222, 0.4462367296218872, -0.0797034204006195, 0.1928861439228058, 0.021582333371043205, 0.04202371463179588, 0.291710764169693, -0.06615854799747467, 0.20097017288208008, -0.1447439193725586, 0.02772439271211624, -0.06281173974275589, -0.05071436986327171, -0.11846178770065308, 0.06934425234794617, -0.04518573731184006, 0.17103467881679535, -0.11045669764280319, -0.00799103919416666, -0.17565160989761353, -0.27648141980171204, 0.16728317737579346, 0.018548855558037758, -0.11582665890455246, -0.5405582189559937, 0.1965966373682022, -0.08533839881420135, 0.4434810280799866, 0.053207580000162125, 0.15736979246139526, 0.10569917410612106, -0.019249720498919487, 0.12757427990436554, 0.20900408923625946, -0.10073424875736237, 0.13023550808429718, -0.12344935536384583, 0.3052701950073242, -0.26635703444480896, -0.2160194367170334, -0.01898244209587574, -0.20325815677642822, -0.1189495325088501, -0.028178242966532707, 0.333728551864624, -0.10738668590784073, 0.15555846691131592, 0.3685878813266754, -0.08548995107412338, 0.1668163686990738, 0.38179144263267517, -0.08404197543859482, 0.13875876367092133, -0.22004076838493347, 0.026217864826321602, 0.14096641540527344, 0.0892295241355896, -0.037512484937906265, -0.1856163889169693, -0.052070654928684235, 0.0016172198811545968, -0.09238769114017487, 0.1588584929704666, 0.14280062913894653, -0.021925779059529305, -0.09631957113742828, -0.26517367362976074, -0.08634969592094421, -0.37783530354499817, 0.45327749848365784, -0.020519215613603592, -0.18407009541988373, -0.06128306686878204, -0.22610625624656677, -0.1819303184747696, 0.17332972586154938, -0.011378343217074871, 0.48721015453338623, -0.03256380930542946, 0.38476353883743286, -0.2716262936592102, 0.2739964723587036, -0.1669939011335373, -0.1101035550236702, 0.1563260406255722, -0.021973958238959312, 0.2820071876049042, 0.34406790137290955, 0.011809644289314747, 0.19609150290489197, 0.2880460321903229, 0.2047351449728012, -0.23286309838294983, -0.20287267863750458, -0.10412073135375977, -0.2455858588218689, 0.17064955830574036, 0.012253937311470509, 0.0056562721729278564, 0.13312271237373352, 0.1513085514307022, 0.22522006928920746, -0.21286806464195251, -0.372164249420166, -0.15652212500572205, 0.13162757456302643, 0.006638171151280403, -0.34334591031074524, -0.31257379055023193, 0.32893693447113037, 0.019943054765462875, -0.11201173812150955, 0.11021512001752853, -0.2223750352859497, 0.17323656380176544, 0.11233338713645935, 0.23506376147270203, -0.22884619235992432, -0.2737390697002411, 0.18249017000198364, 0.17015419900417328, 0.040448639541864395, 0.1419268101453781, -0.11380313336849213, 0.26166316866874695, -0.2551770508289337, 0.19160933792591095, -0.14163538813591003, -0.15794141590595245, 0.08434779942035675, -0.30110424757003784, 0.07316260784864426, -0.4504084885120392, -0.037573400884866714, -0.12324286252260208, -0.2918842136859894, -0.2702016532421112, -0.1587713062763214, -0.3795357644557953, -0.08700889348983765, 0.3340643048286438, 0.37395817041397095, 0.09286075830459595, 0.05297825112938881, -0.11350718885660172, 0.2523367702960968, -0.0891943946480751, 0.04088510572910309, 0.3364487886428833, -0.33288154006004333, -0.16068688035011292, 0.14435474574565887, 0.14801748096942902, -0.21236322820186615, 0.12059689313173294, 0.13294294476509094, 0.027741655707359314, -0.05507602170109749, 0.2718748450279236, 0.07425425946712494, -0.10748805850744247, -0.02160879597067833, 0.06010863557457924, 0.26694056391716003, -0.3217446804046631, 0.21656273305416107, -0.1817246973514557, -0.29268383979797363, 0.011038999073207378, -0.11823675036430359, -0.0543203167617321, -0.05845619738101959, -0.08024358749389648, 0.0838690847158432, -0.0595879852771759, 0.22477921843528748, -0.0618770457804203, 0.3396887183189392, 0.14078424870967865, -0.1065998449921608, 0.30548861622810364, -0.11069212108850479, 0.15585489571094513, -0.006843320094048977, 0.1382928043603897, -0.07397089898586273, 0.0934910997748375, -0.26130157709121704, -0.14518386125564575, -0.3047764003276825, -0.1442653238773346, 0.011915823444724083, -0.0618799552321434, -0.32968205213546753, -0.009769726544618607, -0.03197544440627098, 0.0821337178349495, 0.04084514454007149, 0.13466261327266693, -0.16007815301418304, 0.1468876153230667, 0.21470770239830017, 0.197087824344635, -0.08066397160291672, -0.16401894390583038, 0.06705375760793686, 0.17032809555530548, -0.15171387791633606, -0.07770562171936035, 0.11367526650428772, -0.186135396361351, -0.11513177305459976, -0.3490540385246277, 0.2746056318283081, -0.2534888684749603, -0.07768673449754715, 0.06453215330839157, -0.017641346901655197, -0.17879875004291534, -0.08285699784755707, 0.15662690997123718, 0.26453137397766113, -0.21412032842636108, 0.1332487016916275, -0.3881217837333679, 0.3466692268848419, -0.18382808566093445, 0.2596415579319, -0.11455472558736801, -0.08211392164230347, 0.07058250904083252, -0.002701124642044306, 0.26322537660598755, 0.14449666440486908, -0.29688704013824463, 0.08180268108844757, -0.007148175034672022, -0.07360352575778961, 0.16579581797122955, 0.24692325294017792, -0.24955229461193085, 0.016536826267838478, 0.1975357085466385, 0.12973682582378387, 0.22212299704551697, -0.0681995153427124, -0.1834227591753006, 0.21304640173912048, 0.0050842720083892345, 0.07907353341579437, -0.12037650495767593, -0.14416614174842834, 0.0013636096846312284, -0.20564627647399902, 0.08668720722198486, 0.17984235286712646, 0.046163901686668396, -0.019741734489798546, 0.13289980590343475, -0.0744578018784523, 0.2318999171257019, -0.2974867522716522, -0.19937807321548462, 0.08956097066402435, 0.16820351779460907, 0.015125170350074768, 0.06905897706747055, -0.18775300681591034, 0.04393021762371063, -0.02002527005970478, -0.021260889247059822, 0.21211892366409302, 0.05568356066942215, -0.055423326790332794, 0.05447786673903465, 0.21943919360637665, 0.14262619614601135, 0.3166845142841339, -0.30946195125579834, -0.16118751466274261, -0.0414557009935379, -0.07860724627971649, 0.13403253257274628, -0.21770215034484863, 0.03561161458492279, -0.16670648753643036, -0.09417735040187836, -0.20282074809074402, 0.14166276156902313, 0.18649959564208984, 0.05308615788817406, 0.044142868369817734, -0.05541318282485008, 0.15093599259853363, 0.6253594756126404, 0.05000229924917221, -0.09250324964523315, -0.41782867908477783, -0.05209077522158623, -0.045292384922504425, -0.02629048377275467, -0.13820281624794006, -0.08052442967891693, -0.3950328826904297, -0.13148856163024902, -0.12162847071886063, 0.09940697252750397, -0.13710583746433258, 0.08303654193878174, 0.009865060448646545, -0.18438296020030975, 0.08625073730945587, 0.18342402577400208, -0.0754249170422554, 0.024284061044454575, 0.07203098386526108, -0.12498955428600311, 0.01948823221027851, 0.12425121665000916, 0.12057078629732132, -0.02239633910357952, -0.24547897279262543, 0.06866105645895004, 0.18824125826358795, 0.07365887612104416, -0.036503978073596954, -0.2502176761627197, 0.15192438662052155, -0.12285850942134857, -0.14123137295246124, 0.1389336884021759, -0.1593877226114273, 0.008958104997873306, -0.1880791038274765, 0.04007626697421074, -0.2133142501115799, 0.1513407677412033, -0.04674099013209343, 0.008751857094466686, -0.04162053018808365, 0.21202050149440765, 0.07370860129594803, 0.04548089951276779, 0.17219489812850952, 0.0648522824048996, 0.0634353831410408, -0.16543255746364594, -0.1159668043255806, 0.010403339751064777, 0.11284676194190979, 0.07472296804189682, -0.1436104029417038, -0.028926633298397064, -0.08641582727432251, 0.0011716573499143124, -0.0962282121181488, 0.037952061742544174, 0.01915639452636242, -0.12060455232858658, -0.06133175268769264, 0.012154052034020424, -0.00790927279740572, 7.809892849763855e-05, 0.08145729452371597, -0.11852432787418365, -0.1839931160211563, 0.0049932850524783134, -0.035050299018621445, 0.18015353381633759, -0.16930262744426727, -0.047152988612651825, -0.05700095742940903, 0.034439194947481155, 0.02606392651796341, 0.012977889738976955, -0.2516289949417114, -0.008283072151243687, 0.10372647643089294, 0.06290487200021744, 0.2006911188364029, 0.06794151663780212, -0.028452366590499878, 0.11011224240064621, -0.01902351714670658, 0.07953090965747833, -0.037899937480688095, 0.0358307845890522, 0.12685386836528778, 0.009849588386714458, -0.15015962719917297, -0.33237361907958984, -0.07142191380262375, -0.16241809725761414, 0.15312312543392181, -0.03107064589858055, -0.08939228951931, -0.07229258865118027, -0.025797924026846886, 0.03847192972898483, -0.06136490777134895, -0.12173349410295486, -0.11449865996837616, 0.0625661164522171, 0.1861814260482788, 0.009748308919370174, 0.13084153831005096, 0.120905302464962, 0.0726269856095314, -0.04828688129782677, -0.011657130904495716, -0.010800628922879696, 0.05765500292181969, -0.10633004456758499, 0.08282057195901871, 0.07332657277584076, -0.06343002617359161, 0.11848803609609604, 0.1811152845621109, -0.12950009107589722, -0.08064430207014084, 0.022166794165968895, -0.022403793409466743, 0.13440963625907898, 0.10214033722877502, 0.1052328497171402, -0.0995127260684967, -0.09788750112056732, 0.12524767220020294, 0.13554616272449493, -0.0774962529540062, -0.055441975593566895, -0.11009912937879562, -0.0676807165145874, -0.09170663356781006, 0.07440301775932312, -0.06271416693925858, 0.08907531946897507, 0.10413800925016403, 0.013626460917294025, -0.15142790973186493, 0.015677573159337044, -0.003975836094468832, 0.1115853413939476, -0.14050139486789703, 0.0994190201163292, 0.11955384910106659, -0.14701753854751587, 0.0019945038948208094, 0.15138953924179077, -0.058635443449020386, 0.08736542612314224, 0.10133516788482666, 0.07613503187894821, 0.15029697120189667, 0.11996816098690033, 0.15093998610973358, -0.01442019920796156, 0.09961746633052826, -0.14458824694156647, -0.0826057717204094, 0.005909568164497614, -0.0015805047005414963, 0.15777598321437836, 0.07740474492311478, 0.06900185346603394, 0.07371952384710312, -0.14876040816307068, -0.11125876009464264, 0.005209843162447214, 0.03551146388053894, 0.09821280092000961, -0.023049717769026756, -0.019030261784791946, 0.1317019760608673, -0.09048643708229065, -0.1579652726650238, -0.012914979830384254, 0.07466337829828262, -0.00994913186877966, -0.008520600385963917, -0.1608666628599167, -0.16977761685848236, 0.027841120958328247, -0.017672214657068253, 0.19152256846427917, -0.18240904808044434, -0.02080422081053257, -0.053980156779289246, 0.10050410777330399, 0.16467243432998657, 0.13563649356365204, 0.0963994637131691, -0.10755342245101929, -0.16027453541755676, -0.10985980927944183, 0.02599230408668518, 0.1711726039648056, -0.01627933792769909, -0.05798517167568207, -0.17976221442222595, -0.045891135931015015, 0.08775500953197479, -0.10883542150259018, -0.1499718874692917, 0.056978560984134674, 0.05294223129749298, -0.0033790436573326588, -0.03767050430178642, 0.020854907110333443, -0.07013989984989166, -0.15726499259471893, 0.03953327611088753, -0.04657670482993126, -0.03951707109808922, -0.10804417729377747, 0.03287099301815033, -0.026369063183665276, -0.013948006555438042, 0.02197098545730114, 0.08470790088176727, -0.050538014620542526, -0.08924902975559235, 0.09900606423616409, -0.056331295520067215, 0.18543675541877747, 0.08481050282716751, -0.05894172191619873, -0.013714004307985306, 0.09160715341567993, 0.13148027658462524, 0.020415503531694412, -0.05832172930240631, 0.211995929479599, -0.03134232014417648, 0.08080775290727615, 0.16184359788894653, -0.04913359880447388, 0.0790243074297905, 0.13532957434654236, 0.053501974791288376, 0.008072412572801113, 0.18570563197135925, 0.005499636754393578, -0.025789743289351463, 0.07848526537418365, -0.004291699733585119, 0.14219729602336884, 0.09192173182964325, -0.010749953798949718, 0.006696881260722876, 0.04959641769528389, 0.11694220453500748, 0.12238875031471252, -0.03954753652215004, -0.17043116688728333, 0.15353193879127502, -0.06271161139011383, 0.05893383547663689, -0.11331770569086075, -0.009145352989435196, 0.07370711117982864, 0.020523814484477043, 0.16654253005981445, 0.23134100437164307, -0.0847928524017334, 0.3401529788970947, 0.08517251908779144, 0.05590001866221428, -0.20543605089187622, -0.022056804969906807, 0.38199493288993835, 0.2097078114748001, 0.11113545298576355, -0.11858124285936356, -0.26913896203041077, 0.10785357654094696, 0.2563492953777313, 0.4017111659049988, 0.1101137101650238, -0.05332552641630173, 0.32756307721138, 0.3273676633834839, 0.05408567190170288, 0.030099714174866676, -0.1573830544948578, -0.24371503293514252, -0.20730334520339966, -0.10004642605781555, 0.13334091007709503, 0.07233402132987976, -0.1719655841588974, -0.14167733490467072, -0.1242852583527565, -0.028650544583797455, 0.3127535581588745, 0.13004451990127563, 0.16137412190437317, -0.2756202220916748, -0.08061213046312332, 0.35687166452407837, 0.29175490140914917, -0.16693760454654694, 0.1393841654062271, 0.1340665966272354, -0.3187680244445801, 0.030378375202417374, 0.19876538217067719, 0.013974519446492195, -0.11975040286779404, -0.2494116574525833, -0.04941672459244728, 0.1452905535697937, 0.00896484311670065, 0.1909887045621872, -0.18487250804901123, 0.1588667780160904, -0.2329101413488388, -0.10183031857013702, 0.17265698313713074, -0.006396734621375799, -0.03597867488861084, -0.14792132377624512, -0.10005123168230057, -0.20482054352760315, -0.030443737283349037, 0.26269638538360596, 0.02316730096936226, -0.10553965717554092, 0.004978290759027004, 0.02760535478591919, 0.17287415266036987, 0.14625844359397888, 0.022608807310461998, -0.04441855475306511, -0.09867807477712631, -0.24206528067588806, 0.20278799533843994, 0.19595946371555328, 0.171168714761734, -0.08663531392812729, -0.031790610402822495, -0.21748086810112, 0.05231902748346329, 0.05349518731236458, 0.07599825412034988, -0.053203728049993515, -0.15530511736869812, -0.027540720999240875, -0.005972457583993673, -0.231902077794075, -0.11596301198005676, -0.0488784983754158, -0.05300835520029068, -0.039593812078237534, 0.17475895583629608, 0.03782116621732712, 0.10422199219465256, -0.026520704850554466, 0.026893826201558113, 0.1955789029598236, 0.001014348235912621, -0.2514296770095825, -0.3510601222515106, -0.16021406650543213, 0.2829810678958893, 0.0190101508051157, 0.11594488471746445, 0.12730541825294495, 0.1219271644949913, 0.023891713470220566, 0.2676599323749542, -0.03151889517903328, 0.0068281288258731365, -0.27909067273139954, 0.1747964769601822, 0.015654612332582474, 0.1168152391910553, -0.14545901119709015, 0.034160882234573364, -0.21084843575954437, 0.03262607380747795, 0.04119373485445976, 0.10797244310379028, -0.20175369083881378, 0.07095744460821152, -0.06893474608659744, 0.15994663536548615, -0.15814514458179474, 0.22247430682182312, -0.13450194895267487, -0.09235598891973495, -0.08897785097360611, 0.11558094620704651, 0.187064066529274, 0.1288571059703827, 0.0656011551618576, 0.07507748156785965, 0.07803847640752792, -0.15404143929481506, -0.17872342467308044, 0.14658668637275696, -0.13255423307418823, -0.02982344478368759, -0.045385584235191345, 0.05661779269576073, -0.05690377950668335, 0.23084264993667603, 0.016304489225149155, -0.04170102998614311, -0.20388029515743256, 0.20501771569252014, -0.041787102818489075, -0.2851025462150574, 0.19637271761894226, 0.036646753549575806, -0.02768784947693348, 0.0731423869729042, -0.05467713251709938, -0.06143362447619438, 0.16145160794258118, -0.016538472846150398, 0.07475192844867706, -0.3084481656551361, -0.0038017493207007647, -0.04492596536874771, 0.07172143459320068, -0.3384709656238556, 0.01280413381755352, -0.29477399587631226, 0.1989317387342453, -0.21648146212100983, 0.33435919880867004, 0.04756581038236618, -0.05976458638906479, -0.3946525454521179, 0.13542833924293518, -0.25604721903800964, 0.23272179067134857, 0.15293081104755402, 0.23956838250160217, -0.1962166279554367, -0.012968926690518856, -0.22179178893566132, 0.10175973176956177, -0.20782145857810974, -0.2734367549419403, 0.26669949293136597, 0.08806684613227844, -0.17642268538475037, 0.07522627711296082, 0.13250863552093506, 0.0730573907494545, -0.233945831656456, -0.09279108047485352, 0.07334182411432266, 0.16875708103179932, 0.09649549424648285, -0.09955859929323196, -0.047029394656419754, -0.051022518426179886, -0.003398383501917124, 0.01722104288637638, 0.0060077253729105, -0.38057103753089905, -0.42878228425979614, -0.20649386942386627, -0.0708344429731369, -0.07343048602342606, -0.38578683137893677, 0.13194340467453003, 0.22067315876483917, 0.3283109664916992, -0.1151922270655632, 0.04287952184677124, 0.12152722477912903, -0.042921796441078186, 0.1986677199602127, 0.20904339849948883, 0.012074866332113743, 0.09059043973684311, 0.09399247914552689, -0.21030613780021667, -0.1980448067188263, -0.08849574625492096, 0.06083609163761139, -0.09391285479068756, -0.2576165497303009, 0.009780948981642723, -0.09100380539894104, 0.006376279983669519, -0.044095274060964584, -0.22962892055511475, -0.1903437077999115, 0.12008488923311234, 0.04842846840620041, 0.01951541379094124, 0.02401169389486313, 0.016789665445685387, -0.13712956011295319, -0.1351315826177597, -0.28439775109291077, -0.007635797373950481, -0.035892512649297714, -0.01871945522725582, 0.044076789170503616, -0.11809052526950836, -0.04454439505934715, -0.2784055173397064, 0.0963074266910553, 0.16835768520832062, -0.020875396206974983, 0.022321736440062523, 0.08130695670843124, 0.08672916144132614, 0.17386187613010406, 0.04277756065130234, -0.23807181417942047, -0.22174370288848877, 0.08569871634244919, 0.15486152470111847, -0.08874531835317612, -0.18580107390880585, -0.07612663507461548, -0.0057709552347660065, 0.11374502629041672, 0.15595625340938568, 0.28074946999549866, -0.11563226580619812, -0.2583066523075104, -0.2592178285121918, 0.0889442190527916, 0.0405927337706089, 0.12625692784786224, 0.06754954159259796, -0.20886363089084625, -0.20728974044322968, 0.06262175738811493, 0.1936323344707489, 0.05092621594667435, -0.08838619291782379, -0.055313508957624435, 0.27171939611434937, 0.028895631432533264, -0.19969387352466583, 0.2923886179924011, 0.07678118348121643, -0.23892317712306976, -0.20383000373840332, 0.015705924481153488, 0.1894555538892746, 0.028118306770920753, 0.10572725534439087, -0.08956274390220642, 0.10314937680959702, -0.039262253791093826, 0.06120895594358444, 0.05138443037867546, 0.03543950244784355, -0.11116141080856323, -0.13863897323608398, -0.1343039572238922, -0.18523149192333221, 0.1253172904253006, -0.06005619466304779, -0.1889246106147766, -0.037481535226106644, -0.09638255089521408, 0.1937258243560791, 0.0518026202917099, 0.0696941614151001, 0.04941730201244354, -0.09070319682359695, -0.03366054967045784, 0.19149181246757507, -0.10412782430648804, 0.06523501873016357, 0.09452357888221741, -0.09293805807828903, 0.02027345821261406, -0.07849187403917313, 0.07393555343151093, 0.10624151676893234, -0.025717947632074356, 0.09249766170978546, -0.17065954208374023, -0.03370177373290062, -0.01541875023394823, -0.15387913584709167, -0.04223683476448059, -0.035447534173727036, -0.04118337482213974, -0.12682712078094482, 0.023051152005791664, -0.12655510008335114, -0.0697350800037384, 0.05283816531300545, 0.12024618685245514, 0.06835809350013733, 0.07016773521900177, 0.1967134177684784, 0.22446675598621368, -0.15706373751163483, -0.08187906444072723, 0.04780765622854233, 0.25635454058647156, 0.016312161460518837, 0.27014896273612976, -0.3709362745285034, -0.305196613073349, -0.4333280920982361, -0.15234623849391937, -0.12467460334300995, 0.01887635327875614, -0.004247122909873724, 0.14684900641441345, -0.0027507103513926268, -0.239488884806633, 0.2032998949289322, -0.07839260250329971, 0.16988767683506012, -0.027361849322915077, 0.00259498693048954, 0.11933697015047073, 0.02235788106918335, 0.277822345495224, -0.03724225237965584, -0.41990774869918823, -0.047467224299907684, -0.01382780447602272, -0.0032692814711481333, -0.019636476412415504, -0.011365823447704315, 0.0911233201622963, -0.1830049306154251, -0.1759151965379715, 0.01826072856783867, -0.12155865132808685, 0.31154385209083557, 0.3394320607185364, 0.2174941599369049, 0.08918063342571259, 0.03138365596532822, -0.02113732136785984, -0.08300071209669113, -0.18959367275238037, -0.09551240503787994, -0.16769391298294067, -0.08635102957487106, -0.1831408441066742, 0.06255260109901428, 0.31947287917137146, -0.0910763218998909, -0.16209815442562103, 0.20624622702598572, 0.035674821585416794, 0.13075849413871765, 0.11395371705293655, 0.1109074056148529, -0.07006365060806274, 0.2238541543483734, 0.07803735882043839, 0.21634545922279358, -0.23791693150997162, -0.12011934816837311, -0.3583518862724304, 0.17531731724739075, -0.18319645524024963, 0.22458788752555847, -0.2692505419254303, -0.05364688113331795, -0.1196669340133667, -0.05184268578886986, -0.07953239977359772, 0.1754816770553589, -0.2464902102947235, 0.24262280762195587, -0.11281942576169968, 0.23830483853816986, 0.15534156560897827, 0.23129647970199585, 0.060547735542058945, -0.002344446023926139, -0.13538528978824615, 0.2741847634315491, 0.026278678327798843, -0.2020215392112732, 0.06301355361938477, -0.04142444208264351, -0.22489199042320251, 0.10472068935632706, -0.11003613471984863, 0.33754679560661316, -0.11149817705154419, 0.04809330403804779, -0.028194289654493332, 0.1256268322467804, -0.0085106510668993, -0.08057921379804611, 0.07832825183868408, -0.14800085127353668, 0.014232546091079712, 0.17468954622745514, 0.05253639072179794, 0.047729164361953735, 0.055702369660139084, -0.038726646453142166, -0.09378119558095932, 0.07162198424339294, -0.03793935850262642, -0.020705340430140495, -0.2462049126625061, 0.007686110679060221, -0.061171386390924454, 0.13833963871002197, -0.4330148994922638, 0.14670823514461517, -0.30832621455192566, -0.06817800551652908, -0.14322081208229065, 0.05636298656463623, -0.041328463703393936, -0.008859246969223022, -0.04323378950357437, 0.23955988883972168, -0.03328375518321991, 0.20004339516162872, -0.13877998292446136, 0.0708559900522232, -0.020670192316174507, 0.1354435235261917, -0.12037986516952515, 0.035637520253658295, 0.010566726326942444, 0.010113905183970928, 0.24477626383304596, -0.10039255768060684, 0.04157303273677826, 0.0351715162396431, 0.0350433886051178, 0.09229151159524918, 0.023024065420031548, 0.1795436441898346, 0.25193801522254944, 0.11960981786251068, -0.013049098663032055, 0.08362969756126404, -0.07870861887931824, 0.11800083518028259, 0.1702088713645935, 0.08345872908830643, -0.07234165072441101, -0.01219438761472702, 0.3239724934101105, 0.08079824596643448, 0.17835606634616852, 0.44459426403045654, -0.03101414442062378, -0.0025849565863609314, -0.6315755248069763, 0.25717270374298096, 0.3150451183319092, -0.6235688924789429, 0.18845278024673462, -0.8562275171279907, -0.5313193798065186, -0.46767982840538025, 0.8167775869369507, -0.8233469128608704, -0.38824793696403503, -0.8411721587181091, 0.3364027440547943, -0.7601112127304077, 0.3557337820529938, -0.6214780211448669, -0.22148831188678741, -0.1775488555431366, 0.004061414394527674, 0.2226283997297287, 0.3178984820842743, -0.05092508718371391, -0.43027356266975403, -0.18801124393939972, 0.027776870876550674, -0.17864952981472015, 0.07529792934656143, 0.23704893887043, 0.1996145248413086, 0.08989319205284119, -0.16113418340682983, 0.0030030622147023678, -0.14010436832904816, -0.16657079756259918, 0.017264558002352715, 0.0012652063742280006, -0.01865174062550068, -0.06730806827545166, -0.35556676983833313, -0.23972147703170776, 0.19991269707679749, -0.42766159772872925, 0.1378869265317917, 0.5269396901130676, 0.06483981758356094, -0.023221349343657494, -0.14305627346038818, 0.019657758995890617, 0.006939966697245836, -0.1746876984834671, 0.08491101861000061, 0.1779625564813614, 0.020566370338201523, 0.21561937034130096, 0.03504699096083641, 0.0948357805609703, -0.022829530760645866, 0.04898734390735626, -0.28188782930374146, -0.17576830089092255, -0.08799127489328384, 0.1434250771999359, 0.16553595662117004, 0.035857826471328735, -0.038314178586006165, 0.16334471106529236, -0.1983870565891266, -0.3100563883781433, -0.050105269998311996, -0.0841955691576004, -0.23811154067516327, -0.06446824967861176, -0.061003826558589935, 0.05113064870238304, 0.14916880428791046, 0.23090516030788422, 0.2895664870738983, -0.2417135089635849, -0.05227120593190193, -0.016817957162857056, 0.3512505292892456, -0.13704372942447662, -0.16582949459552765, -0.030591662973165512, 0.12118341028690338, -0.02229750156402588, -0.17097750306129456, 0.18464238941669464, 0.2608867287635803, -0.12615233659744263, -0.2171972244977951, 0.5353739857673645, -0.1974775195121765, 0.04102756455540657, -0.2492138296365738, -0.0748695656657219, -0.13866639137268066, -0.24032115936279297, -0.17891237139701843, -0.04209624603390694, 0.04200432822108269, -0.14884449541568756, -0.009483377449214458, -0.2289067655801773, 0.14883755147457123, 0.215769961476326, -0.060119010508060455, -0.019994448870420456, -0.1582263708114624, -0.12706945836544037, 0.003163333749398589, 0.12967830896377563, 0.2503261864185333, -0.2330038845539093, 0.12721985578536987, -0.14532676339149475, -0.10085799545049667, 0.3195805847644806, -0.15073688328266144, -0.32485678791999817, 0.24786169826984406, 0.04770621657371521, -0.3354042172431946, 0.28080320358276367, -0.05302515625953674, 0.0843038558959961, -0.01227441057562828, 0.33170604705810547, 0.21939709782600403, -0.10272575169801712, 0.026752518489956856, 0.18105418980121613, -0.0628996416926384, -0.005676510278135538, 0.2023020088672638, -0.010628283955156803, -0.11698373407125473, 0.4044269621372223, -0.2623771131038666, 0.12239990383386612, -0.2020486444234848, 0.1707681566476822, 0.3304819166660309, 0.18477028608322144, 0.15179525315761566, 0.09751385450363159, -0.20981822907924652, -0.08719910681247711, -0.32956066727638245, 0.014836880378425121, 0.08962230384349823, -0.11758873611688614, 0.10572800040245056, 0.0695878118276596, 0.08416662365198135, -0.0070269182324409485, -0.21923084557056427, 0.36777472496032715, 0.10931148380041122, 0.27491796016693115, -0.17239342629909515, 0.020310409367084503, -0.07581150531768799, 0.09558446705341339, 0.0753416121006012, -0.10923871397972107, 0.1443152278661728, -0.05474673584103584, -0.022711509838700294, 0.041965730488300323, 0.1275104582309723, 0.15819893777370453, 0.18483808636665344, 0.011478912085294724, 0.16865801811218262, -0.07876914739608765, -0.02490457147359848, -0.06659640371799469, 0.0015028377529233694, 0.08546973764896393, -0.012217219918966293, -0.07713553309440613, 0.03154188022017479, 0.03930662199854851, 0.19219176471233368, 0.24675554037094116, -0.21187227964401245, 0.10790420323610306, 0.044856153428554535, 0.15460391342639923, 0.03328540176153183, 0.06698578596115112, 0.022195076569914818, 0.2962243854999542, -0.1047670766711235, -0.07498066127300262, -0.2172171175479889, -0.08391231298446655, 0.14659009873867035, 0.12595368921756744, -0.22085127234458923, 0.20968617498874664, 0.22455449402332306, -0.24504920840263367, 0.029290931299328804, -0.2710145115852356, 0.1387198269367218, -0.11857208609580994, -0.07103872299194336, -0.15764686465263367, -0.17856264114379883, 0.12948371469974518, -0.024274947121739388, -0.018253633752465248, -0.10891389101743698, 0.12325374037027359, -0.13456229865550995, -0.0003601553326006979, -0.136024609208107, -0.14177468419075012, 0.17978720366954803, -0.046509239822626114, -0.019157249480485916, -0.011928500607609749, 0.23127786815166473, -0.06507192552089691, -0.16838042438030243, 0.26351526379585266, -0.34299910068511963, 0.1309971660375595, 0.0798516571521759, -0.15019568800926208, 0.2544364929199219, 0.2941388487815857, -0.1726769059896469, 0.047920770943164825, -0.02718266472220421, 0.26986148953437805, 0.1570713222026825, 0.047190435230731964, 0.05168348550796509, 0.23358944058418274, 0.031625255942344666, -0.0451262965798378, -0.1827070564031601, -0.1415986269712448, 0.22160454094409943, 0.0886363685131073, -0.08088517189025879, 0.0933137908577919, -0.10848814249038696, -0.010621116496622562, -0.0888843834400177, 0.19553500413894653, 0.17082929611206055, 0.13941052556037903, 0.08336789906024933, -0.17984633147716522, -0.16248321533203125, 0.0682828277349472, -0.16653692722320557, 0.08563874661922455, -0.2129647582769394, 0.06999923288822174, 0.18058721721172333, -0.26195603609085083, 0.28996869921684265, 0.12157215923070908, -0.11639807373285294, 0.00761571666225791, -0.2708396315574646, -0.19764499366283417, -0.13130466639995575, 0.034585993736982346, -0.030170327052474022, -0.02558896876871586, -0.19392706453800201, 0.13555261492729187, 0.15314312279224396, 0.11936136335134506, 0.07482987642288208, 0.06686650216579437, 0.02008805237710476, -0.17866148054599762, 0.057762645184993744, -0.23549768328666687, -0.1480620950460434, -0.08926123380661011, 0.254776269197464, -0.09790756553411484, -0.06377542018890381, 0.30379465222358704, -0.11285635828971863, -0.24459028244018555, 0.13761413097381592, 0.017243437469005585, -0.1694582998752594, 0.018482329323887825, -0.16239842772483826, 0.011618351563811302, 0.24022141098976135, 0.03472071886062622, -0.16460472345352173, 0.1796094924211502, 0.20209132134914398, 0.0018962620524689555, 0.09564868360757828, 0.036275215446949005, -0.06552842259407043, 0.03498033434152603, 0.173360675573349, -0.13350936770439148, 0.03046485409140587, 0.12022586911916733, -0.15630896389484406, -0.049357421696186066, 0.06214536726474762, 0.1146404966711998, 0.06723107397556305, 0.07170534878969193, -0.20695291459560394, -0.24410727620124817, -0.0410437174141407, 0.1850285679101944, -0.0700436607003212, -0.15409746766090393, 0.017303667962551117, 0.01609744317829609, 0.08415357023477554, -0.28520673513412476, 0.15938988327980042, 0.08226476609706879, -0.28591275215148926, 0.06554963439702988, -0.19260483980178833, 0.13613349199295044, -0.28607049584388733, 0.16083185374736786, 0.08210063725709915, -0.0937541127204895, 0.36188948154449463, -0.102119080722332, 0.20890745520591736, 0.013027562759816647, 0.041009314358234406, -0.08527147769927979, 0.000441515730926767, 0.011943858116865158, 0.2062065154314041, -0.03889470547437668, -0.09555087983608246, -0.27881917357444763, -0.23337706923484802, -0.42038604617118835, 0.05883311480283737, -0.17573361098766327, -0.0439264178276062, -0.14329373836517334, -0.45771855115890503, -0.31768250465393066, 0.15406805276870728, -0.03940194845199585, -0.20745396614074707, -0.02767980471253395, 0.09354153275489807, 0.009115549735724926, 0.2288617342710495, 0.023142805323004723, -0.08383091539144516, -0.09158829599618912, -0.1396103948354721, 0.030321987345814705, -0.07735215127468109, 0.05571506917476654, 0.04649652913212776, 0.09787189960479736, -0.04271594062447548, -0.19261468946933746, 0.09288746118545532, -0.06877864897251129, 0.006022783927619457, 0.0708005428314209, 0.24702325463294983, 0.1552101969718933, 0.19808895885944366, 0.12560012936592102, -0.08080260455608368, 0.2229723334312439, 0.06487654149532318, -0.277373343706131, 0.19757212698459625, 0.050542738288640976, 0.01033886056393385, -0.19521068036556244, -0.012609533034265041, 0.11361133307218552, -0.022221185266971588, -0.12633585929870605, -0.027367526665329933, 0.1982063204050064, 0.2685193717479706, 0.05370942875742912, 0.09274449199438095, 0.12688884139060974, -0.1235044002532959, 0.002268242882564664, 0.1310085505247116, 0.06524991244077682, 0.15119512379169464, 0.02557116560637951, -0.07732310146093369, -0.058200642466545105, 0.03232003375887871, -0.06541801989078522, -0.04691877216100693, 0.0858246311545372, -0.15324297547340393, -0.10177575796842575, 0.011044293642044067, 0.13620734214782715, 0.04125410318374634, -0.038551390171051025, 0.08392246067523956, 0.055870864540338516, 0.04043959453701973, -0.032283589243888855, 0.1304197907447815, -0.14393532276153564, -0.11900920420885086, -0.15940871834754944, -0.0674983412027359, 0.15275143086910248, 0.03442469239234924, -0.3081724941730499, 0.21872976422309875, 0.10916607826948166, -0.12203855812549591, -0.08016593009233475, 0.1404770016670227, 0.17219701409339905, -0.2021680772304535, 0.09878803044557571, 0.06054006889462471, 0.058815937489271164, 0.0639948844909668, -0.11954846233129501, -0.2015710175037384, -0.1055443286895752, -0.16086608171463013, 0.004791025537997484, 0.18594972789287567, -0.10904335230588913, -0.2795577049255371, -0.056496381759643555, -0.02478177845478058, -0.1182822585105896, 0.10610435158014297, 0.08433181792497635, -0.04471174255013466, -0.18708619475364685, -0.17136706411838531, -0.1355406641960144, 0.13387107849121094, 0.07957202941179276, -0.08047893643379211, 0.01736011914908886, 0.0450940765440464, 0.04277694970369339, 0.05620170757174492, 0.04472055286169052, 0.16989953815937042, 0.23198753595352173, 0.016482941806316376, 0.026855191215872765, 0.08334538340568542, 0.033040400594472885, 0.022179272025823593, -0.11024435609579086, -0.04260479658842087, 0.1599227637052536, 0.12564033269882202, 0.0395006500184536, -0.25248032808303833, -0.12204112857580185, 0.13921327888965607, 0.13720718026161194, -0.052192702889442444, 0.03578547388315201, 0.13783103227615356, 0.09432992339134216, 0.2013639211654663, -0.2322748601436615, -0.15333908796310425, 0.020250942558050156, 0.10022701323032379, -0.04923281818628311, -0.0025586960837244987, -0.1382085233926773, -0.27910226583480835, -0.15203213691711426, 0.2362750768661499, -0.12703056633472443, -0.21806462109088898, 0.1053544357419014, -0.09539688378572464, -0.17713117599487305, 0.29326677322387695, 0.17073604464530945, 0.14036953449249268, -0.07624897360801697, -0.18013431131839752, -0.10686249285936356, 0.20969997346401215, 0.08388043195009232, 0.0484389066696167, -0.29434773325920105, -0.075391486287117, 0.08495581895112991, -0.14446671307086945, -0.16531197726726532, -0.1616407185792923, 0.27018848061561584, -0.1220080554485321, -0.2214299738407135, 0.3189448416233063, 0.17527659237384796, 0.015264679677784443, -0.26543304324150085, 0.3286391794681549, -0.15357448160648346, -0.1043841615319252, 0.30339059233665466, -0.058928269892930984, -0.09170911461114883, -0.0063366033136844635, -0.03685496747493744, -0.15183421969413757, -0.09372813999652863, -0.2169392704963684, 0.14350557327270508, 0.07671339809894562, -0.007988082244992256, -0.009289218112826347, -0.004384732339531183, 0.08447346836328506, 0.1155940368771553, 0.05758317932486534, 0.206923708319664, 0.022662358358502388, -0.03307177498936653, 0.0181244108825922, 0.1279844343662262, 0.14459611475467682, 0.04627285525202751, -0.20417751371860504, -0.09707330167293549, -0.007911006920039654, 0.116112120449543, 0.13101236522197723, 0.1002485379576683, -0.06160638853907585, -0.0798351913690567, 0.06812403351068497, 0.16748686134815216, 0.07271312922239304, -0.12112900614738464, -0.0813838467001915, 0.0490422360599041, 0.11178641766309738, -0.013089162297546864, -0.003879479831084609, -0.002664304571226239, -0.16100485622882843, 0.12575526535511017, -0.14973439276218414, 0.03893229737877846, -0.22432589530944824, -0.12431158870458603, 0.03565381467342377, 0.09428354352712631, 0.06443590670824051, -0.07956691831350327, 0.27332037687301636, -0.015355422161519527, -0.11707299947738647, -0.00951487198472023, 0.19345711171627045, 0.14515918493270874, 0.1528320610523224, 0.08140198886394501, 0.09102402627468109, -0.20717528462409973, -0.16761024296283722, -0.18794800341129303, 0.03513248264789581, 0.017858585342764854, -0.1882459819316864, 0.03052741102874279, -0.11721962690353394, -0.2744787335395813, -0.039025142788887024, -0.011548951268196106, 0.0546087883412838, -0.21613702178001404, -0.03444113954901695, -0.14997033774852753, 0.06082727760076523, 0.16860990226268768, -0.0722341537475586, -0.08831228315830231, -0.09979214519262314, 0.051939159631729126, 0.011024300009012222, 0.0010170603636652231, 0.27726244926452637, 0.09209179878234863, -0.07234933227300644, -0.07857519388198853, 0.07339289039373398, 0.15335246920585632, 0.14800168573856354, 0.028590260073542595, -0.11142964661121368, 0.005782113876193762, 0.13498954474925995, 0.160969540476799, -0.04300485551357269, 0.04258423671126366, 0.02216997556388378, -0.03708784282207489, -0.07613828778266907, 0.13122698664665222, -0.09962236136198044, -0.21760158240795135, -0.12118296325206757, 0.021207647398114204, -0.11567731201648712, 0.06777700781822205, -0.0872906744480133, 0.15343964099884033, 0.30013853311538696, 0.17683036625385284, 0.047395460307598114, 0.13916808366775513, 0.12369559705257416, 0.09867839515209198, 0.2671583592891693, 0.1005837693810463, -0.0015854770317673683, 0.0772518739104271, -0.17249244451522827, 0.006950000301003456, 0.1641911119222641, -0.013804014772176743, 0.11437882483005524, -0.09547016769647598, -0.057022470980882645, -0.045613791793584824, -0.002890906762331724, -0.07134965062141418, -0.10616976767778397, -0.06994829326868057, 0.04816558584570885, -0.0987384170293808, -0.04999791830778122, -0.010221479460597038, 0.021030519157648087, -0.0537927970290184, -0.1491440236568451, -0.1483798772096634, -0.13135811686515808, -0.029984362423419952, -0.08517914265394211, 0.02344813197851181, -0.06644895672798157, -0.040889009833335876, 0.16007371246814728, 0.10823727399110794, -0.16416630148887634, -0.0024227777030318975, -0.02561943046748638, -0.021365411579608917, 0.06332207471132278, -0.09125971794128418, -0.29762983322143555, 0.0021132444962859154, 0.08838082104921341, 0.12596531212329865, -0.012079009786248207, 0.10086235404014587, 0.04605507850646973, 0.08009279519319534, 0.1729505956172943, 0.08085364103317261, -0.033081911504268646, 0.27275368571281433, -0.015933893620967865, -0.09465966373682022, 0.145497664809227, 0.11454018950462341, 0.1185600608587265, 0.11172398179769516, -0.16204367578029633, -0.061039671301841736, -0.053881388157606125, 0.204231858253479, 0.03196890652179718, -0.18230262398719788, -0.21984083950519562, 0.011924211867153645, -0.265193372964859, -0.09825513511896133, -0.05869773030281067, 0.2112080305814743, -0.06043577566742897, -0.06390229612588882, -0.014322981238365173, 0.20990006625652313, 0.15586569905281067, -0.08653604239225388, -0.17022265493869781, -0.031112445518374443, -0.07193399220705032, 0.027236290276050568, 0.08636846393346786, 0.10905836522579193, 0.03233161196112633, -0.0018044420285150409, 0.1427963525056839, -0.03743051365017891, 0.01596464030444622, -0.08653342723846436, -0.039282653480768204, -0.060315389186143875, 0.057438500225543976, -0.2274296134710312, -0.020613837987184525, -0.16738848388195038, -0.21389968693256378, -0.10065416991710663, -0.19709034264087677, -0.038409966975450516, -0.19333681464195251, -0.24193859100341797, -0.06242864578962326, -0.19604122638702393, 0.11618772149085999, 0.07063701003789902, -0.05580234155058861, -0.051436543464660645, 0.049331631511449814, 0.007933822460472584, -0.019491469487547874, -0.06649962812662125, 0.17192842066287994, -0.1046726256608963, -0.004570859484374523, 0.020912133157253265, -0.013607931323349476, -0.07388695329427719, -0.17600388824939728, 0.0042524090968072414, -0.031558845192193985, 0.047949183732271194, -0.1573001593351364, 0.12350847572088242, 0.05042409151792526, 9.454123937757686e-05, -0.12531621754169464, -0.11151181161403656, 0.13999807834625244, 0.1250157356262207, -0.0012820882257074118, -0.018757272511720657, 0.17120523750782013, 0.06698058545589447, -0.06501247733831406, -0.01764923520386219, 0.10048561543226242, 0.26637616753578186, 0.23422594368457794, -0.14953823387622833, -0.09686461091041565, -0.053171560168266296, 0.043668728321790695, -0.057025887072086334, 0.1873125582933426, 0.10200538486242294, -0.29895076155662537, 0.08444850146770477, 0.1288786083459854, -0.1275145560503006, 0.1237642914056778, 0.0930653065443039, -0.17342689633369446, -0.16567064821720123, -0.0022213079500943422, 0.16017401218414307, 0.22235248982906342, 0.03590322285890579, -0.08608726412057877, -0.10861814767122269, -0.11413851380348206, 0.21137697994709015, 0.1238463744521141, 0.03843768686056137, 0.16815300285816193, 0.2622050642967224, -0.11540398746728897, -0.22901222109794617, 0.08943671733140945, 0.170758455991745, -0.2823536694049835, -0.10282085090875626, -0.16841939091682434, 0.1543664038181305, -0.05182899162173271, 0.23297986388206482, 0.10775509476661682, -0.18492715060710907, 0.18290086090564728, 0.103670634329319, 0.029664700850844383, -0.07796861976385117, 0.15990543365478516, -0.12770986557006836, 0.062494050711393356, -0.02195691131055355, -0.0367603600025177, -0.03614552691578865, 0.04034721106290817, -0.10352292656898499, -0.02963978983461857, 0.12383387982845306, -0.06659553945064545, 0.14863799512386322, 0.1746942400932312, 0.1878812313079834, -0.08156327158212662, 0.0484950914978981, -0.16639038920402527, 0.001038616755977273, -0.08034545928239822, -0.12199905514717102, -0.021299468353390694, -0.11545287817716599, -0.13568826019763947, -0.14976878464221954, -0.04198034852743149, 0.19575046002864838, -0.09532622992992401, 0.02806825190782547, 0.011308412998914719, -0.015043630264699459, -0.13256022334098816, -0.13545824587345123, -0.1538809835910797, 0.16811028122901917, -0.07701019942760468, -0.2984098196029663, 0.14987583458423615, -0.016645267605781555, 0.006214080844074488, -0.18615339696407318, -0.15801632404327393, 0.07533884793519974, 0.0980919897556305, 0.1375962495803833, 0.09971797466278076, -0.23474226891994476, 0.04199754446744919, -0.20173688232898712, -0.007446862291544676, -0.032828330993652344, 0.09374581277370453, 0.0522775799036026, 0.08443978428840637, 0.03233793005347252, -0.0848383978009224, -0.014007276855409145, -0.03256029635667801, -0.02026868797838688, -0.1244310587644577, 0.051953453570604324, -0.20983439683914185, 0.04492199048399925, -0.39426103234291077, -0.12588708102703094, 0.14090050756931305, -0.16900920867919922, 0.040067192167043686, -0.16179320216178894, 0.021306263282895088, -0.026120472699403763, 0.1676035225391388, 0.0934578999876976, -0.032497577369213104, -0.055636897683143616, -0.048778288066387177, 0.16705505549907684, -0.1567821055650711, 0.06452562659978867, -0.04276023805141449, 0.1752185970544815, 0.05254777893424034, 0.02706781029701233, 0.09377159178256989, -0.057843439280986786, -0.1474326103925705, 0.05448932200670242, 0.10738338530063629, 0.05080132186412811, -0.11894601583480835, 0.020015275105834007, -0.019815929234027863, 0.13236688077449799, -0.0978083461523056, -0.12063080072402954, 0.1887868195772171, 0.0306246355175972, -0.17256039381027222, -0.1524602621793747, 0.018125135451555252, 0.2852092385292053, -0.06575321406126022, 0.04113032668828964, 0.004918908700346947, -0.09392835944890976, -0.013814846985042095, -0.17561011016368866, 0.05628419667482376, -0.09282529354095459, -0.14092914760112762, 0.07285401970148087, 0.01300257071852684, -0.20546294748783112, 0.10186190158128738, 0.019723430275917053, -0.076090008020401, -0.07823029905557632, -0.09527140855789185, 0.09530680626630783, 0.11883264780044556, -0.0069099063985049725, -0.18833079934120178, -0.184746652841568, 0.04959310591220856, 0.10250549018383026, -0.07177963107824326, 0.1093645915389061, 0.10233369469642639, 0.14360685646533966, 0.1028735488653183, -0.15447601675987244, 0.023272808641195297, -0.056323856115341187, -0.09644775837659836, -0.1631079763174057, -0.002855350263416767, 0.09354618191719055, -0.09271324425935745, 0.2580452561378479, 0.023696310818195343, -0.06384650617837906, 0.22867989540100098, 0.06071672961115837, 0.0059808422811329365, -0.033495355397462845, 0.10786080360412598, -0.0712529867887497, -0.07995077967643738, -0.02072175405919552, -0.04263864457607269, 0.04896113649010658, -0.06261508911848068, 0.005008249543607235, -0.13011811673641205, -0.04709376022219658, -0.09608089178800583, 0.09356336295604706, -0.07370667904615402, 0.041450995951890945, -0.1548178493976593, 0.19079777598381042, 0.03561248257756233, -0.1342610865831375, 0.06696493178606033, 0.10625243932008743, -0.006226831581443548, 0.14374712109565735, -0.06988978385925293, 0.032918091863393784, 0.09267594665288925, -0.03903409093618393, -0.0019521262729540467, -0.20176242291927338, 0.00011032220936613157, 0.010419817641377449, -0.12228397279977798, -0.0818004235625267, -0.12567542493343353, 0.09637834131717682, 0.07861492782831192, -0.12369199097156525, 0.15265274047851562, -0.10387549549341202, 0.12259867787361145, -0.25240132212638855, 0.24529960751533508, 0.46239566802978516, -0.28389033675193787, 0.12171631306409836, 0.1450098305940628, -0.008597136475145817, -0.12285378575325012, -0.04779410734772682, 0.17046187818050385, -0.027443934231996536, 0.21036002039909363, 0.028052110224962234, 0.020976917818188667, 0.08130457252264023, 0.0717708095908165, 0.2389272302389145, -0.12914344668388367, -0.3448452353477478, 0.05028483644127846, -0.08095910400152206, 0.06424608081579208, 0.012095991522073746, -0.15141211450099945, 0.21407565474510193, -0.09240635484457016, -0.22767166793346405, 0.046984393149614334, -0.016428090631961823, 0.11535678803920746, -0.10701829195022583, -0.06079195439815521, -0.24122008681297302, 0.09235145896673203, -0.13475269079208374, 0.09552689641714096, 0.09696300327777863, -0.16741305589675903, 0.1953946053981781, -0.07477005571126938, -0.09255561232566833, -0.060735370963811874, -0.0105363167822361, 0.06122546270489693, -0.23768368363380432, 0.17006976902484894, -0.025049706920981407, 0.17052337527275085, 0.019961442798376083, 0.11364822834730148, 0.03579412028193474, 0.142750084400177, -0.020112331956624985, 0.12778080999851227, -0.03411684185266495, -0.13356724381446838, -0.0032381860073655844, 0.1720820665359497, 0.12661924958229065, 0.024079522117972374, 0.062443725764751434, -0.033211782574653625, 0.09814411401748657, -0.1327820122241974, -0.10781574994325638, -0.00037364778108894825, -0.45674800872802734, 0.9399893283843994, 0.3853831887245178, -0.6365266442298889, 0.23357842862606049, -0.30305105447769165, 0.06836175918579102, 0.49399372935295105, -0.8479634523391724, 1.1076931953430176, 0.6537334322929382, 0.10208118706941605, -0.311958909034729, 0.2004227191209793, -0.7196972370147705, 0.21249911189079285, -0.030800675973296165, -0.07168387621641159, -0.23828823864459991, 0.003254627576097846, 0.08941462635993958, 0.21329762041568756, -0.22302141785621643, 0.12927956879138947, 0.09150548279285431, 0.2220718413591385, 0.14091789722442627, -0.2079542577266693, -0.08535996824502945, -0.06981882452964783, -0.1820683777332306, 0.16133403778076172, -0.42522385716438293, 0.02717677876353264, 0.12580057978630066, 0.2673332393169403, 0.17074346542358398, -0.13245539367198944, -0.1291997879743576, -0.2110438048839569, 0.02435501292347908, -0.1191193014383316, -0.21816322207450867, -0.14048810303211212, 0.1159067302942276, 0.05339372158050537, -0.0068801636807620525, -0.20383884012699127, -0.26669126749038696, -0.16872383654117584, -0.1301261931657791, 0.44351816177368164, -0.06254496425390244, -0.08205191045999527, -0.13333897292613983, -0.12586720287799835, 0.03986618295311928, -0.3353852927684784, 0.11058959364891052, 0.09123848378658295, -0.20480582118034363, -0.0998898446559906, 0.1387328952550888, 0.11515115201473236, -0.007361580617725849, 0.0897231325507164, -0.15716904401779175, 0.0686139240860939, -0.058976590633392334, -0.2377050668001175, 0.10150857269763947, 0.3243502676486969, -0.07969437539577484, -0.013876404613256454, 0.3210352659225464, 0.054787904024124146, -0.038815028965473175, 0.18593727052211761, -0.126914843916893, -0.4377357065677643, 0.002747707301750779, -0.06500183790922165, -0.028214888647198677, 0.33756566047668457, -0.18963593244552612, 0.06251630187034607, -0.08775079250335693, 0.09830813109874725, 0.08201836049556732, -0.35012906789779663, 0.14679011702537537, -0.12411026656627655, -0.08275192230939865, 0.11888672411441803, -0.051117703318595886, -0.13149984180927277, 0.2115470916032791, 0.04686454311013222, 0.006067359354346991, -0.19257736206054688, -0.17598657310009003, 0.25154486298561096, 0.0616559199988842, -0.28173696994781494, 0.018150145187973976, 0.29525408148765564, 0.03852322697639465, 0.13636767864227295, 0.3124328553676605, 0.07239202409982681, 0.22525358200073242, 0.19291819632053375, -0.3216015100479126, -0.017221825197339058, -0.003025948302820325, 0.19334881007671356, 0.027107149362564087, -0.03493325412273407, 0.0889970064163208, -0.2721160054206848, 0.1224733293056488, 0.17886768281459808, -0.1656273603439331, -0.1165408119559288, 0.02433551661670208, -0.17040377855300903, 0.23136091232299805, 0.35821327567100525, 0.4373062551021576, 0.02377135492861271, 0.0534159392118454, -0.11316907405853271, -0.23188650608062744, 0.28273335099220276, -0.29535067081451416, -0.05128515884280205, 0.2986103594303131, 0.6922356486320496, 0.1465473622083664, 0.4166370630264282, 0.48846542835235596, 0.09243506193161011, 0.046136897057294846, -0.30509185791015625, 0.14476794004440308, -0.14081785082817078, 0.19206978380680084, 0.3703491687774658, 0.07245227694511414, -0.2422199696302414, 0.03501679003238678, -0.11904053390026093, 0.05746553838253021, -0.26094141602516174, 0.2391514629125595, -0.31587105989456177, -0.05918196216225624, 0.03372300788760185, 0.01331332791596651, 0.3570902347564697, -0.09413345903158188, -0.19779925048351288, 0.20889486372470856, -0.14281131327152252, 0.07308317720890045, -0.13334320485591888, -0.26544585824012756, -0.08460446447134018, 0.06135956197977066, 0.31403714418411255, -0.1347256749868393, -0.04447465389966965, -0.021044818684458733, 0.16687634587287903, -0.04688871651887894, -0.0796651691198349, -0.2676512897014618, -0.1815902143716812, -0.20632487535476685, 0.5447723865509033, -0.1908102035522461, 0.06039128080010414, -0.04709748178720474, 0.2602810561656952, 0.0816158875823021, -0.531042218208313, 0.07199380546808243, -0.04688328877091408, -0.24736031889915466, 0.0001803578488761559, 0.28723323345184326, 0.22451604902744293, 0.2495850771665573, 0.026577085256576538, -0.007150451652705669, -0.2505832612514496, 0.1783696562051773, 0.27115964889526367, 0.06687901169061661, -0.10891478508710861, -0.22284764051437378, -0.04579460620880127, 0.19915547966957092, -0.09995848685503006, -0.28237196803092957, 0.07641738653182983, 0.04682346060872078, -0.7403721213340759, -0.12341149896383286, -0.20835299789905548, -0.23757565021514893, 0.6491917967796326, 0.03798418864607811, -0.21598996222019196, -0.2457200288772583, 0.17313387989997864, -0.05641109496355057, -0.650911271572113, 0.1409408450126648, -0.0672837495803833, -0.10471060872077942, 0.17499826848506927, -0.10746046155691147, -0.3374287188053131, 0.07823196798563004, -0.2990480959415436, -0.006810094695538282, 0.2083570510149002, -0.10485513508319855, 0.1598283350467682, -0.0942675843834877, -0.04031513258814812, 0.009198334999382496, -0.021170714870095253, -0.18601666390895844, -0.04088752344250679, 0.08619756996631622, -0.14986778795719147, 0.08733247220516205, -0.050236623734235764, 0.23629674315452576, 0.09874797612428665, -0.08440584689378738, -0.09266314655542374, -0.02771444246172905, 0.055135250091552734, -0.03529178723692894, 0.19690784811973572, 0.19132153689861298, 0.0827859416604042, 0.2250235676765442, -0.003019843716174364, 0.1696779578924179, 0.014396128244698048, -0.03708929568529129, -0.07916586101055145, -0.07227962464094162, -0.2025332897901535, -0.38612794876098633, -0.1643998771905899, -0.18203452229499817, -0.09040674567222595, -0.2113642543554306, 0.10069239139556885, 0.17011122405529022, 0.16905155777931213, 0.2764030992984772, -0.32817569375038147, -0.29444658756256104, -0.208370640873909, 0.05907302722334862, 0.011674832552671432, 0.09002124518156052, -0.051711417734622955, 0.12084997445344925, -0.07870492339134216, 0.2718347907066345, 0.184719517827034, 0.14015111327171326, -0.21981696784496307, -0.11701372265815735, 0.02753359265625477, 0.08649694919586182, 0.06292524933815002, 0.10188266634941101, 0.03785496577620506, 0.0030379556119441986, 0.09456311911344528, -0.07159679383039474, 0.0344221293926239, 0.008599304594099522, 0.07882385700941086, 0.12549112737178802, 0.05539032444357872, -0.12509535253047943, -0.16910970211029053, -0.1504109650850296, 0.01957760564982891, 0.14124107360839844, -0.03856384754180908, -0.19059111177921295, -0.20489929616451263, 0.01298899482935667, -0.0933796763420105, 0.19538281857967377, 0.2005886435508728, 0.01556010264903307, -0.14387579262256622, -0.10572998225688934, -0.04430094361305237, 0.10174955427646637, 0.06381462514400482, -0.07222007215023041, -0.1599980741739273, 0.031057510524988174, 0.05557290092110634, -0.06666459143161774, -0.07446407526731491, -0.13960881531238556, 0.0009868510533124208, 0.15525469183921814, -0.1836426854133606, -0.11618736386299133, -0.17102298140525818, 0.03229361027479172, -0.014928913675248623, 0.12515439093112946, 0.09567257016897202, -0.12581242620944977, -0.09494636207818985, 0.06855456531047821, -0.05813031271100044, -0.16725100576877594, -0.19414103031158447, -0.06925766170024872, -0.09813113510608673, -0.044482048600912094, -0.12525881826877594, -0.07165759056806564, -0.2615346908569336, -0.04489293321967125, 0.001112880534492433, 0.06718865036964417, 0.07865499705076218, 0.03513762354850769, 0.14641249179840088, 0.07067389041185379, -0.11446276307106018, 0.18586692214012146, 0.10183698683977127, 0.1645076423883438, -0.18328487873077393, 0.19093236327171326, -0.14830607175827026, 0.030924053862690926, 0.07161097973585129, -0.026294631883502007, -0.22636452317237854, 0.03415774926543236, -0.0806676372885704, 0.23804347217082977, -0.014856253750622272, 0.0013029584661126137, -0.07114813476800919, 0.08248079568147659, -0.11796331405639648, 0.29357075691223145, 0.05611661821603775, 0.20623356103897095, -0.04364122077822685, -0.23030652105808258, -0.06947098672389984, 0.2630191147327423, -0.12184549868106842, -0.25951486825942993, 0.0879383459687233, -0.09378210455179214, 0.07086758315563202, 0.16366571187973022, -0.03291743993759155, 0.07524574548006058, 0.08601368963718414, -0.13519269227981567, -0.13587898015975952, -0.320583313703537, 0.22011832892894745, 0.18213826417922974, 0.04461846500635147, -0.11900406330823898, -0.12944145500659943, 0.1843567192554474, -0.1687512844800949, -0.05523499846458435, 0.0019452086417004466, 0.09778447449207306, 0.10986752063035965, -0.00860557146370411, -0.2269277125597, -0.23852397501468658, -0.4293380677700043, 0.031348902732133865, 0.02993311733007431, 0.10741977393627167, -0.17396673560142517, 0.022146034985780716, -0.16133257746696472, 0.23043616116046906, 0.08676915615797043, 0.3572019636631012, -0.07742632925510406, -0.13445742428302765, -0.4321903586387634, 0.10418245196342468, 0.04013017192482948, 0.370005339384079, -0.3805960714817047, -0.1676996946334839, -0.2133878916501999, -0.024670079350471497, 0.03763430938124657, 0.36578723788261414, -0.24182413518428802, -0.048663679510354996, 0.12299862504005432, -0.1877782940864563, 0.24510903656482697, 0.17089097201824188, 0.0013605221174657345, -0.09469881653785706, -0.032181400805711746, 0.13514605164527893, 0.03316975757479668, 0.11285444349050522, -0.014404624700546265, -0.07825268805027008, 0.05195283889770508, 0.013829011470079422, 0.22868038713932037, 0.18940682709217072, 0.012811561115086079, 0.09522036463022232, 0.08491890132427216, 0.10578883439302444, 0.2130085974931717, 0.1495739221572876, -0.06173229217529297, 0.1160988137125969, -0.22917689383029938, -0.13421501219272614, 0.048811174929142, 0.014216726645827293, -0.037959396839141846, 0.06120926886796951, -0.08401945978403091, -0.06362160295248032, 0.10313665866851807, -0.10373937338590622, -0.13536305725574493, -0.23536264896392822, -0.028570223599672318, -0.007571250665932894, 0.08952943980693817, 0.31808674335479736, 0.07397929579019547, 0.0734666958451271, 0.14199379086494446, 0.17534005641937256, -0.015345096588134766, 0.2838483452796936, 0.10058227181434631, 0.025894129648804665, 0.10663661360740662, -0.16209857165813446, -0.15592233836650848, 0.04277705028653145, -0.065510094165802, 0.021565979346632957, 0.05129660665988922, 0.01298550795763731, 0.1995856761932373, 0.041112031787633896, -0.08690077811479568, 0.1272595375776291, 0.16912221908569336, 0.12076527625322342, -0.10909675061702728, 0.13130009174346924, 0.054467327892780304, 0.23617254197597504, 0.01809775084257126, -0.008630574680864811, -0.058558493852615356, -0.09853016585111618, -0.1393141746520996, -0.007459617685526609, 0.10879533737897873, 0.10696446895599365, -0.010516284964978695, -0.02056821808218956, 0.17529338598251343, 0.00745197432115674, -0.07130762189626694, -0.06550677865743637, -0.2972939908504486, 0.11585575342178345, -0.015847476199269295, -0.06842659413814545, -0.025876158848404884, 0.08602166175842285, -0.0017708296654745936, 0.0617438405752182, -0.004461290780454874, 0.047550566494464874, -0.04960264638066292, -0.16459640860557556, -0.11545806378126144, 0.0624714121222496, -0.03216038644313812, -0.33098742365837097, -0.20644104480743408, -0.03364457190036774, -0.2892305850982666, -0.26210665702819824, 0.016637027263641357, 0.07957552373409271, -0.04591976851224899, -0.008409435860812664, -0.08445862680673599, -0.09759367257356644, -0.1257213056087494, -0.13501597940921783, 0.02856484241783619, -0.034502893686294556, -0.05509983375668526, 0.1699906289577484, 0.20791640877723694, 0.017735904082655907, 0.062407709658145905, -0.19369493424892426, 0.031858038157224655, -0.10278796404600143, -0.11998884379863739, -0.1784796565771103, -0.1285419911146164, 0.08246486634016037, -0.06608918309211731, 0.049478355795145035, 0.0777624100446701, -0.05614864453673363, -0.028909992426633835, 0.03878573700785637, -0.14661918580532074, 0.17349882423877716, -0.0004487088299356401, -0.06254112720489502, 0.019424593076109886, -0.024416809901595116, -0.0275089293718338, 0.005747979506850243, -0.0020912420004606247, 0.06693845242261887, -0.04295428842306137, 0.000887738075107336, 0.06258272379636765, 0.027890777215361595, -0.19806808233261108, -0.06382235139608383, -0.06838008016347885, -0.05885449796915054, 0.0470716655254364, 0.028407083824276924, 0.04725465923547745, 0.08006548881530762, 0.13409925997257233, 0.05354046821594238, 0.09815272688865662, -0.025175748392939568, 0.0208833497017622, 0.11160758137702942, 0.14950315654277802, -0.097324900329113, 0.11070235073566437, 0.23756295442581177, -0.11755618453025818, -0.191496804356575, -0.163070946931839, 0.019270719960331917, 0.033746570348739624, 0.03524567931890488, -0.1214645504951477, -0.11501997709274292, -0.25566238164901733, 0.12815967202186584, -0.039143480360507965, 0.018293580040335655, -0.15384967625141144, 0.13120603561401367, -0.23824764788150787, -0.0169125534594059, 0.07761256396770477, 0.2185184210538864, -0.236166849732399, -0.014086847193539143, 0.044039536267519, 0.18393273651599884, 0.2269226759672165, 0.18057306110858917, -0.18034160137176514, -0.06285460293292999, -0.20087063312530518, 0.12153372913599014, 0.07871928066015244, -0.07885996997356415, -0.1936764419078827, -0.034064605832099915, 0.1253412961959839, -0.2861945629119873, -0.07033294439315796, 0.17557504773139954, -0.013747762888669968, -0.05121506378054619, -0.09869974851608276, 0.008035842329263687, -0.050940509885549545, -0.16795535385608673, 0.030171100050210953, 0.06455686688423157, 0.0505288802087307, -0.024885334074497223, 0.0655079111456871, -0.02288142405450344, 0.10118873417377472, -0.2809145450592041, 0.05210801959037781, 0.17178574204444885, 0.2563103437423706, 0.19190584123134613, 0.05258866399526596, -0.051456041634082794, -0.1483573019504547, -0.11093489825725555, 0.04494117945432663, -0.09264978766441345, -0.003295301226899028, 0.05805201083421707, -0.07387428730726242, -0.15853193402290344, 0.20609554648399353, 0.011584955267608166, -0.030387388542294502, -0.056566763669252396, -0.06259148567914963, 0.049264952540397644, 0.04954487457871437, 0.026498984545469284, -0.1495434045791626, -0.16662819683551788, -0.06903999298810959, 0.2847311496734619, 0.0503385104238987, 0.024514833465218544, 0.14736740291118622, 0.22562524676322937, -0.08240014314651489, -0.07270029187202454, 0.16717323660850525, -0.2244303971529007, -0.13846276700496674, -0.023723706603050232, -0.12405243515968323, 0.041436877101659775, -0.05457301810383797, 0.20352835953235626, -0.033216509968042374, 0.035635773092508316, -0.15094220638275146, 0.2562400996685028, -0.16227073967456818, -0.216192826628685, 0.19764827191829681, -0.03317750617861748, 0.022382410243153572, -0.23150917887687683, -0.3101843297481537, -0.011962096206843853, 0.08724594116210938, 0.022722583264112473, 0.23135043680667877, -0.029579509049654007, -0.06319494545459747, -0.16108320653438568, 0.05226543918251991, 0.07291647046804428, 0.1596481204032898, -0.12400483340024948, -0.18154390156269073, -0.09384074807167053, 0.11763735860586166, 0.14768563210964203, 0.10427673161029816, -0.2545941174030304, -0.11651786416769028, -0.20138530433177948, 0.1387059986591339, 0.1654607206583023, 0.06774288415908813, -0.3407440781593323, 0.1595851480960846, -0.07971949875354767, -0.049664080142974854, -0.16826371848583221, 0.05180976539850235, 0.1724175363779068, 0.04309908300638199, 0.10524098575115204, 0.007887003012001514, 0.07336238771677017, -0.022277692332863808, -0.06583382934331894, -0.2643252909183502, 0.19318316876888275, 0.1659330427646637, 0.26030683517456055, -0.15887950360774994, -0.21613262593746185, 0.14858970046043396, 0.04849599674344063, -0.007421231362968683, -0.14346826076507568, -0.07169878482818604, 0.09913482517004013, 0.12629681825637817, 0.08641015738248825, 0.15520113706588745, 0.35709285736083984, 0.1011585146188736, -0.190311998128891, 0.19517777860164642, -0.09392889589071274, -0.03630265220999718, 0.24260513484477997, -0.03024589829146862, -0.0643000528216362, 0.06303355097770691, -0.0229008998721838, -0.01943146251142025, -0.006983959581702948, 0.04432561248540878, -0.014701446518301964, -0.17772792279720306, 0.13523750007152557, -0.030679980292916298, -0.16064968705177307, 0.00468653067946434, 0.07601010799407959, -0.25875619053840637, -0.014359571970999241, 0.011381211690604687, 0.030709758400917053, 0.04932588338851929, -0.12436848133802414, 0.06363052874803543, -0.18376658856868744, -0.20097731053829193, -0.09417056292295456, 0.01161100622266531, 0.23042061924934387, 0.046237871050834656, 0.04432420805096626, 0.26625171303749084, 0.19983385503292084, -0.0071379877626895905, -0.002986093983054161, -0.04733435809612274, 0.028017522767186165, 0.09098543971776962, -0.03806415572762489, -0.10052888095378876, -0.011389537714421749, -0.12889878451824188, -0.09747566282749176, -0.012222092598676682, 0.18795689940452576, 0.07791286706924438, 0.015094582922756672, 0.30448415875434875, 0.19735433161258698, -0.1471267193555832, 0.01501272153109312, -0.09968835860490799, -0.09752067178487778, 0.03785572573542595, 0.1563795506954193, 0.05577690899372101, 0.006963352207094431, 0.08592934161424637, 0.09094986319541931, 0.05903187394142151, 0.10407686233520508, -0.09973015636205673, -0.2465611696243286, 0.04294342175126076, 0.06003974750638008, -0.022464098408818245, 0.002670448739081621, 0.22059935331344604, 0.09524259716272354, -0.019256645813584328, -0.07342018932104111, -0.09917224943637848, -0.279073029756546, -0.2426472306251526, -0.07573630660772324, 0.03578672558069229, 0.045460764318704605, -0.04806825891137123, -0.04056449979543686, 0.03154115751385689, 0.07733092457056046, 0.23299382627010345, -0.09096303582191467, -0.038677286356687546, 0.2167004942893982, 0.023832963779568672, -0.06688863784074783, -0.15578298270702362, 0.061314843595027924, -0.115816630423069, -0.028711074963212013, 0.005080684553831816, -0.07953722774982452, -0.3366008400917053, -0.1359982043504715, -0.027341144159436226, -0.007210711948573589, -0.15793165564537048, -0.03526581451296806, -0.2625482976436615, 0.08365729451179504, -0.06793784350156784, 0.1530572474002838, -0.0944058895111084, -0.20149998366832733, -0.018088802695274353, 0.1576673686504364, 0.14111796021461487, 0.18074114620685577, 0.032586969435214996, 0.05825553089380264, -0.1559448093175888, 0.03707526996731758, 0.13293926417827606, 0.19347535073757172, -0.16490685939788818, 0.16798549890518188, 0.09169358760118484, 0.014097192324697971, -0.006507209036499262, 0.013780784793198109, 0.003695814171805978, 0.10053902119398117, -0.14109289646148682, 0.12629647552967072, 0.01672866940498352, -0.007939718663692474, 0.10489888489246368, 0.06735026836395264, 0.19244077801704407, -0.2056877315044403, 0.2738058567047119, 0.06964797526597977, -0.32811203598976135, -0.19881924986839294, -0.10610514879226685, 0.019069010391831398, 0.18025319278240204, 0.11625790596008301, -0.22840623557567596, 0.03442736342549324, -0.0744558796286583, 0.10518588870763779, -0.1130707859992981, 0.2176186889410019, -0.20856814086437225, -0.0599188506603241, -0.18102967739105225, 0.353685200214386, 0.07073872536420822, 0.21552108228206635, -0.40982016921043396, -0.20029793679714203, 0.14437244832515717, 0.26895594596862793, 0.11431942135095596, 0.11520983278751373, -0.4753071963787079, -0.12400398403406143, -0.13224215805530548, 0.3215620219707489, 0.021777469664812088, -0.07351884245872498, -0.3415561020374298, 0.2309902310371399, 0.118709035217762, -0.12800352275371552, 0.019585121423006058, -0.02705443650484085, -0.018383091315627098, 0.0495450459420681, -0.033016473054885864, 0.16399338841438293, 0.13280250132083893, -0.053121790289878845, 0.13006721436977386, -0.012645368464291096, 0.024235984310507774, 0.011837220750749111, -0.0800352692604065, -0.025804927572607994, 0.1502618044614792, 0.18224428594112396, 0.10732311755418777, 0.018638499081134796, 0.21232746541500092, -0.1053571105003357, 0.24170567095279694, -0.07281525433063507, -0.007360690273344517, -0.03367519751191139, -0.23555181920528412, 0.027904441580176353, 0.14118388295173645, -0.24369822442531586, -0.012964366003870964, -0.20455701649188995, -0.011699795722961426, -0.08135472238063812, 0.181939959526062, -0.15760746598243713, -0.12812279164791107, 0.01808725856244564, 0.13663701713085175, -0.08031444996595383, 0.23341898620128632, 0.1154676228761673, 0.014287391677498817, -0.05101538449525833, 0.23546350002288818, 0.017826633527874947, 0.04676426202058792, -0.09547251462936401, -0.11346010863780975, 0.14960560202598572, -0.07231667637825012, -0.05402558296918869, 0.07640422880649567, 0.10492245107889175, 0.13579551875591278, 0.08844181895256042, 0.07602134346961975, 0.04297715052962303, 0.054453056305646896, -0.1001962199807167, 0.028772249817848206, 0.05039649456739426, -0.0575316846370697, 0.046306461095809937, 0.12971213459968567, -0.018509361892938614, -0.04759574308991432, 0.07756990194320679, -0.1363123208284378, 0.009547972120344639, -0.13639259338378906, 0.1380440890789032, -0.10729575902223587, 0.007224886678159237, 0.10724736750125885, -0.03327348455786705, 0.1732444316148758, -0.11009145528078079, -0.017583250999450684, 0.0842658281326294, -0.11693359166383743, 0.1315888911485672, 0.07396545261144638, 0.09041108191013336, 0.09426064044237137, 0.04641670733690262, -0.034141331911087036, -0.0677759200334549, 0.05819715932011604, 0.2107354998588562, -0.15970921516418457, -0.16194434463977814, -0.19369050860404968, -0.011175815016031265, -0.12086283415555954, -0.1110968291759491, 0.16706718504428864, -0.010648165829479694, -0.16317518055438995, 0.015646357089281082, 0.06984920054674149, -0.02341095171868801, 0.06900710612535477, 0.04663579538464546, -0.2967450022697449, 0.05129246041178703, 0.13515564799308777, -0.15946915745735168, -0.018294835463166237, -0.06664106249809265, 0.0530225969851017, -0.026600824669003487, -0.10703057050704956, -0.0832442119717598, 0.060294996947050095, 0.2088199108839035, 0.19735459983348846, 0.07399565726518631, 0.04662606865167618, 0.10354849696159363, 0.011344742961227894, -0.06251072138547897, 0.07196535915136337, -0.06297355890274048, -0.2026897668838501, 0.05531773716211319, 0.07685071229934692, -0.22338028252124786, 0.24099116027355194, -0.057021286338567734, 0.004328649491071701, -0.19061970710754395, -0.04814077168703079, 0.061392590403556824, -0.05842677503824234, 0.12843988835811615, -0.0809151753783226, 0.03051668405532837, -0.0029040242079645395, 0.00311580253764987, -0.2549397349357605, -0.01852649264037609, 0.10595376044511795, 0.03246959671378136, 0.021496932953596115, 0.043368518352508545, 0.2970081865787506, 0.10370581597089767, 0.027291150763630867, -0.12066327780485153, -0.030054103583097458, 0.19635756313800812, 0.1768876314163208, 0.022416621446609497, 0.21874311566352844, -0.19236457347869873, 0.0955827608704567, 0.07230217009782791, -0.1611049473285675, -0.35097798705101013, 0.24711716175079346, 0.08838117867708206, 0.041803762316703796, -0.1598297506570816, -0.0396222360432148, 0.06177648529410362, -0.15224525332450867, 0.05605631321668625, 0.9917735457420349, 0.3160940408706665, 0.5517168641090393, -1.0846810340881348, -0.5008131265640259, 0.03921620920300484, 0.33282074332237244, -0.2707078754901886, 0.34499621391296387, 0.15385976433753967, -0.7294461727142334, 0.2546900808811188, -0.02481922134757042, -0.7857860326766968, 0.0941946879029274, -0.3042546808719635, 0.03974767029285431, -0.1528957039117813, 0.44659125804901123, -0.22240996360778809, 0.10738760232925415, 0.17028234899044037, 0.032384298741817474, -0.20611494779586792, -0.2680293917655945, 0.014167162589728832, -0.23248493671417236, -0.006020506843924522, 0.20476780831813812, -0.204151913523674, 0.18586614727973938, -0.03903510048985481, -0.21218843758106232, -0.18791939318180084, 0.11288682371377945, 0.01480374950915575, -0.08693236857652664, -0.11681143939495087, 0.1120731383562088, 0.06856076419353485, -0.27281537652015686, 0.18511170148849487, 0.15624287724494934, 0.22830958664417267, -0.04771798476576805, 0.16629698872566223, -0.11201834678649902, -0.026811350136995316, -0.132780060172081, 0.11092641949653625, -0.35920125246047974, -0.2820715606212616, -0.0552431158721447, -0.17211271822452545, -0.2226109653711319, 0.09543304145336151, 0.2849462330341339, -0.07309629768133163, 0.024072375148534775, -0.17453227937221527, -0.13857051730155945, 0.17287154495716095, -0.026593195274472237, 0.24327614903450012, 0.06405694037675858, -0.1991189867258072, -0.15696698427200317, -0.059150081127882004, 0.2552601397037506, 0.2531222403049469, 0.1469898819923401, -0.09574321657419205, -0.06981157511472702, -0.35779640078544617, 0.05518772080540657, -0.22069872915744781, 0.22205151617527008, 0.08401915431022644, 0.11430768668651581, -0.3083798587322235, 0.03266522288322449, 0.03906329348683357, -0.09382300823926926, 0.022469129413366318, 0.28093647956848145, 0.1845293492078781, 0.2583925127983093, -0.31912851333618164, 0.2688906490802765, -0.45968708395957947, -0.3001539707183838, 0.30391940474510193, -0.16635116934776306, -0.09747163206338882, 0.021018903702497482, -0.4134889841079712, -0.42832228541374207, 0.26877400279045105, 0.3478070795536041, 0.42780226469039917, -0.01177922636270523, 0.1481880247592926, 0.1883331835269928, -0.05200403183698654, -0.030359748750925064, 0.011009522713720798, -0.2507486343383789, 0.256531298160553, 0.023015137761831284, 0.2750556170940399, -0.19531844556331635, 0.06197386980056763, -0.19608339667320251, -0.20664474368095398, 0.01701633259654045, 0.1342311054468155, -0.0606071799993515, -0.2480037808418274, 0.04589363560080528, 0.13347695767879486, -0.30761855840682983, 0.38798290491104126, 0.3333173096179962, -0.056465644389390945, 0.2028791308403015, 0.025373045355081558, 0.07485362142324448, -0.23627634346485138, -0.045735832303762436, 0.2904205620288849, -0.16552694141864777, -0.029291730374097824, 0.2021978199481964, -0.2702547013759613, -0.12306878715753555, 0.1977231800556183, 0.12259569764137268, 0.251749187707901, 0.30244210362434387, 0.11552024632692337, -0.24199740588665009, -0.034635286778211594, 0.5047951936721802, 0.151407852768898, -0.3323124945163727, 0.034119099378585815, -0.28505194187164307, -0.08177903294563293, 0.16318447887897491, 0.11001887172460556, -0.22562968730926514, -0.14224307239055634, 0.06372927874326706, -0.17115838825702667, -0.06023796647787094, -0.20265927910804749, 0.033262670040130615, 0.2715962529182434, 0.0550287589430809, -0.017584791406989098, 0.07186021655797958, 0.20661041140556335, 0.31498485803604126, 0.0948069766163826, -0.10334058851003647, 0.0679309070110321, -0.0667596161365509, 0.018271401524543762, -0.28864747285842896, -0.1861816644668579, -0.017676882445812225, -0.13005253672599792, 0.3872470557689667, -0.18896476924419403, 0.23097656667232513, 0.006728836335241795, -0.12234489619731903, 0.14145205914974213, -0.4226738512516022, -0.19567033648490906, -0.2182772159576416, 0.10848601907491684, -0.07352805137634277, -0.15266823768615723, 0.3138549327850342, 0.06034734472632408, -0.07629729807376862, 0.0340338833630085, -0.24686425924301147, 0.08412116765975952, 0.02465839684009552, -0.04307067394256592, 0.007240343373268843, 0.07195895910263062, -0.0451674610376358, -0.1910574585199356, -0.0045149377547204494, -0.27562811970710754, 0.002206831006333232, -0.11478033661842346, -0.10756677389144897, -0.2450147420167923, 0.1984424740076065, 0.2532106935977936, -0.1782190054655075, 0.3390224874019623, 0.21493364870548248, -0.1878676563501358, 0.16895104944705963, 0.28275415301322937, 0.031055817380547523, 0.1388358771800995, -0.041899483650922775, 0.2596716582775116, -0.07864409685134888, -0.04632097855210304, 0.2868466377258301, -0.08066055178642273, -0.484475314617157, -0.09524185210466385, -0.2767808437347412, 0.07382945716381073, 0.05213175714015961, -0.10342267155647278, -0.19515550136566162, 0.15643788874149323, 0.005502690095454454, 0.21040357649326324, 0.2157810777425766, 0.12456085532903671, -0.06616411358118057, -0.129913792014122, 0.01580830290913582, -0.021931475028395653, 0.07024048268795013, -0.07586730271577835, -0.33810365200042725, -0.036683619022369385, 0.16717024147510529, -0.16415444016456604, 0.21424785256385803, -0.04189034178853035, 0.05841219052672386, 0.16021019220352173, -0.2814106345176697, -0.1586059033870697, -0.003943870309740305, 0.2365037351846695, -0.12311240285634995, 0.23041749000549316, -0.12596401572227478, -0.082249216735363, 0.02171616442501545, 0.03805176168680191, -0.2872977554798126, 0.2089138776063919, 0.23902356624603271, 0.10057249665260315, -0.2733882963657379, -0.358024537563324, -0.2869144380092621, -0.2881990075111389, 0.08028826117515564, -0.019877631217241287, -0.09247282892465591, 0.008825769647955894, -0.14039570093154907, -0.152928426861763, 0.12857207655906677, -0.1913420557975769, 0.008662822656333447, 0.07763764262199402, -0.2427617460489273, 0.06359557062387466, 0.10685218870639801, 0.005852480884641409, 0.0843387320637703, 0.0192789975553751, 0.039217088371515274, 0.12206009030342102, -0.19995194673538208, 0.1503692865371704, 0.09398296475410461, 0.17726729810237885, -0.025920232757925987, -0.12645193934440613, -0.07614558190107346, -0.004837853368371725, -0.08318047225475311, -0.11023060232400894, -0.10248260200023651, 0.03400696441531181, 0.0533776730298996, -0.11655217409133911, 0.07063011825084686, 0.20148977637290955, -0.1342863142490387, -0.05814442038536072, 0.031943429261446, 0.03443797305226326, -0.06942842155694962, -0.16448910534381866, -0.28653663396835327, 0.124574214220047, -0.19380782544612885, 0.18525825440883636, 0.0975339338183403, -0.062438592314720154, 0.021672537550330162, 0.3224155306816101, 0.0955856442451477, -0.2512502372264862, 0.18229378759860992, -0.2695752680301666, 0.008879770524799824, 0.07734335958957672, -0.11590299010276794, 0.004113301634788513, 0.12629301846027374, 0.06934506446123123, -0.17270129919052124, 0.029159197583794594, -0.02740659937262535, -0.25176069140434265, -0.11097678542137146, 0.06482278555631638, 0.1279301941394806, -0.01563001424074173, -0.2404521107673645, -0.23968015611171722, 0.1508796066045761, 0.015532105229794979, 0.13279232382774353, -0.11087270081043243, 0.2760404646396637, 0.161604642868042, -0.11806871742010117, 0.34260615706443787, 0.21940496563911438, 0.123829685151577, -0.10908740013837814, -0.048946380615234375, -0.1257876753807068, -0.4385652542114258, -0.023962028324604034, -0.0944853127002716, 0.2008991688489914, 0.023117506876587868, 0.1879885494709015, -0.1489672064781189, 0.09372631460428238, 0.24811208248138428, 0.03234757483005524, -0.031080855056643486, -0.038745440542697906, 0.10510265827178955, 0.06281311064958572, -0.23693086206912994, 0.0047244057059288025, 0.14694586396217346, 0.07778429985046387, -0.20546916127204895, 0.03588148206472397, -0.06186094880104065, 0.411499947309494, 0.07764729112386703, 0.0616852231323719, -0.6209906935691833, 0.10196034610271454, -0.2210485190153122, -0.11990617960691452, -0.11188142746686935, -0.08991698175668716, -0.2837517559528351, 0.08385034650564194, 0.11902273446321487, -0.21453140676021576, 0.01771402917802334, 0.20258772373199463, -0.01172157097607851, -0.08141016960144043, -0.20680800080299377, 0.036356620490550995, 0.00579842459410429, -0.04618816822767258, -0.3913169205188751, 0.10549475997686386, 0.04914943128824234, 0.24525976181030273, -0.0773794874548912, 0.025044944137334824, 0.14690104126930237, -0.0010859938338398933, -0.17944201827049255, -0.1089632585644722, 0.10140059888362885, -0.22843492031097412, -0.30430957674980164, -0.05821414291858673, -0.05722040683031082, -0.0019105850951746106, 0.14002476632595062, 0.08903671056032181, -0.05917193368077278, -0.23425307869911194, 0.09803315252065659, 0.2705661356449127, -0.10603682696819305, -0.0031328231561928988, -0.15097293257713318, -0.019407477229833603, 0.23240679502487183, -0.21826091408729553, 0.04833388701081276, 0.1578226387500763, 0.2902753949165344, 0.050009533762931824, -0.2005864977836609, 0.16913433372974396, 0.054969675838947296, -0.0806894600391388, -0.024315249174833298, 0.21066591143608093, 0.10357943922281265, -0.02008281834423542, -0.031133590266108513, 0.10251635313034058, -0.017138706520199776, -0.052226725965738297, 0.024869566783308983, -0.3264743685722351, -0.04193083196878433, 0.07803081721067429, -0.35803383588790894, 0.04755460098385811, -0.08137203752994537, 0.03306823968887329, -0.054584089666604996, 0.039301492273807526, 0.5466181635856628, 0.028004704043269157, 0.11216144263744354, -0.1590680629014969, 0.14987659454345703, 0.053918588906526566, 0.2586192190647125, -0.009407532401382923, -0.2927948236465454, -0.12027973681688309, 0.06806513667106628, -0.009072507731616497, -0.13990595936775208, 0.1257719248533249, 0.16086754202842712, 0.06825833022594452, -0.41340914368629456, -0.09322960674762726, 0.3625273108482361, 0.11731372028589249, -0.02677961066365242, -0.340565949678421, -0.0765962153673172, -0.008409623987972736, 0.6616752743721008, -0.048430342227220535, -0.06687714159488678, -0.0628013089299202, 0.05800206586718559, 0.07856836169958115, 0.20703953504562378, -0.03750372305512428, -0.13386306166648865, 0.2316824346780777, -0.14521409571170807, 0.040667127817869186, -0.026905082166194916, 0.06672793626785278, 0.22775422036647797, -0.11583124846220016, 0.018015140667557716, -0.20978844165802002, 0.22837652266025543, 0.06968988478183746, 0.09967438131570816, 0.04443097487092018, -0.04295219108462334, 0.1749318242073059, -0.20181988179683685, 0.13258957862854004, -0.18714137375354767, 0.18335668742656708, 0.04335135966539383, 0.11948689818382263, -0.10930676758289337, 0.08013147115707397, 0.408197283744812, 0.13031266629695892, 0.006969843991100788, 0.25197598338127136, 0.001687231007963419, -0.12642112374305725, 0.054123975336551666, -0.18937136232852936, -0.02293046936392784, 0.1996031254529953, -0.28915926814079285, 0.11290477961301804, -0.018639884889125824, 0.3351030945777893, 0.07068754732608795, -0.03351905941963196, -0.2504832148551941, -0.1014779657125473, 0.0017581528518348932, -0.13780710101127625, -0.14011652767658234, -0.2468550205230713, 0.02766750194132328, 0.07649177312850952, 0.11014876514673233, -0.1235707625746727, -0.1448473334312439, 0.05278387665748596, -0.008863557130098343, -0.02721581608057022, -0.2402033805847168, 0.09547324478626251, 0.17597727477550507, -0.22529703378677368, 0.12514732778072357, -0.05430489405989647, 0.07217919081449509, -0.027661362662911415, -0.02483810856938362, 0.1363639235496521, -0.19447270035743713, -0.06360156089067459, -0.10727758705615997, 0.0843590795993805, -0.09796646237373352, -0.274556428194046, -0.23687924444675446, 0.10198237746953964, -0.09392642974853516, -0.0751914381980896, 0.13745416700839996, 0.24162523448467255, -0.06316583603620529, -0.16908341646194458, 0.2098139524459839, -0.15326298773288727, 0.0758015438914299, -0.003367445431649685, -0.38170433044433594, 0.10091512650251389, -0.10670586675405502, 0.13300344347953796, -0.021733088418841362, 0.037208568304777145, -0.15837745368480682, 0.000592675874941051, -0.12353595346212387, 0.18589279055595398, -0.11887967586517334, -0.1251644492149353, -0.05478523671627045, -0.07077407836914062, -0.09727504849433899, -0.2802104651927948, -0.07055330276489258, 0.0615895576775074, 0.17282558977603912, -0.10301514714956284, 0.01155738066881895, 0.2618614137172699, 0.013503934256732464, -0.1590704321861267, 0.021363072097301483, 0.08742476254701614, 0.016008595004677773, -0.13175012171268463, -0.18534652888774872, -0.07388313859701157, -0.34923070669174194, -0.042664747685194016, -0.1427953988313675, 0.0858578309416771, 0.04264276102185249, 